
\data\
ngram 1=2985
ngram 2=9526
ngram 3=87

\1-grams:
-3.923594	..	-0.08381854
-2.254678	...	-0.02135646
-3.923594	.آﺧﺮ	-0.07064531
-3.923594	.اي	-0.08341489
-3.923594	.اﮔﺮ	-0.0837919
-3.923594	.اﯾﻨﮑﻪ	-0.07844422
-3.923594	.اﯾﻨﻬﺎ	-0.07409696
-3.923594	.اﺳﻼم	-0.08381854
-3.923594	.اﺻﻄﻼﺣﺎت	-0.08381854
-3.923594	.اﻟﺒﺘﻪ	-0.08243232
-3.923594	.اﻻن	-0.08348499
-3.923594	.ﺑﺎ	-0.07064531
-3.923594	.ﺗﻤﺎم	-0.08232692
-3.923594	.ﺧﺪاي	-0.08352003
-3.923594	.ﺳﺮ	-0.08320453
-3.923594	.ﺷﻤﺎ	-0.07032031
-3.923594	.ﻣﻦ	-0.08330972
-3.923594	.ﻧﮕﺬارﯾﺪ	-0.07064531
-3.923594	/در/	-0.08381854
-3.923594	/ﮐﺸﻮر/	-0.08222149
-3.923594	/ﺑﺎ/	-0.0828186
-3.923594	/ﺑﺮاي	-0.08211603
-3.923594	/ﺗﺤﺖ	-0.08381854
-3.923594	13	-0.08381854
-3.923594	</s>
-99	<s>	-0.08381854
-3.923594	UNK	-0.08376675
-3.923594	UNKی	-0.08381854
-3.923594	ء	-0.08373104
-3.923594	آئیم	-0.08376675
-3.190437	آب	-0.1163713
-3.923594	آبرو	-0.0837919
-3.74332	آبروی	-0.0808669
-3.923594	آداب	-0.08365142
-3.923594	آداﺑﯽ	-0.08366019
-3.923594	آداﺑﺶ	-0.08306423
-2.889407	آدم	-0.05323707
-3.923594	آدمی	-0.08172913
-3.923594	آدﻣﯽ	-0.06409942
-3.923594	آدﻣﻬﺎ	-0.08348499
-3.923594	آرامش	-0.08381854
-3.923594	آراي	-0.0815715
-3.923594	آرای	-0.08158915
-3.923594	آرزوي	-0.254167
-3.923594	آزاد	-0.08358172
-3.139284	آزادي	-0.1692175
-3.923594	آزادی	-0.08373104
-3.923594	آسیبی	-0.08381854
-3.74332	آغوش	-0.08157828
-3.923594	آقامحمدخان	-0.08376675
-3.139284	آمریکا	-0.08286384
-3.923594	آمریکاست	-0.08381854
-3.923594	آن	-0.08267818
-3.923594	آنها	-0.08377203
-3.74332	آنهائی	-0.08292536
-3.923594	آنوقت	-0.08369359
-3.923594	آنوقتی	-0.08381854
-3.923594	آه	-0.08007212
-3.923594	آوارﮔﺎن	-0.08367924
-3.923594	آوردﯾﻢ	-0.07391787
-3.923594	آورند	-0.08381854
-3.923594	آوري	-0.08370323
-3.923594	آوري؟	-0.08123621
-3.923594	آورﯾﺪ	-0.07391787
-3.74332	آورﻧﺪ	-0.06866237
-3.923594	آ‌ن‌وقتی	-0.08381854
-3.923594	آﯾﯿﺪ	-0.08306423
-3.923594	آﯾﺎ	-0.0837919
-3.74332	آﯾﺪ	-0.0608159
-3.923594	آﯾﻨﺪ	-0.06424515
-3.923594	آﯾﻨﺪه	-0.07844422
-3.923594	آﯾﻪ	-0.08381854
-3.645313	آﺑﺎد	-0.2993503
-3.923594	آﺑﺎن	-0.0747411
-3.923594	آﺑﺮوي	-0.0702189
-3.923594	آﺑﺮوﯾﯽ	-0.08330972
-3.093527	آﺗﯿﻪ	-0.1865986
-3.493941	آﺗﺶ	-0.04512975
-3.190437	آﺧﺮ	-0.08010747
-3.645313	آﺧﺮت	-0.08276668
-3.923594	آﺧﺮش	-0.07468822
-3.923594	آﺧﺮﯾﻦ	-0.08352003
-3.74332	آﺧﻮﻧﺪ	-0.08329372
-3.923594	آﺧﻮﻧﺪزاده	-0.08381854
-3.923594	آﺧﻮﻧﺪي	-0.08381854
-3.923594	آﺧﻮﻧﺪﻫﺎ	-0.08365142
-3.923594	آﺷﯿﺦ	-0.08381854
-3.923594	آﺷﻔﺘﮕﯽ	-0.08106004
-3.923594	آﺷﻨﺎ	-0.08334478
-3.923594	آﺷﻨﺎﺳﺖ	-0.08377203
-3.923594	آﺷﻮﺑﯽ	-0.08288879
-2.979584	آﻗﺎ	-0.09710072
-3.74332	آﻗﺎي	-0.08371495
-3.414897	آﻗﺎﯾﺎن	-0.08865986
-3.923594	آﻣﺎل	-0.08381854
-3.190437	آﻣﺪ	-0.05059046
-3.923594	آﻣﺪم	-0.08304743
-3.414897	آﻣﺪه	-0.3312061
-3.923594	آﻣﺪﻧﺪ	-0.07059193
-3.414897	آﻣﺮﯾﮑﺎ	-0.1024751
-3.645313	آﻣﺮﯾﮑﺎﯾﯽ	-0.1522593
-3.74332	آﻧﭽﻪ	-0.07197025
-3.74332	آﻧﮑﻪ	-0.08033545
-3.923594	آﻧﯽ	-0.2345936
-3.923594	آﻧﺎن	-0.08366019
-3.052134	آﻧﺠﺎ	-0.06943968
-3.74332	آﻧﺠﺎﯾﯽ	-0.3885555
-3.923594	آﻧﺠﺎﻫﺎي	-0.08320453
-2.480743	آﻧﻬﺎ	-0.09004176
-3.093527	آﻧﻬﺎﯾﯽ	-0.5411484
-3.493941	آﻧﻬﺎﺳﺖ	-0.05956713
-3.74332	آﻧﻮﻗﺖ	-0.08207243
-3.923594	إِلَیْهِ	-0.08381854
-3.923594	إِنا	-0.08381854
-3.923594	ابن	-0.08381854
-3.74332	ابی	-0.08297725
-3.923594	اجازه	-0.08359012
-3.923594	اجانب	-0.08381854
-3.923594	اجداد	-0.08370323
-3.923594	اجر	-0.08381854
-3.923594	اجنبی	-0.08349176
-3.923594	احمدشاه	-0.08381854
-3.923594	احکام	-0.08381854
-3.74332	اختناق	-0.08366164
-3.923594	اختناقی	-0.0837919
-3.923594	اختیار	-0.08356185
-3.923594	اخیر	-0.08381854
-3.923594	ادا	-0.08359012
-2.917435	اداره	-0.2472079
-3.923594	اداري	-0.08370323
-3.74332	ادامه	-0.08366164
-3.923594	اداﻣﻪ	-0.08366019
-3.923594	ادراك	-0.08360837
-3.923594	ادراک	-0.08381854
-3.923594	ادعا	-0.08172913
-3.923594	ادﻋﺎ	-0.2406688
-3.923594	اذا	-0.08381854
-3.923594	اذن	-0.07032031
-3.923594	اذﯾﺖ	-0.07032031
-3.645313	اراده	-0.08179949
-3.923594	اراﺿﯽ	-0.08381854
-3.139284	ارتش	-0.1670145
-3.923594	ارج	-0.08342291
-3.923594	ارجمند	-0.08366019
-3.923594	ارجمندند؛	-0.0837919
-3.923594	ارز	-0.08377203
-3.923594	ارزش	-0.2537283
-3.923594	ارزشمند	-0.08366019
-3.923594	ارزنده‌ای	-0.08172913
-3.923594	ارزﺷﺪاري	-0.07409696
-3.923594	ارزﻧﺪه	-0.08334478
-3.74332	ارضی	-0.08371495
-3.923594	اروپا	-0.08381854
-3.923594	اروﭘﺎ	-0.08376675
-3.923594	ارکان	-0.08355508
-3.923594	ارﺗﮑﺎب	-0.0747411
-3.923594	ارﺗﺠﺎع	-0.0837919
-3.923594	ارﺗﺶ	-0.08381854
-3.923594	ارﺗﺸﯽ	-0.06424515
-3.923594	ارﺟﻤﻨﺪ	-0.08334478
-3.923594	ارﺷﺎد	-0.08359012
-3.645313	ارﺿﯽ	-0.06331074
-3.923594	از/	-0.08381854
-3.923594	ازاﯾﺶ	-0.08366019
-3.923594	ازدواج	-0.08359012
-3.923594	اسباب	-0.08370323
-2.713315	است	-0.1086243
-3.923594	است؛	-0.08370323
-3.923594	است‌	-0.08373104
-3.923594	اسرائیل	-0.08330972
-2.838254	اسلام	-0.07991478
-3.414897	اسلامی	-0.1251429
-3.923594	اسلحه	-0.08376675
-3.923594	اسم	-0.08267818
-3.74332	اش	-0.08262624
-3.923594	اشاره	-0.08381854
-3.923594	اشتباه	-0.08381854
-3.493941	اشخاص	-0.08355801
-3.645313	اشخاصی	-0.08312745
-3.923594	اشرار	-0.08167709
-3.923594	اصحاب	-0.08381854
-3.923594	اصفهان	-0.08381854
-3.923594	اصلاحات	-0.2541403
-3.923594	اصلش	-0.08366019
-3.923594	اصلًا	-0.08381854
-3.923594	اطراف	-0.08377203
-3.645313	اطلاع	-0.08358996
-3.923594	اعاده	-0.08373104
-3.923594	اعظمی	-0.08381854
-3.923594	اغتیال	-0.08381854
-3.923594	اغیار	-0.08330972
-3.493941	افراد	-0.08143295
-3.923594	افرادی	-0.0837401
-3.923594	افساد	-0.08381854
-3.923594	افسرها	-0.0837919
-3.923594	افسرهای	-0.0837919
-3.645313	افکار	-0.08354779
-3.923594	افکارشان	-0.2541205
-3.74332	اقتصاد	-0.08371495
-3.923594	اقدامات	-0.08381854
-3.923594	اقربای	-0.08381854
-3.923594	اقشار	-0.08167709
-3.414897	الآن	-0.08300068
-3.923594	الرحیم	-0.08381854
-3.923594	السلام	-0.08381854
-3.923594	السلام-	-0.08381854
-3.923594	العملی	-0.0837919
-3.190437	الله	-0.1199969
-3.923594	المومنین-	-0.08366019
-3.923594	ام	-0.08381854
-3.923594	ام؟	-0.08381854
-3.74332	امام	-0.08355655
-3.923594	امت	-0.08359012
-3.74332	امثال	-0.08111363
-3.645313	امر	-0.08339958
-3.923594	امکان	-0.08373104
-3.923594	انبیا	-0.08381854
-3.923594	انتخاب	-0.08372024
-3.923594	انتخابیه	-0.0837401
-3.923594	انتشارات	-0.08381854
-3.923594	انتظامات	-0.08373104
-3.923594	انتظامی	-0.08381854
-3.923594	انحراف	-0.08323959
-3.923594	انسان	-0.0837919
-3.923594	انسانی	-0.08376675
-3.923594	انسجام	-0.0837919
-3.923594	انشا	-0.08172913
-3.923594	انقلاب	-0.08377203
-3.923594	انکار	-0.08172913
-3.923594	انگلیس	-0.08370323
-3.923594	انگیزه	-0.08167709
-3.923594	اهل	-0.08381854
-3.923594	او	-0.0732725
-3.923594	او-	-0.08366019
-3.923594	اوج	-0.08366019
-3.645313	اول	-0.06722135
-3.923594	اولاد	-0.08381854
-3.923594	اوﺳﺖ	-0.08377203
-3.923594	اوﺿﺎع	-0.08381854
-3.923594	اوﺿﺎﻋﺸﺎن	-0.08381854
-3.923594	اوﻟﯽ	-0.06419097
-3.923594	اوﻟﯿﺎ	-0.0837919
-3.923594	اوﻻدم	-0.08144753
-2.562048	اي	-0.2169944
-3.923594	اي؟	-0.07262617
-3.923594	ایجاد	-0.08377203
-3.74332	ایران	-0.08283768
-3.923594	ایران‌	-0.08381854
-3.923594	ایستاد	-0.0837401
-3.923594	ایستاده	-0.0837919
-3.923594	ایستاده‌اند	-0.08372024
-3.923594	ایستادگی	-0.0837919
-3.923594	ایمان	-0.08376675
-3.493941	این	-0.08326852
-3.923594	اینها	-0.08297726
-3.923594	اینهائی	-0.08297726
-3.923594	اینهایی	-0.0837401
-3.923594	اﮐﺘﻔﺎ	-0.07391787
-3.923594	اﮐﻨﻮن	-0.08377203
-2.218466	اﮔﺮ	-0.2962046
-3.923594	اﯾﺎدي	-0.0837919
-3.923594	اﯾﺎم	-0.08123621
-3.923594	اﯾﺠﺎد	-0.08053108
-3.923594	اﯾﺪ؟	-0.0817995
-2.513743	اﯾﺮان	-0.07476581
-3.923594	اﯾﺮاﻧﯽ	-0.2345936
-3.645313	اﯾﺰد	-0.1486379
-3.923594	اﯾﺴﺘﺎد	-0.06995891
-3.923594	اﯾﺴﺘﺎده	-0.07409696
-3.923594	اﯾﺴﺘﺪ	-0.08377203
-3.190437	اﯾﺸﺎن	-0.08073863
-3.923594	اﯾﺸﺎن/	-0.08381854
-3.923594	اﯾﻢ	-0.08302995
-3.74332	اﯾﻤﺎن	-0.06825628
-3.923594	اﯾﻤﺎﻧﯽ	-0.07844422
-3.923594	اﯾﻤﺎﻧﻢ	-0.08381854
-1.522984	اﯾﻦ	-0.07639396
-3.923594	اﯾﻦ/	-0.08366019
-2.394557	اﯾﻨﮑﻪ	-0.1331728
-2.731799	اﯾﻨﺠﺎ	-0.08253986
-3.923594	اﯾﻨﻄﻮر	-0.08356389
-3.923594	اﯾﻨﻘﺪر	-0.08144753
-2.218466	اﯾﻨﻬﺎ	-0.06437942
-3.923594	اﯾﻨﻬﺎ-	-0.08334478
-3.923594	اﯾﻨﻬﺎ/	-0.08267818
-3.74332	اﯾﻨﻬﺎﺳﺖ	-0.05311353
-2.863078	اﷲ	-0.1052595
-3.923594	اﺑﺪ	-0.07844422
-3.923594	اﺑﺮﻗﺪرت	-0.2514085
-3.923594	اﺑﻌﺎد	-0.06672913
-3.923594	اﺑﻌﺎدش	-0.08381854
-3.923594	اﺑﻮاﺑﯽ	-0.08381854
-3.923594	اﺑﻼغ	-0.08359012
-3.923594	اﺗﺒﻊ	-0.08172913
-3.923594	اﺗﻔﺎق	-0.06760245
-3.923594	اﺗﻮب	-0.08381854
-3.923594	اﺗﻮﻣﺒﯿﻞ	-0.08334478
-3.645313	اﺛﺮ	-0.1492136
-3.923594	اﺛﺮي	-0.08344154
-3.74332	اﺟﺎزه	-0.1894175
-3.74332	اﺟﺎﻧﺐ	-0.08362743
-3.923594	اﺟﺘﻤﺎع	-0.05005843
-3.74332	اﺟﺘﻤﺎﻋﯽ	-0.06354854
-3.923594	اﺟﺘﻤﺎﻋﺸﺎن	-0.06424515
-3.74332	اﺟﺮا	-0.06890914
-3.923594	اﺟﺮاي	-0.2540087
-3.923594	اﺟﺰاي	-0.08176432
-3.923594	اﺟﻤﺎﻻ	-0.08381854
-3.139284	اﺣﮑﺎم	-0.1045964
-3.923594	اﺣﯿﺎﻧﺎ	-0.08017807
-3.923594	اﺣﺎﻃﻪ	-0.08021339
-3.923594	اﺣﺘﯿﺎج	-0.2442663
-3.493941	اﺣﺘﺮام	-0.1322625
-3.923594	اﺣﺘﻤﺎل	-0.0837401
-3.923594	اﺣﺪ	-0.08381854
-3.923594	اﺣﺴﺎس	-0.08370323
-3.923594	اﺣﻀﺎر	-0.07032031
-3.923594	اﺧﺒﺎر	-0.07032031
-3.923594	اﺧﺒﺎرش	-0.08316946
-3.74332	اﺧﺘﺼﺎص	-0.4080136
-3.923594	اﺧﺘﻼف	-0.08381854
-3.74332	اﺧﺘﻼﻓﺎت	-0.1895061
-3.923594	اﺧﺮاﻟﺪواء	-0.08344994
-3.923594	اﺧﻼق	-0.08017807
-3.923594	اﺧﻼﻗﯽ	-0.0747411
-3.923594	اﺧﻼﻗﺘﺎن	-0.08373104
-3.923594	اﺧﻼﻗﺶ	-0.08334478
-3.923594	اﺳﯿﺮ	-0.08381854
-3.923594	اﺳﺎس	-0.08381854
-3.923594	اﺳﺒﺎب	-0.07064531
-1.652618	اﺳﺖ	-0.1732286
-3.923594	اﺳﺖ.	-0.08381854
-3.645313	اﺳﺖ؟	-0.08128134
-3.923594	اﺳﺘﺒﺪاد	-0.08381854
-3.923594	اﺳﺘﺠﺎﺑﺖ	-0.0837919
-3.923594	اﺳﺘﻌﻤﺎر	-0.08376675
-3.923594	اﺳﺘﻌﻤﺎري	-0.07409696
-3.923594	اﺳﺘﻔﺎده	-0.08197618
-3.923594	اﺳﺘﻘﺎﻣﺖ	-0.08243232
-3.493941	اﺳﺘﻘﻼل	-0.06807629
-3.923594	اﺳﺘﻘﻼﻟﯽ/	-0.08373104
-3.74332	اﺳﺮاﺋﯿﻞ	-0.1625231
-3.923594	اﺳﻔﺎﻟﺘﯽ	-0.08337983
-3.923594	اﺳﻔﻨﺎك	-0.08381854
-3.74332	اﺳﻠﺤﻪ	-0.0783733
-3.923594	اﺳﻤﺶ	-0.07409696
-2.308197	اﺳﻼم	-0.1144754
-3.052134	اﺳﻼﻣﯽ	-0.07106771
-3.923594	اﺷﮑﺎل	-0.08176432
-3.923594	اﺷﺎره	-0.08381854
-3.923594	اﺷﺠﺎر	-0.07844422
-3.414897	اﺷﺨﺎص	-0.07307571
-2.771307	اﺷﺨﺎﺻﯽ	-0.3394192
-3.923594	اﺷﺪ	-0.08381854
-3.923594	اﺻﻄﻼح	-0.06148888
-3.923594	اﺻﻄﻼﺣﺎت	-0.08320453
-3.315376	اﺻﻞ	-0.08015949
-3.923594	اﺻﻠﺶ	-0.08367924
-3.923594	اﺻﻨﺎف	-0.08299486
-3.923594	اﺻﻨﺎﻓﯽ	-0.06424515
-3.923594	اﺻﻮل	-0.08381854
-3.923594	اﺻﻮﻟﯽ	-0.08007212
-3.74332	اﺻﻼ	-0.07986012
-3.923594	اﺻﻼً	-0.08370323
-3.923594	اﺻﻼﺣﺎت	-0.2541205
-3.923594	اﺿﺎﻓﻪ	-0.08271408
-3.923594	اﻃﺮاف	-0.2536231
-3.923594	اﻃﻼع	-0.08336305
-3.923594	اﻃﻼﻋﺎت	-0.07026688
-3.414897	اﻇﻬﺎر	-0.2364581
-3.923594	اﻋﺘﺎب	-0.08381854
-3.923594	اﻋﺘﺒﺎر	-0.08211603
-3.052134	اﻋﺘﺼﺎب	-0.1200701
-3.923594	اﻋﺘﺼﺎﺑﯽ	-0.06424515
-3.923594	اﻋﺘﺼﺎﺑﺎت	-0.08067219
-3.923594	اﻋﺘﺼﺎﺑﺎﺗﯽ	-0.2345936
-3.74332	اﻋﺘﻘﺎد	-0.08276668
-3.923594	اﻋﺘﻨﺎ	-0.08172913
-3.923594	اﻋﺼﺎب	-0.07989547
-3.923594	اﻋﻈﻢ	-0.08376675
-3.74332	اﻋﻤﺎل	-0.1841567
-3.923594	اﻋﻤﺎﻟﯽ	-0.06424515
-3.923594	اﻋﻮذ	-0.08381854
-3.315376	اﻋﻼم	-0.1719265
-3.645313	اﻏﻔﺎل	-0.1578008
-3.923594	اﻓﺘﺎده	-0.07302126
-3.923594	اﻓﺘﻀﺎح	-0.0837919
-3.74332	اﻓﺮاد	-0.0701035
-3.923594	اﻓﺸﺎﮔﺮي	-0.08243232
-3.923594	اﻓﻖ	-0.08377203
-3.923594	اﻗﺘﺼﺎدش	-0.08377203
-3.923594	اﻗﺘﺼﺎدي	-0.08334478
-3.923594	اﻗﺘﻀﺎء	-0.08172913
-3.923594	اﻗﺪاﻣﺎت	-0.08158835
-3.923594	اﻗﺸﺎر	-0.06424515
-3.923594	اﻗﻠﯿﺖ	-0.08074273
-3.923594	اﻟﯽ	-0.08381854
-3.645313	اﻟﺒﺘﻪ	-0.07766349
-3.923594	اﻟﺤﻤﺪاﷲ	-0.07391787
-3.923594	اﻟﺤﻤﺪﷲ	-0.08134189
-3.923594	اﻟﺪﻧﯿﺎ	-0.0837919
-3.923594	اﻟﺮﺟﯿﻢ	-0.08381854
-3.645313	اﻟﺮﺣﯿﻢ	-0.0740798
-3.645313	اﻟﺮﺣﻤﻦ	-0.3126225
-3.923594	اﻟﺮﺷﯿﺪ	-0.08366019
-3.923594	اﻟﺴﻠﻄﺎﻧﻪ	-0.08327466
-3.923594	اﻟﺴﻼم	-0.08381854
-3.923594	اﻟﺸﯿﻄﺎن	-0.08381854
-3.923594	اﻟﻄﺎف	-0.08323959
-3.923594	اﻟﻄﺒﯿﻌﻪ	-0.0817995
-3.923594	اﻟﻌﺎﻟﻢ	-0.08381854
-3.923594	اﻟﻌﺎﻟﻢ.	-0.07064531
-3.923594	اﻟﻤﺼﺎﺣﺒﻪ	-0.08373104
-3.923594	اﻟﻤﻐﺘﺎﺑﯿﻦ	-0.07050171
-3.923594	اﻟﻨﺎس	-0.08381854
-3.493941	اﻟﻬﯽ	-0.07336254
-3.493941	اﻣﯿﺪ	-0.1910261
-3.923594	اﻣﯿﺪوار	-0.0837919
-3.74332	اﻣﯿﺪوارم	-0.3885555
-3.74332	اﻣﯿﺮ	-0.07440201
-3.923594	اﻣﯿﻦ	-0.07844422
-3.414897	اﻣﺎ	-0.08054781
-3.645313	اﻣﺎم	-0.08348253
-3.315376	اﻣﺎﻧﺖ	-0.05179604
-3.923594	اﻣﺎﻧﺘﺎً	-0.0825377
-3.74332	اﻣﺖ	-0.1893103
-3.74332	اﻣﺜﺎل	-0.1764455
-2.947399	اﻣﺮ	-0.1001899
-3.645313	اﻣﺮوز	-0.08009052
-3.645313	اﻣﺮي	-0.04865656
-3.645313	اﻣﺮﯾﮑﺎ	-0.0794611
-3.923594	اﻣﺴﺎل	-0.08366019
-3.414897	اﻣﻮر	-0.06793267
-3.923594	اﻣﻮري	-0.08381854
-3.923594	اﻣﻼك	-0.08208087
-3.923594	اﻧﮕﻞ	-0.08299407
-3.74332	اﻧﮕﻠﺴﺘﺎن	-0.07956883
-3.923594	اﻧﺒﯿﺎ	-0.07409696
-3.923594	اﻧﺒﺎر	-0.08299407
-3.923594	اﻧﺒﺎري	-0.06424515
-3.923594	اﻧﺘﺨﺎب	-0.08311759
-3.923594	اﻧﺘﺨﺎﺑﺎت	-0.08365259
-3.493941	اﻧﺠﺎم	-0.2003732
-3.923594	اﻧﺤﺮاف	-0.08377203
-3.923594	اﻧﺤﻄﺎط	-0.07032031
-2.616405	اﻧﺪ	-0.0836222
-3.923594	اﻧﺪ؛	-0.08366019
-3.74332	اﻧﺪ؟	-0.06729411
-3.923594	اﻧﺪازه	-0.08381854
-3.923594	اﻧﺪازﻧﺪ	-0.08381854
-3.923594	اﻧﺪاﺧﺖ	-0.08373104
-3.923594	اﻧﺪاﺧﺘﻪ	-0.08381854
-3.923594	اﻧﺪﯾﺶ	-0.08381854
-2.814773	اﻧﺴﺎن	-0.02879372
-3.923594	اﻧﺴﺎﻧﯽ	-0.08366019
-3.923594	اﻧﺴﺎﻧﯿﺖ	-0.08288879
-3.923594	اﻧﺴﺎﻧﯿﻪ	-0.08306423
-3.74332	اﻧﺸﺎء	-0.0665834
-3.923594	اﻧﻔﺠﺎري	-0.08359012
-3.923594	اﻫﺎﻟﯽ	-0.08376675
-3.645313	اﻫﺎﻧﺖ	-0.1449687
-3.923594	اﻫﺎﻧﺘﯽ	-0.08366019
-3.414897	اﻫﻞ	-0.1234612
-3.923594	اﻵن	-0.06189423
-3.493941	اﻻ	-0.1329458
-2.616405	اﻻن	-0.08440471
-3.923594	اﻻوﻟﻪ	-0.08381854
-3.923594	اﻻﺧﺮه	-0.08118411
-3.923594	اﻻﺳﻒ	-0.06200471
-3.923594	باب	-0.08381854
-3.923594	بازار	-0.08376675
-3.923594	بازارها	-0.08381854
-3.190437	باشد	-0.08048961
-3.923594	باشند	-0.0837401
-3.923594	باشید	-0.08381854
-3.923594	باشیم	-0.08167709
-3.923594	باطل	-0.08381854
-3.923594	باطلی	-0.08373104
-3.74332	باقی	-0.08287876
-3.923594	بالاتر	-0.08381854
-3.923594	بالاها؛	-0.08381854
-3.923594	بانگ	-0.08359012
-3.923594	باهنر	-0.08376675
-3.923594	باکی	-0.08348499
-3.923594	ببینند	-0.08381854
-3.923594	ببینید	-0.0837919
-3.923594	بترسند	-0.08381854
-3.923594	بدانید	-0.0837919
-3.923594	بدهد	-0.08381854
-3.74332	بدهند	-0.08371495
-3.923594	بدهیم	-0.08381854
-3.923594	برآیم	-0.08381854
-3.923594	برخلاف	-0.0837401
-3.923594	برد	-0.08381854
-3.923594	برده	-0.08330972
-3.923594	بردیم	-0.08381854
-3.923594	برنج	-0.08381854
-3.923594	برود	-0.0837919
-3.923594	برکاته	-0.0837919
-3.923594	برگردانند	-0.08381854
-3.923594	برگردانیم	-0.08334478
-3.923594	برگردد	-0.08381854
-3.923594	بریزید	-0.08381854
-3.923594	بزرگش	-0.08381854
-3.923594	بزرگوار	-0.08302915
-3.923594	بزند	-0.08381854
-3.923594	بزنند	-0.0837919
-3.923594	بزنید	-0.0837919
-3.923594	بزنیم	-0.08373104
-3.923594	بسته	-0.08376675
-3.923594	بسر	-0.08381854
-3.923594	بسم	-0.08381854
-3.923594	بسیاریش	-0.08381854
-3.923594	بشر	-0.08381854
-3.923594	بشری	-0.08352003
-3.493941	بشود	-0.0810094
-3.923594	بشوند	-0.08163035
-3.74332	بعثت	-0.08371495
-3.923594	بعض	-0.08372024
-3.923594	بفرمائید	-0.0837919
-3.923594	بمب	-0.08381854
-3.645313	بن	-0.1605168
-3.74332	بنابر	-0.08294217
-3.493941	بود	-0.08277494
-3.74332	بودند	-0.08318773
-3.923594	بودند؛	-0.08373104
-3.74332	بوده	-0.08360076
-3.923594	بوده‌ام	-0.08373104
-3.923594	بوقهای	-0.08381854
-3.923594	بپاخاسته	-0.08377203
-3.923594	بپرسید	-0.08172913
-3.923594	بچه	-0.08376675
-3.923594	بکشند	-0.08381854
-3.923594	بکلی	-0.08376675
-3.923594	بکنند	-0.08317026
-3.923594	بکنند؟	-0.08381854
-3.923594	بکنید	-0.08376675
-3.923594	بگذارد	-0.08381854
-3.74332	بگوئید	-0.1894353
-3.74332	بیائید	-0.1895937
-3.923594	بیاوریم	-0.08306423
-3.923594	بیدار	-0.08376675
-3.923594	بی‌تفاوت	-0.08381854
-3.923594	تاب	-0.08381854
-3.923594	تاریخ	-0.08381854
-3.315376	تاسیس	-0.1327889
-3.74332	تبارک	-0.4081023
-3.923594	تباهی	-0.08381854
-3.923594	تبریک	-0.08377203
-3.923594	تبلیغات	-0.08370323
-3.923594	تبلیغاتی	-0.08373104
-3.923594	تجدد	-0.08376675
-3.923594	تحصیلات	-0.08381854
-3.923594	تحصیلاتشان	-0.08381854
-3.923594	تحصیلی	-0.08381854
-3.923594	تحقق	-0.08370323
-3.923594	تخم	-0.08381854
-3.923594	تربیت	-0.08381854
-3.923594	ترتیب	-0.08309931
-3.923594	ترجیح	-0.08377203
-3.74332	ترور	-0.08368829
-3.923594	ترورها	-0.08381854
-3.923594	تروریست‌هاست	-0.0837919
-3.923594	تز	-0.08381854
-3.923594	تسلیت	-0.08372024
-3.645313	تشکر	-0.08366314
-3.74332	تعالی	-0.08357295
-3.139284	تعیین	-0.1503009
-3.923594	تفاله‌هایی	-0.08381854
-3.923594	تقدیم	-0.08381854
-3.923594	تلویزیون	-0.0837919
-3.923594	تلویزیونش	-0.08381854
-3.923594	تمجید	-0.0837919
-3.923594	تمدن	-0.08367924
-3.923594	تن	-0.08330972
-3.493941	تهران	-0.08326852
-3.923594	توجه	-0.08337983
-3.923594	توجهمان	-0.08172913
-3.923594	توحش	-0.08381854
-3.923594	توده	-0.08373104
-3.923594	تکبیر	-0.08381854
-3.923594	تکلیف	-0.08381854
-3.923594	تیر	-0.08381854
-3.923594	جائی	-0.08366019
-3.923594	جان	-0.0837401
-3.923594	جاها	-0.08360837
-3.923594	جاهای	-0.08377203
-3.923594	جبران	-0.0837919
-3.923594	جبرانش	-0.08172913
-3.923594	جبهه‌های	-0.08381854
-3.923594	جزای	-0.08381854
-3.923594	جماعت	-0.08381854
-3.923594	جمعیت	-0.08365142
-3.923594	جمعیتی	-0.08376675
-3.923594	جمهور	-0.08376675
-3.190437	جمهوری	-0.2297698
-3.923594	جمهوریهای	-0.08381854
-3.923594	جنگ	-0.08381854
-3.923594	جنگی	-0.08373104
-3.923594	جهات	-0.08381854
-3.923594	جهت	-0.08381854
-3.923594	جهنم	-0.08381854
-3.493941	جوان	-0.08358467
-3.923594	جوانان	-0.08330972
-3.923594	حاصل	-0.0837919
-3.923594	حاضرند	-0.0837919
-3.315376	حرف	-0.08117713
-3.923594	حساب	-0.08381854
-3.923594	حسن	-0.08377203
-3.923594	حسین	-0.08377203
-3.923594	حشاشه	-0.08381854
-3.923594	حضار	-0.08359012
-3.923594	حضور	-0.08367924
-3.645313	حفظ	-0.08330279
-3.74332	حقی	-0.08330095
-3.923594	حوزه	-0.254167
-3.923594	حکم	-0.0837919
-3.645313	حکومت	-0.08129659
-3.923594	حکومتمان	-0.08381854
-3.923594	حیثیت	-0.08376675
-3.923594	حیله	-0.08373104
-3.923594	حیوانی	-0.08381854
-3.923594	خائن	-0.08381854
-3.923594	خارج	-0.08376675
-3.923594	خارج؛	-0.08373104
-3.923594	خاطر	-0.2540087
-3.923594	خانواده‌های	-0.08172913
-3.923594	خبیث	-0.08381854
-2.947399	خدا	-0.1574474
-3.74332	خداست	-0.08318853
-3.645313	خدای	-0.3016315
-3.923594	خدمت	-0.08167709
-3.923594	خراب	-0.2541403
-3.923594	خرابکاری	-0.08381854
-3.923594	خسارات	-0.08302915
-3.923594	خطیب	-0.08381854
-3.645313	خلاف	-0.1605899
-3.923594	خم	-0.08381854
-3.923594	خمینی	-0.08381854
-3.923594	خوانده	-0.08377203
-3.923594	خواهیم	-0.08352003
-3.923594	خوب	-0.08381854
-3.923594	خود	-0.08381854
-3.923594	خودشان	-0.08318774
-3.923594	خوشحال	-0.08359012
-3.74332	خون	-0.1895061
-3.923594	خیابان	-0.0837401
-3.923594	خیابانها	-0.08381854
-3.923594	خیال	-0.08358172
-3.923594	خیانت	-0.08353829
-3.645313	دادند	-0.160211
-3.923594	داده	-0.08376675
-3.74332	دادیم	-0.1895328
-3.74332	دادﻧﺪ	-0.1895328
-3.923594	دارای	-0.08373104
-3.923594	داراﻟﻔﻨﻮن	-0.07032031
-2.979584	دارد	-0.0832652
-3.74332	دارد؟	-0.08097266
-3.923594	دارها	-0.08376675
-3.923594	داري	-0.08376675
-3.923594	دارید	-0.08373104
-3.923594	داریم	-0.08381854
-3.052134	دارﯾﺪ	-0.07053263
-3.923594	دارﯾﺪ؟	-0.07989547
-2.979584	دارﯾﻢ	-0.09045336
-3.923594	دارﯾﻢ/	-0.08381854
-2.678553	دارﻧﺪ	-0.08840643
-3.923594	داشت	-0.08381854
-3.923594	داشته	-0.08381854
-3.923594	داشتیم	-0.08376675
-3.923594	داند	-0.08381854
-3.923594	دانستند	-0.08172913
-3.645313	دانشگاه	-0.08366314
-3.923594	دانید	-0.08373104
-3.923594	دانیم	-0.08297726
-3.923594	داوطلب	-0.08348499
-3.923594	داوطلبانی	-0.08348499
-3.923594	داﺋﻤﺎً	-0.0747411
-3.923594	داﺧﻞ	-0.08381854
-3.645313	داﺷﺖ	-0.05288796
-3.923594	داﺷﺘﯿﻢ	-0.05382707
-3.74332	داﺷﺘﻢ	-0.05463385
-3.645313	داﺷﺘﻨﺪ	-0.07869233
-2.947399	داﺷﺘﻪ	-0.5446749
-3.923594	داﻣﺎن	-0.08381854
-3.923594	داﻣﻦ	-0.0837919
-3.645313	داﻧﯿﺪ	-0.2930956
-3.923594	داﻧﯿﻢ	-0.08341489
-3.645313	داﻧﺪ	-0.06673066
-3.923594	داﻧﺴﺘﻨﺪ	-0.08376675
-3.645313	داﻧﺸﮕﺎه	-0.08027553
-3.923594	داﻧﺸﮕﺎﻫﯽ	-0.07769902
-3.74332	داﻧﻢ	-0.06389775
-3.923594	داﻧﻨﺪ	-0.06419097
-3.74332	دخالت	-0.0836219
-3.923594	در	-0.08370323
-3.923594	درد	-0.2487927
-3.923594	درس	-0.08309931
-3.923594	درصد	-0.08334478
-3.923594	دروازه	-0.08381854
-3.923594	دروغ	-0.07409696
-3.923594	درﯾﺎﻓﺖ	-0.08381854
-3.923594	درﯾﻎ	-0.08381854
-3.923594	درﺑﺎره	-0.08381854
-3.923594	درﺟﻪ	-0.08172913
-2.695587	درﺳﺖ	-0.325357
-3.923594	درﺻﺪ	-0.08176432
-3.923594	دزدکی	-0.08381854
-3.923594	دزدی	-0.08381854
-2.889407	دست	-0.09896052
-3.923594	دستش	-0.08377203
-3.923594	دستشان	-0.08330972
-3.923594	دسته	-0.08376675
-3.923594	دستور	-0.0836049
-3.74332	دل	-0.08318853
-3.923594	دلش	-0.08381854
-3.923594	دلیل	-0.08337983
-3.923594	دنبال	-0.08158915
-3.493941	دنیا	-0.08339956
-3.923594	دهقان	-0.08376675
-3.923594	دهقانشان	-0.08381854
-3.923594	دهقانی	-0.08381854
-3.923594	دهن	-0.08381854
-3.645313	دو	-0.3016582
-3.923594	دوازده	-0.08372024
-3.923594	دور	-0.07386488
-3.923594	دورش	-0.08274839
-3.923594	دورﺗﺮ	-0.07409696
-3.923594	دوزخ	-0.07255431
-3.923594	دوشم	-0.08381854
-3.923594	دول	-0.2538334
-3.052134	دولت	-0.1343519
-3.923594	دولتهای	-0.08366019
-3.645313	دولتی	-0.08357009
-3.645313	دوﯾﺴﺖ	-0.3120901
-3.645313	دوﻟﺖ	-0.1455736
-3.923594	دوﻟﺘﻬﺎ	-0.08381854
-3.923594	دوﻣﺎن	-0.08348499
-3.923594	دید	-0.08343316
-3.923594	دیدند	-0.08381854
-3.923594	دیده‌ایم	-0.08381854
-3.923594	دیگران؛	-0.0837919
-3.923594	دﮐﺎن	-0.08106004
-3.923594	دﯾﮑﺘﺎﺗﻮرﯾﻬﺎ	-0.08381854
-2.421429	دﯾﮕﺮ	-0.08183384
-3.923594	دﯾﮕﺮ/	-0.08373104
-3.645313	دﯾﮕﺮان	-0.06865689
-3.093527	دﯾﮕﺮي	-0.16708
-3.190437	دﯾﺎﻧﺖ	-0.1590429
-3.923594	دﯾﺎﻧﺘﺸﺎن	-0.07409696
-3.923594	دﯾﺪ	-0.08376675
-3.923594	دﯾﺪم	-0.06416309
-3.74332	دﯾﺪﯾﺪ	-0.1700445
-3.645313	دﯾﺪﯾﻢ	-0.06967109
-3.74332	دﯾﺪﻧﺪ	-0.1667522
-3.923594	دﯾﺮوز	-0.08381854
-3.645313	دﯾﻦ	-0.0749556
-3.414897	دﯾﻨﯽ	-0.03951353
-3.923594	دﯾﻨﯿﻪ	-0.08176432
-3.923594	دﯾﻨﺶ	-0.08381854
-3.923594	دﯾﻨﻢ	-0.07391787
-3.923594	دﺑﯿﺮﺳﺘﺎن	-0.07032031
-3.923594	دﺑﺴﺘﺎن	-0.07032031
-3.923594	دﺑﺴﺘﺎﻧﻬﺎ	-0.08348499
-3.493941	دﺧﺎﻟﺖ	-0.06503282
-3.923594	دﺧﺘﺮ	-0.0833981
-2.513743	دﺳﺖ	-0.1205923
-3.923594	دﺳﺘﮕﺎه	-0.08139545
-3.74332	دﺳﺘﯽ	-0.1875307
-3.923594	دﺳﺘﺸﺎن	-0.08229177
-3.014345	دﺳﺘﻪ	-0.2833028
-3.74332	دﺳﺘﻮرات	-0.07391867
-3.923594	دﺳﺘﻮري	-0.08381854
-3.923594	دﺷﻤﻦ	-0.08234523
-3.923594	دﻋﺎ	-0.07026688
-3.923594	دﻋﺎي	-0.08370323
-3.645313	دﻋﻮا	-0.07016
-3.74332	دﻋﻮاي	-0.1849355
-3.74332	دﻋﻮت	-0.08355308
-3.923594	دﻋﻮﺗﺸﺎن	-0.08302915
-3.923594	دﻓﻊ	-0.0837919
-3.923594	دﻓﻌﻪ	-0.08381854
-3.923594	دﻟﺘﺎن	-0.2538685
-3.923594	دﻟﺴﻮز	-0.07179891
-3.923594	دﻣﺎغ	-0.0747411
-3.923594	دﻣﻮﮐﺮاﺳﯽ	-0.08381854
-2.814773	دﻧﯿﺎ	-0.06997952
-3.923594	دﻧﯿﺎي	-0.08381854
-3.923594	دﻧﯿﺎﺳﺖ	-0.07427599
-3.414897	دﻧﺒﺎل	-0.1540093
-3.923594	دﻫﯽ	-0.06424515
-3.74332	دﻫﯿﺪ	-0.08160748
-3.923594	دﻫﺎت	-0.08144753
-3.923594	دﻫﺎﺗﯽ	-0.06424515
-3.645313	دﻫﺪ	-0.1434948
-3.923594	دﻫﺪ؟	-0.0837919
-3.923594	دﻫﻘﺎن	-0.08010744
-3.923594	دﻫﻘﺎﻧﺎن	-0.08176432
-3.74332	دﻫﻠﯽ	-0.0782669
-3.493941	دﻫﻨﺪ	-0.1194409
-3.923594	دﻫﻨﺪ؟	-0.0817995
-3.923594	دﻻر	-0.08062002
-3.923594	دﻻري	-0.0825377
-3.923594	ذات	-0.08381854
-3.645313	ذرات	-0.06242958
-3.923594	ذره	-0.07395451
-3.923594	ذﺧﺎﯾﺮ	-0.0825377
-3.923594	ذﻟﮏ	-0.07858602
-3.923594	ذﻟﺖ	-0.08381854
-3.923594	ذﻫﻦ	-0.08288879
-3.74332	ذﻫﻨﻢ	-0.178336
-3.645313	رئیس	-0.1598523
-2.731799	را	-0.04929582
-3.923594	راجِعُونَ	-0.08377203
-3.923594	رادیو	-0.08366019
-3.923594	رادیوی	-0.0837919
-3.923594	رادیویش	-0.08381854
-3.74332	رادﯾﻮ	-0.07928582
-3.923594	رادﯾﻮﻫﺎي	-0.0837919
-3.74332	راس	-0.08333476
-3.923594	راند	-0.08367924
-3.74332	راي	-0.08338131
-3.414897	رای	-0.1722041
-3.923594	راﺑﻄﻪ	-0.08063692
-3.190437	راﺟﻊ	-0.94429
-3.923594	راﺳﺖ	-0.08320453
-3.923594	راﻧﺪه	-0.08166555
-3.74332	رجایی	-0.08324107
-3.923594	رحمه	-0.08359012
-3.74332	رد	-0.18861
-3.923594	رذیلانه	-0.08381854
-3.923594	رشد	-0.08376675
-3.923594	رضا	-0.08355508
-3.923594	رضاخان	-0.08355508
-3.74332	رضاشاه	-0.0827983
-3.923594	رضای	-0.08381854
-3.923594	رضایت	-0.08302915
-3.923594	رعیت	-0.08381854
-3.923594	رفت	-0.0837401
-3.645313	رفتن	-0.08352228
-3.923594	رفتند	-0.08381854
-3.923594	رفتن‌	-0.0837919
-3.923594	رفتیم	-0.08381854
-3.923594	رفراندمی	-0.08381854
-3.923594	رفقایش	-0.08381854
-3.923594	رفیق	-0.0837919
-3.923594	ره	-0.08381854
-3.923594	رها	-0.08301235
-3.923594	رواﯾﺎت	-0.08372024
-3.74332	رواﯾﺘﯽ	-0.0623063
-3.139284	رواﺑﻂ	-0.158989
-3.315376	رواﺑﻄﯽ	-0.3473565
-3.139284	رود	-0.1468465
-3.923594	رود؟	-0.08381854
-3.923594	روز	-0.08330972
-3.923594	روزي	-0.07805403
-3.923594	روزﻧﺎﻣﻪ	-0.08100791
-3.923594	روزﻫﺎ	-0.08162355
-3.923594	روم	-0.08229177
-3.493941	روي	-0.1291282
-3.923594	روﯾﺪ	-0.08334478
-3.923594	روﯾﻢ	-0.0837919
-3.923594	روﺣﯽ	-0.06424515
-3.74332	روﺣﯿﻪ	-0.0813771
-3.923594	روﺣﺎﻧﯽ	-0.08239719
-3.645313	روﺣﺎﻧﯿﺖ	-0.1564523
-3.74332	روﺣﺎﻧﯿﻮن	-0.07026687
-3.923594	روﺣﺎﻧﯿﻮﻧﺘﺎن	-0.08381854
-3.74332	روﺷﻦ	-0.1885677
-3.923594	رژیم	-0.08377203
-3.923594	رژیمهایی	-0.08381854
-3.414897	رژﯾﻢ	-0.06444889
-3.923594	رژﯾﻤﯽ	-0.07032031
-3.923594	ریخته	-0.08381854
-3.923594	ریختگی	-0.0837919
-3.923594	رﯾﺎ	-0.08167709
-3.923594	رﯾﺎﮐﺎري	-0.08243232
-3.923594	رﯾﺨﺘﻨﺪ	-0.07391787
-3.923594	رﯾﺨﺘﻪ	-0.07409696
-3.923594	رﯾﺰﻧﺪ	-0.08352003
-3.74332	رﯾﺸﻪ	-0.08188818
-3.923594	رﺋﯿﺲ	-0.08257283
-3.923594	رﺑﻂ	-0.08341489
-3.923594	رﺣﻤﻪ	-0.08327466
-3.315376	رﺳﯿﺪ	-0.1214741
-3.139284	رﺳﯿﺪه	-0.6481386
-3.493941	رﺳﺪ	-0.0488562
-3.414897	رﺷﺪ	-0.1098694
-3.923594	رﺿﺎ	-0.08320453
-3.493941	رﺿﺎﺷﺎه	-0.2380181
-3.493941	رﻋﯿﺖ	-0.1385047
-3.923594	رﻓﺖ	-0.08332799
-3.923594	رﻓﺘﯿﻢ	-0.08323959
-3.645313	رﻓﺘﻨﺪ	-0.08105157
-3.923594	رﻓﺘﻪ	-0.08316946
-3.923594	رﻓﻘﺎﯾﺘﺎن	-0.08243232
-3.923594	رﻣﺰ	-0.07064531
-3.74332	رﻧﺞ	-0.07874623
-3.923594	زاﯾﺪ	-0.08176432
-3.74332	زاﻏﻪ	-0.1868615
-3.923594	زجر	-0.08381854
-3.923594	زحمت	-0.08381854
-3.923594	زد	-0.08381854
-3.923594	زده	-0.08267897
-3.923594	زدوﺧﻮرد	-0.08381854
-3.923594	زدﻧﺪ	-0.07957732
-3.923594	زراعت	-0.08376675
-3.493941	زراﻋﺘﺶ	-0.1386752
-3.923594	زمان	-0.08352003
-3.923594	زمانهای	-0.08381854
-3.74332	زن	-0.1895061
-3.923594	زنم	-0.08348499
-3.923594	زنیم	-0.08381854
-3.923594	زواﯾﺪي	-0.08348499
-3.923594	زودي	-0.0837919
-3.645313	زور	-0.1602731
-3.923594	زوﺟﯿﻦ	-0.08373104
-3.190437	زﯾﺎد	-0.06801078
-3.923594	زﯾﺎدﺗﺮ	-0.08381854
-3.923594	زﯾﺪ	-0.08331774
-3.493941	زﯾﺮ	-0.0690202
-3.74332	زﺑﺎن	-0.4074799
-3.923594	زﺟﺮ	-0.06023358
-3.093527	زﻣﯿﻦ	-0.0156102
-3.190437	زﻣﺎن	-0.06311193
-3.923594	زﻣﺎﻧﯽ	-0.06424515
-3.923594	زﻧﯿﺪ	-0.0747411
-3.923594	زﻧﺪان	-0.074044
-3.923594	زﻧﺪاﻧﯿﺎن	-0.08344994
-3.139284	زﻧﺪه	-0.1332298
-2.662163	زﻧﺪﮔﯽ	-0.06904336
-3.923594	زﻫﺪ	-0.08341489
-3.923594	سابق	-0.08376675
-3.923594	ساقط	-0.08376675
-2.917435	سال	-0.1212123
-3.923594	ساله	-0.08381854
-3.923594	ستاد	-0.08381854
-3.923594	سراغ	-0.08381854
-3.74332	سرتاسر	-0.4079706
-3.923594	سرجایش	-0.08330972
-3.923594	سردمداران	-0.08377203
-3.093527	سرنوشت	-0.1756778
-3.74332	سرنیزه	-0.4079706
-3.923594	سرور	-0.08381854
-3.74332	سستی	-0.08153708
-3.923594	سعادت	-0.08359012
-3.923594	سقوط	-0.08381854
-3.923594	سلاطینی	-0.08337983
-3.315376	سلام	-0.2844192
-3.923594	سلامت	-0.08377203
-3.139284	سلطان	-0.08263804
-3.74332	سلطانی	-0.08371495
-2.947399	سلطنت	-0.1573347
-3.493941	سلطنتی	-0.08345058
-3.923594	سلطه	-0.0837919
-3.923594	سن	-0.08366019
-3.139284	سنا	-0.169519
-3.923594	سنگینی	-0.08381854
-3.923594	سه	-0.0837919
-3.923594	سوال	-0.08376675
-3.923594	سوگ	-0.08376675
-3.923594	سپرده	-0.08381854
-3.923594	سکنی	-0.08381854
-3.74332	سی	-0.1881102
-3.923594	سیصد	-0.08370323
-3.923594	سینما	-0.08381854
-3.923594	سینمای	-0.08373104
-3.74332	شاء	-0.4079005
-3.74332	شاه	-0.08345141
-3.923594	شخص	-0.08381854
-3.74332	شخصیتها	-0.08352989
-3.923594	شخصیتهای	-0.0837919
-3.645313	شد	-0.0830474
-3.923594	شد؛	-0.08348499
-3.923594	شدند	-0.0837401
-3.923594	شده	-0.08381854
-3.923594	شده‌	-0.08302915
-3.645313	شده‌اند	-0.08352908
-3.923594	شرعی	-0.08381854
-3.923594	شرق	-0.0837919
-3.923594	شرقی	-0.08381854
-3.923594	شریک	-0.08381854
-3.923594	شماها	-0.08381854
-3.923594	شناخت	-0.08167709
-3.923594	شناسند	-0.08302915
-3.052134	شهادت	-0.1357631
-3.923594	شهادتها	-0.08334478
-3.74332	شهدا	-0.08366843
-3.74332	شهدایی	-0.08366843
-3.923594	شهربانی	-0.08370323
-3.923594	شهرها	-0.08373104
-3.923594	شهریور	-0.08381854
-2.889407	شهید	-0.1884983
-3.923594	شهیدی	-0.0837919
-3.923594	شورا	-0.08302915
-3.923594	شکافت	-0.08172913
-3.74332	صحنه	-0.08366164
-3.74332	صحیح	-0.1892867
-3.923594	صدای	-0.08381854
-3.493941	صدر	-0.2478361
-3.923594	صدمه	-0.08302915
-3.923594	صدها	-0.08330972
-3.923594	صدوپنجاه	-0.08334478
-3.923594	صرف	-0.0831001
-3.923594	صغیر	-0.08381854
-3.923594	صفهای	-0.08381854
-3.923594	صنف	-0.08377203
-3.923594	ضد	-0.08377203
-3.923594	طالب-	-0.08366019
-3.923594	طوری	-0.08376675
-3.923594	طولانی	-0.08381854
-3.923594	ظاهر	-0.0837919
-3.923594	ظلم	-0.08381854
-3.923594	عالم	-0.08348499
-3.923594	عالیتر	-0.08381854
-3.923594	عام	-0.08381854
-3.923594	عباس	-0.08373104
-3.645313	عرض	-0.08363649
-3.923594	عزا	-0.08381854
-3.923594	عزای	-0.08381854
-3.923594	عزت	-0.08381854
-3.923594	عظیم	-0.08381854
-3.923594	عقب‌نشینی	-0.0837401
-3.923594	عقلی	-0.08377203
-3.923594	عقوبات	-0.08381854
-3.923594	علاوه	-0.08288959
-3.645313	علی	-0.1605168
-3.923594	علی-	-0.08366019
-3.645313	علیه-	-0.08366314
-3.923594	علیهم	-0.08381854
-3.923594	علیهم-	-0.08381854
-3.923594	علیکم	-0.08376675
-3.923594	عمال	-0.08355508
-3.923594	عمر	-0.0831001
-3.923594	عمرمان	-0.254167
-3.923594	عملگی	-0.08381854
-3.923594	عنایت	-0.08381854
-3.923594	عهده	-0.08381854
-3.923594	عهدی	-0.08381854
-3.923594	عوض	-0.08350325
-3.923594	عکس	-0.08381854
-3.645313	عین	-0.08363649
-3.923594	غارت	-0.08381854
-3.923594	غربزده‌ها	-0.08373104
-3.923594	غربی	-0.08359012
-3.923594	غم	-0.08381854
-3.923594	فاسد	-0.08360837
-3.923594	فحشا	-0.254167
-3.923594	فحشاست	-0.08309931
-3.74332	فدا	-0.08277507
-3.74332	فرار	-0.08366843
-3.74332	فردی	-0.08320601
-3.923594	فرزند	-0.08381854
-3.923594	فرزندان	-0.08381854
-3.923594	فرستاد	-0.0837919
-3.923594	فرستاده	-0.08355508
-3.414897	فرض	-0.08249213
-3.923594	فرمان	-0.0837919
-3.923594	فرماید	-0.08381854
-3.74332	فرهنگ	-0.08289866
-3.923594	فروشی	-0.08381854
-3.923594	فریاد	-0.0837919
-3.923594	فوز	-0.08381854
-3.923594	فکری	-0.0837919
-3.74332	قاجاریه	-0.08364177
-3.923594	قانون	-0.08367372
-3.052134	قانونی	-0.1357785
-3.74332	قبرستان	-0.08368829
-3.923594	قبول	-0.08376675
-3.74332	قبولش	-0.08162503
-3.923594	قتل	-0.08381854
-3.923594	قجر	-0.08381854
-3.923594	قدرت	-0.08372024
-3.923594	قدرتمند	-0.08359012
-3.923594	قدرتها	-0.08381854
-3.74332	قدرتهای	-0.08315265
-3.923594	قدرتی	-0.08381854
-3.923594	قرآن	-0.08370323
-3.923594	قرن	-0.08377203
-3.923594	قریب	-0.0837919
-3.923594	قشر	-0.08381854
-3.923594	قشرهائی	-0.08141232
-3.923594	قضیه	-0.08381854
-3.923594	قلیلی	-0.08381854
-3.923594	قواعد	-0.08381854
-3.923594	قوانین	-0.08348499
-3.923594	قوای	-0.08381854
-3.923594	قوی	-0.08353829
-3.923594	قویتر	-0.08359171
-3.414897	قیام	-0.1985825
-3.923594	قیامت	-0.08376675
-3.923594	لطمه	-0.08359012
-3.923594	لعنت	-0.08381854
-3.923594	للَّهِ	-0.08381854
-3.923594	لو	-0.08372024
-3.190437	لکن	-0.08026937
-3.645313	ما	-0.08096109
-3.923594	مادرهای	-0.08381854
-3.923594	مادی	-0.08381854
-3.923594	ماست	-0.08366019
-3.923594	ماشاالله	-0.08381854
-3.923594	مال	-0.08370323
-3.923594	مان	-0.08302915
-3.923594	مانده‌اند	-0.08381854
-3.493941	ماها	-0.08347045
-3.923594	مبارزه	-0.08381854
-3.923594	مبارکش	-0.08381854
-3.923594	متاثر	-0.08381854
-3.923594	متاع	-0.08373104
-3.74332	متصل	-0.08366843
-3.923594	متعهد	-0.0831001
-3.923594	متکی	-0.08376675
-3.923594	مثبت	-0.08372024
-3.923594	مجاهده	-0.08381854
-3.923594	مجرد	-0.08381854
-2.713315	مجلس	-0.303733
-3.74332	مجلسی	-0.08346348
-3.923594	محاکمه	-0.08350325
-3.923594	محبوب	-0.08381854
-3.923594	محتاج	-0.08381854
-3.923594	محفوظ	-0.08359012
-3.923594	محمد	-0.08381854
-3.493941	محمدرضا	-0.1434385
-3.923594	محمدرضاخان	-0.08337983
-3.923594	محمدرضاشاه	-0.08306423
-3.923594	مخازن	-0.08373104
-3.315376	مخالف	-0.08347194
-3.923594	مخالفت	-0.08381854
-3.923594	مخالفیم	-0.08360837
-3.923594	مختار	-0.08366019
-3.923594	مراکز	-0.08376675
-3.923594	مراکزی	-0.08381854
-3.923594	مرحوم	-0.08330972
-3.923594	مرد	-0.08371345
-3.923594	مردانگی	-0.08381854
-3.923594	مردتر	-0.08381854
-3.74332	مردش	-0.0835809
-3.493941	مردم	-0.08266284
-3.923594	مرده	-0.08381854
-3.923594	مرغ	-0.08381854
-3.493941	مرکز	-0.08361132
-3.923594	مرگ	-0.08381854
-3.923594	مرگ‌	-0.08381854
-3.923594	مزخرفی	-0.08302915
-3.923594	مسئله‌ای	-0.08381854
-3.923594	مسائل	-0.0837401
-3.923594	مستحق	-0.08381854
-3.923594	مستشارها	-0.08366019
-3.923594	مستشارهای	-0.08350325
-3.315376	مستقل	-0.1892417
-3.923594	مسرت	-0.08373104
-3.923594	مسلحه	-0.08381854
-3.923594	مسلط	-0.08370323
-3.923594	مشایخ	-0.08381854
-3.923594	مشتها	-0.08381854
-3.923594	مشروب	-0.08381854
-3.923594	مشغول	-0.08381854
-3.923594	مشکل	-0.08377203
-3.923594	مصائب	-0.08381854
-3.923594	مصیبت	-0.08381854
-3.923594	مصیبت‌ها	-0.08297726
-3.923594	مصیبت‌های	-0.08381854
-3.923594	مطلب	-0.08306423
-3.923594	مطلبش	-0.08381854
-3.923594	مطلوب	-0.08353829
-3.923594	مطمئن	-0.0837919
-3.923594	مظاهر	-0.08381854
-3.923594	معرفی	-0.08381854
-3.923594	معظّم	-0.08302915
-3.923594	معلول	-0.08381854
-3.923594	معنا	-0.08381854
-3.923594	معین	-0.08376675
-3.923594	مقابل	-0.08381854
-3.645313	مقابله	-0.08332947
-3.923594	مقامی	-0.08330972
-3.923594	مقصود	-0.08302915
-3.923594	ملاحظه	-0.08376675
-2.308197	ملت	-0.1253906
-3.052134	ملتی	-0.08178394
-3.923594	ملجم	-0.08381854
-3.923594	ملی	-0.08381854
-3.190437	مملکت	-0.1188462
-3.74332	منافقین	-0.08269647
-3.923594	منافقین‌	-0.08373104
-3.923594	منبر	-0.08366019
-3.923594	منسجمتر	-0.08348499
-3.923594	منصوب	-0.08348499
-3.645313	منطق	-0.08313113
-3.923594	منفجر	-0.08367924
-3.923594	منکر	-0.08381854
-3.645313	موسسان	-0.08341368
-3.923594	موقعی	-0.08172913
-3.923594	مومن	-0.08381854
-3.923594	مومنین	-0.08172913
-3.923594	مکتبی	-0.2539386
-3.923594	مکتبی؛	-0.08348499
-3.923594	میلیونی	-0.08381854
-3.923594	می‌آورند	-0.08172913
-3.923594	می‌افتد	-0.08381854
-3.923594	می‌توانند	-0.08172913
-3.923594	می‌جنگند	-0.08377203
-3.923594	می‌خورد	-0.08350325
-3.923594	می‌داند	-0.08373104
-3.74332	می‌دانم	-0.0835996
-3.923594	می‌دانم؛	-0.08381854
-3.190437	می‌دانند	-0.08072568
-3.645313	می‌دهند	-0.08366314
-3.923594	می‌رفت	-0.08370323
-3.923594	می‌شد	-0.08376675
-3.923594	می‌شود	-0.08381854
-3.923594	می‌پذیرد	-0.08381854
-3.923594	می‌پرستید	-0.08337983
-3.923594	می‌کردند	-0.08381854
-3.74332	می‌کند	-0.08157828
-3.923594	می‌کنند	-0.08167709
-3.923594	می‌گذارند	-0.08172913
-3.923594	می‌گوید	-0.08381854
-3.74332	ناحیه	-0.08360076
-3.923594	نامرد	-0.08381854
-3.923594	نامردهاست	-0.08366019
-3.923594	نامردیهای	-0.08381854
-3.923594	نباشند	-0.08381854
-3.923594	نبودیم	-0.08370323
-3.923594	نتوانیم	-0.08381854
-3.923594	ندا	-0.0837919
-3.923594	ندارد	-0.08323959
-3.923594	ندارند	-0.08167709
-3.923594	ندیدند	-0.08381854
-3.923594	نسبت	-0.08381854
-3.923594	نشانده	-0.08381854
-3.923594	نشدند	-0.08377203
-3.923594	نشسته	-0.0837919
-3.923594	نشسته‌اند	-0.08370323
-3.923594	نشناخته‌اند	-0.08172913
-3.923594	نصحیت	-0.08347659
-3.923594	نصحیتی	-0.08373104
-3.923594	نظارت	-0.08381854
-3.493941	نظام	-0.08152092
-3.923594	نظامی	-0.08381854
-3.923594	نظر	-0.08381854
-3.493941	نفت	-0.08269806
-3.493941	نفر	-0.1430173
-3.923594	نفری	-0.08355508
-3.923594	نقشه	-0.08381854
-3.923594	نمی‌آورند	-0.08381854
-3.923594	نمی‌بینند	-0.08348499
-3.923594	نمی‌توانند	-0.2541205
-3.923594	نمی‌دهند	-0.08373104
-3.74332	نمی‌کنند	-0.08368829
-3.493941	نهضت	-0.08137936
-3.923594	نوکر	-0.08381854
-3.923594	نوکری	-0.08381854
-3.923594	نکرده	-0.08376675
-3.923594	نگه	-0.08381854
-3.74332	نیروی	-0.08371495
-3.923594	نیست	-0.08376675
-3.923594	نیستند	-0.08337983
-3.923594	نیمه	-0.0837401
-3.923594	ها	-0.08367924
-3.923594	هائی	-0.08332799
-3.74332	هجرت	-0.1891549
-3.923594	هدف‌	-0.08381854
-3.645313	هزار	-0.3125537
-3.923594	هزاران	-0.08325787
-3.315376	هست	-0.08245207
-3.315376	هستند	-0.08204369
-3.923594	هستند؛	-0.08337983
-3.923594	هستند؟	-0.08381854
-3.923594	هستی	-0.08377203
-3.923594	هستید	-0.08348499
-3.923594	هستیم	-0.08359012
-3.923594	هشتاد	-0.08334478
-3.923594	هفتاد	-0.08370323
-3.923594	هم-	-0.08377203
-3.923594	همافرها	-0.08376675
-3.923594	همجنگ	-0.08381854
-3.923594	همدان	-0.08381854
-3.923594	همراه	-0.08381854
-3.923594	همرزم	-0.08381854
-3.645313	همچو	-0.08358316
-3.923594	هوائی	-0.08377203
-3.923594	هوای	-0.08373104
-3.923594	هیچ‌	-0.08381854
-3.414897	و	-0.1993723
-3.923594	وا	-0.08359012
-3.923594	واجب	-0.08373104
-3.74332	وادار	-0.08368829
-2.713315	وارد	-0.2965208
-3.645313	واسطه	-0.08157297
-3.923594	واضح	-0.08373104
-3.923594	واقعه	-0.08330972
-3.923594	والا	-0.08381854
-3.923594	والسلام	-0.08381854
-3.923594	واگر	-0.0837919
-3.923594	واﺟﺐ	-0.07409696
-3.190437	واﺳﻄﻪ	-0.07255413
-3.923594	واﺷﻨﮕﺘﻦ	-0.08336305
-3.923594	واﺿﺤﯽ	-0.06424515
-3.190437	واﻗﻊ	-0.105784
-3.923594	واﻗﻌﯽ	-0.0825377
-3.923594	واﻟﺴﻼم	-0.08376675
-3.923594	ورحمت	-0.08377203
-3.923594	ورﺷﮑﺴﺘﮕﯽ	-0.08381854
-3.923594	ورﻫﻢ	-0.06424515
-3.645313	وزارت	-0.07283311
-3.923594	وزیر	-0.08381854
-3.923594	وزﯾﺮ	-0.08174746
-3.923594	وضعی	-0.08172913
-3.923594	ولو	-0.08355508
-3.923594	وَ	-0.08381854
-3.645313	وکلا	-0.08282005
-3.923594	وکلائی	-0.08271328
-3.923594	وکیل	-0.0828186
-3.923594	وﯾﻼ	-0.0837919
-3.923594	وﯾﻼي	-0.08366019
-3.493941	وﺟﻮد	-0.07365838
-3.923594	وﺟﻮدي	-0.06424515
-3.923594	وﺟﻮدﺷﺎن	-0.08360837
-3.923594	وﺟﻮدﻧﺪ	-0.08320453
-3.74332	وﺣﯽ	-0.06017889
-3.493941	وﺣﺪت	-0.2536579
-3.923594	وﺳﯿﻠﻪ	-0.08373104
-3.923594	وﺳﺎﯾﻞ	-0.08067219
-3.923594	وﺳﺎﺋﻂ	-0.07386488
-3.923594	وﺳﻮﺳﻪ	-0.07032031
-3.923594	وﺻﻒ	-0.08381854
-2.863078	وﺿﻊ	-0.08620347
-3.923594	وﺿﻌﯽ	-0.06274055
-3.923594	وﺿﻌﺶ	-0.08372024
-3.923594	وﺿﻌﺸﺎن	-0.08381854
-3.923594	وﻃﻦ	-0.08371345
-3.923594	وﻃﻨﺶ	-0.08377203
-3.923594	وﻃﻨﻢ	-0.06974192
-3.645313	وﻇﯿﻔﻪ	-0.154503
-3.923594	وﻇﺎﯾﻒ	-0.08165874
-3.74332	وﻇﺎﯾﻔﯽ	-0.08341637
-3.093527	وﻗﺖ	-0.06382712
-2.616405	وﻗﺘﯽ	-0.5087314
-3.923594	وﻟﺨﺮﺟﯽ	-0.08106004
-3.923594	وﻟﻬﺬا	-0.0837919
-3.923594	وﻟﻮ	-0.08376675
-3.645313	پانصد	-0.311634
-3.923594	پایش	-0.08381854
-3.923594	پایه	-0.08381854
-3.923594	پایینها	-0.08377203
-3.923594	پدر	-0.08381854
-3.923594	پدرانشان	-0.08330972
-3.923594	پدرش	-0.08338661
-3.923594	پدرهای	-0.08381854
-3.414897	پشتیبانی	-0.08109797
-3.493941	پنجاه	-0.2476424
-3.923594	پهلوی	-0.08360837
-3.923594	پیر	-0.0837919
-3.923594	پیروز	-0.08376675
-3.923594	پیروزی‌ها	-0.08381854
-3.923594	پیشوایان	-0.08381854
-3.923594	پیغمبر	-0.08325787
-3.923594	چشمم	-0.08381854
-3.923594	چهارده	-0.08377203
-3.923594	چیزمان	-0.0837919
-3.923594	چیزها	-0.08381854
-3.923594	چیزهائی	-0.08381854
-3.315376	کار	-0.08347194
-3.923594	کارشان	-0.0837919
-3.923594	کارشناس	-0.0837919
-3.923594	کارها	-0.08376675
-3.923594	کارهائی	-0.08330972
-3.923594	کارهایی	-0.08377203
-3.923594	کاری	-0.08377203
-3.923594	کام	-0.08355508
-3.923594	کبیر	-0.0837919
-3.923594	کتابفروشی	-0.08302915
-3.923594	کرد	-0.0837401
-3.923594	کردن	-0.08381854
-3.923594	کردند	-0.08381854
-3.923594	کرده	-0.08172913
-3.645313	کرده‌اند	-0.08109488
-3.923594	کسان	-0.08365142
-3.923594	کشانده	-0.08381854
-3.923594	کشت	-0.08381854
-3.923594	کشته	-0.254167
-3.315376	کشور	-0.0834254
-3.923594	کشورشان	-0.08306423
-3.923594	کشوری	-0.08369359
-3.923594	کشیدند	-0.08355508
-3.923594	کشیده	-0.08381854
-3.923594	کشیم	-0.08373104
-3.923594	کمال	-0.08376675
-3.923594	کمک	-0.08334478
-3.923594	کنم	-0.0836049
-3.74332	کنند	-0.08355655
-3.923594	کنند؛	-0.0837401
-3.923594	کنید	-0.08373104
-3.923594	کنیم	-0.0837401
-3.923594	که-	-0.08320453
-3.923594	کور	-0.08381854
-3.923594	کوردلان	-0.08381854
-3.923594	کوردلانه	-0.08381854
-3.923594	کوچه‌ها	-0.08381854
-3.923594	گذاریم	-0.08376675
-3.74332	گذاشت	-0.08361511
-3.923594	گذشت	-0.08373104
-3.923594	گرفتار	-0.08381854
-3.923594	گرفتاریها	-0.08377203
-3.923594	گرفتاریهایی	-0.08370323
-3.923594	گره	-0.08381854
-3.493941	گمان	-0.0834916
-3.923594	گندم	-0.08381854
-3.923594	گوئید	-0.08366019
-3.645313	گوئیم	-0.08308087
-3.923594	یعنی	-0.08381854
-3.923594	یک	-0.08377203
-3.923594	ﭘﯿﺎده	-0.0828537
-2.678553	ﭘﯿﺪا	-0.4242703
-3.923594	ﭘﯿﺮوزي	-0.08201054
-3.74332	ﭘﯿﺮي	-0.06369528
-3.923594	ﭘﯿﺮﻣﺮد	-0.08381854
-3.923594	ﭘﯿﺮﻣﺮدﻣﺎن	-0.08373104
-3.923594	ﭘﯿﺮﻣﺮدﻧﺪ	-0.08377203
-2.947399	ﭘﯿﺶ	-0.1234405
-3.74332	ﭘﯿﺸﺮﻓﺖ	-0.1868147
-3.923594	ﭘﯿﺸﻘﺪم	-0.08288879
-3.923594	ﭘﯿﺸﻢ	-0.08271328
-3.923594	ﭘﯿﺸﻨﻬﺎد	-0.2406688
-3.923594	ﭘﯿﺸﻪ	-0.07401674
-3.923594	ﭘﯿﻐﺎم	-0.08330972
-3.923594	ﭘﯿﻐﻤﺒﺮ	-0.0815612
-3.923594	ﭘﯿﻮﻧﺪ	-0.08238037
-3.493941	ﭘﺎ	-0.1271731
-3.923594	ﭘﺎي	-0.08123621
-3.923594	ﭘﺎپ	-0.08381854
-3.315376	ﭘﺎﯾﮕﺎه	-0.2110407
-3.74332	ﭘﺎﯾﯿﻦ	-0.07051104
-3.923594	ﭘﺎﯾﺘﺨﺖ	-0.07409696
-3.190437	ﭘﺎﺳﺒﺎن	-0.1637867
-3.923594	ﭘﺎﺷﻮ	-0.07064531
-3.923594	ﭘﺎﻧﺰده	-0.0827835
-3.923594	ﭘﺨﺶ	-0.0825377
-3.923594	ﭘﺪرت	-0.08377203
-3.74332	ﭘﺪرش	-0.1858265
-3.923594	ﭘﺬﯾﺮد	-0.06424515
-3.923594	ﭘﺮده	-0.08370323
-3.923594	ﭘﺮﭼﻢ	-0.08381854
-3.923594	ﭘﺮﯾﺸﺎﻧﯽ	-0.08320453
-3.645313	ﭘﺲ	-0.06425221
-3.923594	ﭘﺴﺖ	-0.08381854
-3.923594	ﭘﺸﺘﯿﺒﺎن	-0.0817995
-3.139284	ﭘﺸﺘﯿﺒﺎﻧﯽ	-0.06140674
-3.923594	ﭘﻨﺎه	-0.0738173
-3.645313	ﭘﻨﺞ	-0.1588419
-3.493941	ﭘﻨﺠﺎه	-0.06325402
-3.923594	ﭘﻬﻠﻮان	-0.08377203
-3.923594	ﭘﻬﻨﺎور	-0.07409696
-3.315376	ﭘﻮل	-0.06216062
-3.923594	ﭼﭙﺎول	-0.08292389
-3.923594	ﭼﭙﺎوﻟﯽ	-0.08106004
-2.838254	ﭼﯽ	-0.196788
-3.139284	ﭼﯿﺰ	-0.06183974
-3.923594	ﭼﯿﺰش	-0.06424515
-2.979584	ﭼﯿﺰي	-0.1513937
-3.923594	ﭼﯿﺰﺷﺎن	-0.2520776
-3.923594	ﭼﯿﺰﻧﺪ	-0.08239719
-3.923594	ﭼﯿﺰﻫﺎ	-0.08300084
-3.923594	ﭼﯿﺰﻫﺎي	-0.06424515
-3.315376	ﭼﯿﺰﻫﺎﯾﯽ	-0.2014839
-3.923594	ﭼﯿﺰﻫﺎﯾﺶ	-0.07280581
-3.923594	ﭼﯿﺰﻫﺎﺳﺖ	-0.0837919
-3.923594	ﭼﯿﺴﺖ	-0.06419097
-3.923594	ﭼﺎدرﻧﺸﯿﻦ	-0.08106004
-3.923594	ﭼﺎﭘﯿﺪن	-0.08106004
-3.093527	ﭼﺮا	-0.0954042
-3.923594	ﭼﺮاﻏﺎن	-0.08359012
-3.315376	ﭼﺮخ	-0.1275507
-3.923594	ﭼﺮﺑﯽ	-0.07409696
-3.923594	ﭼﺮﺧﯽ	-0.08295897
-3.923594	ﭼﻄﻮر	-0.07844422
-3.923594	ﭼﻄﻮر؟	-0.08381854
-3.493941	ﭼﻘﺪر	-0.06068573
-2.713315	ﭼﻨﺎﻧﭽﻪ	-0.1918893
-2.792497	ﭼﻨﺪ	-0.2099193
-2.322675	ﭼﻪ	-0.194952
-3.923594	ﭼﻪ؟	-0.08300209
-3.923594	ﭼﻬﺎر	-0.08267818
-3.923594	ﭼﻬﺎرم	-0.07409696
-3.923594	ﭼﻬﻞ	-0.08377203
-3.74332	ﭼﻮن	-0.06981508
-3.923594	ﮏ	-0.08381854
-3.74332	ﮐﯽ	-0.08368829
-3.923594	ﮐﯿﻔﯿﺖ	-0.08381854
-3.923594	ﮐﺎذب	-0.08381854
-2.460058	ﮐﺎر	-0.1220986
-3.923594	ﮐﺎرش	-0.08236206
-3.190437	ﮐﺎري	-0.04865655
-2.814773	ﮐﺎرﮔﺮ	-0.08830938
-3.190437	ﮐﺎرﮔﺮان	-0.08876094
-3.645313	ﮐﺎرﮔﺮي	-0.1478811
-3.645313	ﮐﺎرﮔﺮﻧﺪ	-0.08095428
-3.923594	ﮐﺎرﮔﺮﻫﺎ	-0.08343316
-3.923594	ﮐﺎرﮔﺮﻫﺎي	-0.07844422
-3.923594	ﮐﺎرﺗﺎن	-0.0837919
-3.923594	ﮐﺎرﺗﺮ	-0.08355508
-3.315376	ﮐﺎرﺧﺎﻧﻪ	-0.3729192
-3.923594	ﮐﺎرﺷﻨﺎس	-0.08381854
-3.923594	ﮐﺎرﺷﻨﺎﺳﺎن	-0.07032031
-3.923594	ﮐﺎرﻧﺪ	-0.07901114
-3.74332	ﮐﺎرﻫﺎ	-0.04861772
-3.923594	ﮐﺎرﻫﺎي	-0.08352003
-3.923594	ﮐﺎﻏﺬي	-0.0837919
-3.923594	ﮐﺎﻓﯽ	-0.0837401
-3.923594	ﮐﺎﻣﻞ	-0.07064531
-3.923594	ﮐﺒﺎﯾﺮ	-0.08123621
-3.923594	ﮐﺘﮏ	-0.08381854
-3.74332	ﮐﺘﺎب	-0.08265293
-3.923594	ﮐﺘﺎﺑﯽ	-0.07409696
-3.923594	ﮐﺜﯿﺮ	-0.08067219
-3.923594	ﮐﺜﯿﻒ	-0.08353607
-3.74332	ﮐﺠﺎ	-0.0831877
-3.645313	ﮐﺪام	-0.074088
-3.923594	ﮐﺪاﻣﺘﺎن	-0.08334478
-3.414897	ﮐﺬا	-0.07195301
-3.923594	ﮐﺬا/	-0.08348499
-2.575013	ﮐﺮد	-0.1063819
-3.923594	ﮐﺮدم	-0.05468924
-3.315376	ﮐﺮدن	-0.1033115
-2.480743	ﮐﺮده	-0.531455
-3.923594	ﮐﺮدي	-0.0837919
-3.74332	ﮐﺮدﯾﺪ	-0.05849232
-3.645313	ﮐﺮدﯾﻢ	-0.08327141
-2.662163	ﮐﺮدﻧﺪ	-0.09909523
-3.923594	ﮐﺮدﻧﺪ؟	-0.08381854
-3.923594	ﮐﺮﯾﻢ	-0.08302915
-3.645313	ﮐﺲ	-0.08084932
-3.052134	ﮐﺴﯽ	-0.05573073
-3.645313	ﮐﺴﺎﻧﯽ	-0.2930956
-3.923594	ﮐﺸﯿﺪن	-0.08359012
-3.923594	ﮐﺸﯿﺪه	-0.08243232
-3.923594	ﮐﺸﯿﺸﯽ	-0.254167
-3.923594	ﮐﺸﺎورزان	-0.08123621
-3.315376	ﮐﺸﺎورزي	-0.1737293
-3.923594	ﮐﺸﺘﺎرﻫﺎﯾﯽ	-0.07409696
-3.923594	ﮐﺸﺘﺶ	-0.08373104
-3.923594	ﮐﺸﺘﻨﺪ	-0.08381854
-3.74332	ﮐﺸﺘﻪ	-0.06854656
-3.923594	ﮐﺸﻒ	-0.06883665
-3.315376	ﮐﺸﻮر	-0.12962
-3.923594	ﮐﺸﻮري	-0.2442663
-3.923594	ﮐﺸﻮرﻫﺎ	-0.06038145
-3.923594	ﮐﺸﻮرﻫﺎي	-0.08381854
-3.923594	ﮐﻞ	-0.08381854
-3.74332	ﮐﻠﯽ	-0.07275268
-3.052134	ﮐﻠﻤﻪ	-0.07704204
-2.947399	ﮐﻢ	-0.1080502
-3.315376	ﮐﻤﮏ	-0.04365255
-3.923594	ﮐﻤﯽ	-0.08381854
-3.923594	ﮐﻤﺎل	-0.08381854
-3.74332	ﮐﻨﯽ	-0.07105045
-2.480743	ﮐﻨﯿﺪ	-0.04425938
-3.923594	ﮐﻨﯿﺪ؟	-0.08311759
-2.792497	ﮐﻨﯿﻢ	-0.06051177
-3.923594	ﮐﻨﺎر	-0.08257283
-2.315376	ﮐﻨﺪ	-0.05873777
-3.923594	ﮐﻨﺪ/	-0.08381854
-3.923594	ﮐﻨﺪه	-0.0828537
-3.923594	ﮐﻨﺪﻧﺪ	-0.08348499
-2.713315	ﮐﻨﻢ	-0.35792
-2.394557	ﮐﻨﻨﺪ	-0.101818
-3.923594	ﮐﻨﻨﺪ/	-0.08123621
-3.923594	ﮐﻨﻨﺪ؟	-0.08141232
-3.923594	ﮐﻨﻮﻧﯽ	-0.07391787
-1.354746	ﮐﻪ	-0.125419
-3.74332	ﮐﻪ/	-0.07833933
-3.923594	ﮐﻮزه	-0.08106004
-3.923594	ﮐﻮچ	-0.08243232
-3.315376	ﮐﻮﭼﮏ	-0.02755171
-3.923594	ﮐﻮﭼﮑﯽ	-0.08306423
-3.923594	ﮐﻮﭼﻮﻟﻮ	-0.06424515
-3.923594	ﮐﻮﭼﻮﻟﻮﻫﺎ	-0.08381854
-3.923594	ﮐﻮﺗﺎه	-0.08127144
-3.74332	ﮐﻮﺷﺶ	-0.07996613
-3.645313	ﮔﯿﺮد	-0.08330175
-3.645313	ﮔﯿﺮﻧﺪ	-0.1514831
-3.923594	ﮔﺎز	-0.07032031
-3.923594	ﮔﺎزش	-0.08007212
-3.493941	ﮔﺎﻫﯽ	-0.1316383
-3.923594	ﮔﺪاي	-0.08377203
-3.923594	ﮔﺬارد	-0.08370323
-3.923594	ﮔﺬاﺷﺘﯿﺪ	-0.08373104
-3.923594	ﮔﺬاﺷﺘﻨﺪ	-0.0837919
-3.74332	ﮔﺬاﺷﺘﻪ	-0.08238036
-3.923594	ﮔﺬراﻧﺪ	-0.08316946
-3.139284	ﮔﺬرد	-0.1170657
-3.923594	ﮔﺬﺷﺖ	-0.08139545
-3.923594	ﮔﺮدد	-0.08320453
-3.923594	ﮔﺮه	-0.08243232
-3.923594	ﮔﺮﭼﻪ	-0.08123621
-3.923594	ﮔﺮﻓﺖ	-0.08327466
-3.923594	ﮔﺮﻓﺘﻨﺪ	-0.0837919
-3.315376	ﮔﺮﻓﺘﻪ	-0.3627581
-3.923594	ﮔﺰاف	-0.08381854
-3.315376	ﮔﻔﺖ	-0.09197718
-3.923594	ﮔﻔﺘﯽ	-0.08341489
-3.923594	ﮔﻔﺘﻦ	-0.08370323
-3.414897	ﮔﻔﺘﻨﺪ	-0.06325604
-3.139284	ﮔﻔﺘﻪ	-0.2449721
-3.923594	ﮔﻠﮑﺎري	-0.08376675
-3.923594	ﮔﻠﯽ	-0.08285449
-3.923594	ﮔﻤﺎن	-0.07023939
-3.923594	ﮔﻨﺎه	-0.08176432
-3.493941	ﮔﻨﺪ	-0.05508306
-3.923594	ﮔﻨﺪش	-0.06930763
-3.74332	ﮔﻨﺪي	-0.1890062
-3.923594	ﮔﻨﺪﯾﺪه	-0.08381854
-3.923594	ﮔﻮدال	-0.08239719
-3.923594	ﮔﻮدي	-0.08355508
-3.923594	ﮔﻮش	-0.06004867
-3.923594	ﮔﻮﯾﯿﺪ	-0.07391787
-3.923594	ﮔﻮﯾﯿﻢ	-0.0828186
-3.190437	ﮔﻮﯾﺪ	-0.1539958
-3.052134	ﮔﻮﯾﻨﺪ	-0.1201435
-3.923594	ﮔﻮﺷﻪ	-0.08359012
-3.923594	ﮔﻮﻧﻪ	-0.08381854
-3.923594	ﯾ	-0.08381854
-1.681907	ﯾﮏ	-0.105394
-3.923594	ﯾﮏ/	-0.08367924
-3.315376	ﯾﮑﯽ	-0.08285557
-3.923594	ﯾﮑﺪﯾﮕﺮ	-0.08373104
-3.923594	ﯾﮑﺼﺪا	-0.08295897
-2.602165	ﯾﺎ	-0.0760555
-3.923594	ﯾﺎدم	-0.08261473
-3.923594	ﯾﺎري	-0.08243232
-3.923594	ﯾﺎزده	-0.08366019
-3.923594	ﯾﺪ	-0.08381854
-3.923594	ﯾﺴﺒﺢ	-0.08381854
-2.792497	ﯾﻌﻨﯽ	-0.07981138
-3.923594	ﯾﻠﺒﺜﻮن	-0.08381854
-3.923594	ﯾﻮغ	-0.08176432
-3.923594	ﯾﻮﺣﯽ	-0.07409696
-3.923594	ﺑﭽﺎﭘﻨﺪ	-0.07064531
-3.014345	ﺑﭽﻪ	-0.1064819
-3.190437	ﺑﮑﻨﯿﺪ	-0.08875017
-3.093527	ﺑﮑﻨﯿﻢ	-0.08031252
-3.923594	ﺑﮑﻨﯿﻢ؟	-0.08377203
-2.713315	ﺑﮑﻨﺪ	-0.07250257
-3.923594	ﺑﮑﻨﺪ؟	-0.08063692
-3.190437	ﺑﮑﻨﻢ	-0.07082651
-2.947399	ﺑﮑﻨﻨﺪ	-0.04882069
-3.923594	ﺑﮑﻨﻨﺪ/	-0.08381854
-3.923594	ﺑﮑﻨﻨﺪ؟	-0.0828186
-3.923594	ﺑﮑﻮﺑﻨﺪ	-0.08370323
-3.645313	ﺑﮕﯿﺮد	-0.08262622
-3.923594	ﺑﮕﯿﺮي؟	-0.08373104
-3.923594	ﺑﮕﯿﺮﯾﺪ	-0.08367924
-3.645313	ﺑﮕﯿﺮﯾﻢ	-0.1596653
-3.923594	ﺑﮕﯿﺮﻧﺪ	-0.08381854
-3.315376	ﺑﮕﺬارﯾﺪ	-0.06087205
-3.923594	ﺑﮕﺬارﻧﺪ	-0.07032031
-3.923594	ﺑﮕﺮدﻧﺪ	-0.08341489
-3.315376	ﺑﮕﻮﯾﯿﺪ	-0.1007511
-3.493941	ﺑﮕﻮﯾﺪ	-0.2341317
-3.923594	ﺑﮕﻮﯾﻢ	-0.08158835
-3.74332	ﺑﮕﻮﯾﻨﺪ	-0.07975408
-3.493941	ﺑﯽ	-0.08298792
-3.645313	ﺑﯿﭽﺎره	-0.07766349
-3.923594	ﺑﯿﭽﺎرﮔﯽ	-0.08359012
-3.923594	ﺑﯿﺎورﯾﻢ	-0.07374689
-3.923594	ﺑﯿﺎورﻧﺪ	-0.07982479
-3.645313	ﺑﯿﺎﯾﺪ	-0.08106003
-3.74332	ﺑﯿﺎﯾﻨﺪ	-0.08283768
-3.923594	ﺑﯿﺨﻮد/	-0.08158835
-3.923594	ﺑﯿﺪار	-0.08176432
-3.923594	ﺑﯿﺪاري	-0.08373104
-3.493941	ﺑﯿﺮق	-0.07911696
-3.093527	ﺑﯿﺮون	-0.09537201
-3.645313	ﺑﯿﺴﺖ	-0.155709
-3.923594	ﺑﯿﺸﺘﺮ	-0.074044
-3.923594	ﺑﯿﺸﺘﺮﺷﺎن	-0.08330972
-3.645313	ﺑﯿﻔﺘﺪ	-0.1431668
-3.923594	ﺑﯿﻔﺘﻨﺪ	-0.08353829
-3.923594	ﺑﯿﻠﯿﻮن	-0.08316946
-2.602165	ﺑﯿﻦ	-0.06775353
-3.923594	ﺑﯿﻨﯽ	-0.0817995
-3.190437	ﺑﯿﻨﯿﺪ	-0.2497763
-3.923594	ﺑﯿﻨﯿﻢ	-0.06424515
-3.74332	ﺑﯿﻨﺪ	-0.08218781
-3.923594	ﺑﯿﻨﺪازﯾﺪ	-0.08236206
-2.129739	ﺑﺎ	-0.2046457
-3.923594	ﺑﺎب	-0.08381854
-3.923594	ﺑﺎد	-0.08376675
-3.923594	ﺑﺎر	-0.0712225
-3.923594	ﺑﺎران	-0.07989547
-2.792497	ﺑﺎز	-0.1489561
-2.947399	ﺑﺎزار	-0.08397623
-3.923594	ﺑﺎزارش	-0.08337983
-3.74332	ﺑﺎزاري	-0.08195852
-3.74332	ﺑﺎزارﻫﺎ	-0.06084399
-3.923594	ﺑﺎزارﻫﺎي	-0.2528862
-3.923594	ﺑﺎزرﮔﺎﻧﯽ	-0.08053108
-3.923594	ﺑﺎزرﮔﺎﻧﺎن	-0.08274839
-3.923594	ﺑﺎزي	-0.08313438
-2.337652	ﺑﺎﯾﺪ	-0.1305777
-3.923594	ﺑﺎﷲ	-0.08381854
-3.414897	ﺑﺎﺷﯿﺪ	-0.05741601
-3.74332	ﺑﺎﺷﯿﻢ	-0.06329244
-2.322675	ﺑﺎﺷﺪ	-0.05507706
-3.923594	ﺑﺎﺷﺪ-	-0.08330972
-3.923594	ﺑﺎﺷﺪ؟	-0.06858284
-3.923594	ﺑﺎﺷﻢ	-0.07064531
-3.093527	ﺑﺎﺷﻨﺪ	-0.1056454
-3.923594	ﺑﺎﻋﺚ	-0.07032031
-3.414897	ﺑﺎﻗﯽ	-0.1841776
-3.923594	ﺑﺎﻗﯿﺶ	-0.08007212
-3.923594	ﺑﺎﻟﻔﻆ	-0.08381854
-3.493941	ﺑﺎﻫﻢ	-0.07151079
-3.923594	ﺑﺎﻻي	-0.2540517
-3.645313	ﺑﺎﻻﺗﺮ	-0.2683369
-3.923594	ﺑﺎﻻﺧﺮه	-0.07064531
-3.923594	ﺑﺎﻻﻫﺎ	-0.08381854
-3.645313	ﺑﺒﯿﻨﯿﺪ	-0.07780554
-3.74332	ﺑﺒﺮد	-0.07229402
-3.923594	ﺑﺒﺮﯾﺪ	-0.08017807
-3.923594	ﺑﺒﺮﯾﻢ	-0.07787656
-3.74332	ﺑﺒﺮﻧﺪ	-0.1687044
-3.923594	ﺑﺒﻨﺪﯾﺪ	-0.08144753
-3.923594	ﺑﺒﻨﺪﻧﺪ	-0.08053108
-3.923594	ﺑﺘﺮﺳﯿﺪ	-0.08317026
-3.923594	ﺑﺘﻮاﻧﯿﻢ	-0.07391787
-3.923594	ﺑﺘﻮاﻧﺪ	-0.07064531
-3.923594	ﺑﺘﻮاﻧﻨﺪ	-0.07352359
-3.645313	ﺑﺤﺚ	-0.1595363
-3.923594	ﺑﺤﻖ	-0.08288879
-3.923594	ﺑﺤﻤﺪه	-0.08323959
-3.923594	ﺑﺨﺶ	-0.2444454
-3.923594	ﺑﺨﻮاﻧﺪ	-0.08309931
-3.923594	ﺑﺨﻮاﻫﺪ	-0.08288959
-3.923594	ﺑﺨﻮاﻫﻢ	-0.06424515
-3.74332	ﺑﺨﻮاﻫﻨﺪ	-0.08201202
-3.923594	ﺑﺨﻮرد	-0.08381854
-3.923594	ﺑﺨﻮرﯾﺪ	-0.08352003
-3.923594	ﺑﺨﻮرﻧﺪ	-0.08144753
-3.923594	ﺑﺪ	-0.08330972
-3.923594	ﺑﺪارد	-0.06424515
-3.923594	ﺑﺪارﻧﺪ	-0.08053108
-3.923594	ﺑﺪاﻧﯿﺪ	-0.06424515
-3.923594	ﺑﺪاﻧﺪ	-0.06424515
-3.923594	ﺑﺪي	-0.07381037
-3.645313	ﺑﺪﺗﺮ	-0.06941624
-3.923594	ﺑﺪﺗﺮش	-0.08381854
-3.315376	ﺑﺪﻫﯿﺪ	-0.09924519
-3.414897	ﺑﺪﻫﯿﻢ	-0.2303509
-3.190437	ﺑﺪﻫﺪ	-0.05972688
-3.414897	ﺑﺪﻫﻨﺪ	-0.06143432
-2.315376	ﺑﺮ	-0.10205
-3.923594	ﺑﺮادر	-0.08334478
-3.645313	ﺑﺮادران	-0.151885
-3.923594	ﺑﺮازخ	-0.08381854
-2.134485	ﺑﺮاي	-0.2495049
-3.923594	ﺑﺮاﯾﺶ	-0.08271328
-3.923594	ﺑﺮاﯾﺸﺎن	-0.08381854
-3.923594	ﺑﺮاﺑﺮ	-0.08381854
-3.645313	ﺑﺮد	-0.06443857
-3.923594	ﺑﺮدارد	-0.08288879
-3.493941	ﺑﺮدارﯾﺪ	-0.3234008
-3.923594	ﺑﺮدارﯾﻢ	-0.08373104
-3.923594	ﺑﺮدارﻧﺪ	-0.08292389
-3.923594	ﺑﺮدن	-0.08102479
-3.923594	ﺑﺮده	-0.08260795
-3.923594	ﺑﺮدﻧﺪ	-0.08267818
-3.923594	ﺑﺮدﻧﺶ	-0.07391787
-3.74332	ﺑﺮق	-0.4078655
-3.414897	ﺑﺮود	-0.07289279
-3.645313	ﺑﺮوﯾﺪ	-0.07362218
-3.923594	ﺑﺮوﯾﺪ؟	-0.08348499
-3.923594	ﺑﺮوﯾﻢ	-0.08123621
-3.414897	ﺑﺮوﻧﺪ	-0.1118042
-3.923594	ﺑﺮﮐﺎﺗﯽ	-0.06424515
-3.923594	ﺑﺮﮐﺎﺗﻪ	-0.08381854
-3.923594	ﺑﺮﮐﺖ	-0.07013965
-3.923594	ﺑﺮﮔﺮداﻧﺪ	-0.08355508
-3.923594	ﺑﺮﮔﺸﺘﻨﺪ	-0.08381854
-3.923594	ﺑﺮﯾﺰد	-0.08376675
-3.923594	ﺑﺮﯾﺰﻧﺪ	-0.06419097
-3.923594	ﺑﺮﺧﺎﺳﺖ	-0.08381854
-3.923594	ﺑﺮﺳﯿﻢ	-0.07064531
-3.923594	ﺑﺮﺳﺎﻧﯿﺪ	-0.08017807
-3.74332	ﺑﺮﺳﺪ	-0.07373702
-3.923594	ﺑﺮﻧﺪ	-0.08208087
-3.923594	ﺑﺮﻫﻢ	-0.08288879
-3.74332	ﺑﺰرگ	-0.05748885
-3.923594	ﺑﺰرگ؟	-0.08348499
-3.923594	ﺑﺰرﮔﯽ	-0.08288879
-3.74332	ﺑﺰﻧﯿﺪ	-0.07989546
-3.923594	ﺑﺰﻧﻨﺪ	-0.08370323
-3.414897	ﺑﺴﯿﺎر	-0.08157977
-3.923594	ﺑﺴﯿﺎرﺷﺎن	-0.08381854
-3.923594	ﺑﺴﺎ	-0.08313438
-3.923594	ﺑﺴﺘﻦ	-0.0837919
-3.923594	ﺑﺴﺘﻨﺪ	-0.08327466
-3.645313	ﺑﺴﻢ	-0.2535247
-3.923594	ﺑﺸﮑﻨﯿﻢ	-0.0827835
-3.414897	ﺑﺸﺮ	-0.1950326
-3.923594	ﺑﺸﺮي	-0.07798305
-3.923594	ﺑﺸﺮﯾﺖ	-0.08367924
-3.923594	ﺑﺸﻨﺎﺳﻨﺪ	-0.08288879
-2.631129	ﺑﺸﻮد	-0.09373212
-3.923594	ﺑﺸﻮد؟	-0.08381854
-3.923594	ﺑﺸﻮم	-0.08063692
-3.493941	ﺑﺸﻮﯾﺪ	-0.05860452
-3.923594	ﺑﺸﻮﯾﻢ	-0.07064531
-3.493941	ﺑﺸﻮﻧﺪ	-0.1389217
-3.923594	ﺑﻌﯿﺪ	-0.08007212
-2.863078	ﺑﻌﺪ	-0.1689125
-3.923594	ﺑﻌﺪش	-0.08373104
-3.139284	ﺑﻌﻀﯽ	-0.06691976
-3.923594	ﺑﻔﺮوﺷﯿﻢ	-0.08236206
-3.923594	ﺑﻔﺮوﺷﻨﺪ	-0.08381854
-3.923594	ﺑﻔﺮﺳﺘﻨﺪ	-0.08337983
-3.74332	ﺑﻔﺮﻣﺎﯾﯿﺪ	-0.08366164
-3.923594	ﺑﻔﻬﻤﺎﻧﯿﻢ	-0.07391787
-3.923594	ﺑﻔﻬﻤﺪ	-0.06424515
-3.923594	ﺑﻔﻬﻤﻨﺪ	-0.08367924
-3.923594	ﺑﻘﺎل	-0.08330972
-3.923594	ﺑﻘﺎﻟﯽ	-0.08381854
-3.923594	ﺑﻠﮑﻪ	-0.08222827
-3.923594	ﺑﻠﺪي	-0.08355508
-3.923594	ﺑﻠﻨﺪ	-0.0817995
-3.923594	ﺑﻤﺎﻧﺪ	-0.08334478
-3.923594	ﺑﻤﺎﻧﻨﺪ	-0.07294946
-3.923594	ﺑﻦ	-0.08381854
-3.923594	ﺑﻨﯿﺎد	-0.0837919
-3.414897	ﺑﻨﺎ	-0.1042198
-3.923594	ﺑﻨﺎﯾﯽ	-0.06424515
-3.923594	ﺑﻨﺎﺑﺮ	-0.07064531
-3.923594	ﺑﻨﺎﺑﺮاﯾﻦ	-0.08123621
-3.923594	ﺑﻨﺪه	-0.08381854
-3.414897	ﺑﻨﺪي	-0.07956267
-3.923594	ﺑﻨﺪﮔﺎن	-0.08355508
-3.923594	ﺑﻨﺸﯿﻨﺪ	-0.08370323
-3.923594	ﺑﻨﺸﺎﻧﺪ	-0.07391787
-3.923594	ﺑﻨﻮﯾﺴﻨﺪ	-0.08341489
-1.64482	ﺑﻪ	-0.1961578
-3.923594	ﺑﻪ/	-0.08381854
-3.923594	ﺑﻬﺎﻧﻪ	-0.08373104
-3.923594	ﺑﻬﺘﺮ	-0.05039895
-3.923594	ﺑﻬﺸﺖ	-0.074044
-2.440314	ﺑﻮد	-0.2062874
-3.923594	ﺑﻮدن	-0.08377203
-3.414897	ﺑﻮده	-0.1755742
-3.74332	ﺑﻮدﺟﻪ	-0.4069886
-2.889407	ﺑﻮدﻧﺪ	-0.1478391
-3.923594	ﺑﻮي	-0.08381854
-3.74332	ﺗﮑﻔﯿﺮ	-0.07897572
-3.414897	ﺗﮑﻠﯿﻒ	-0.1987579
-3.923594	ﺗﺄﯾﯿﺪﺷﺎن	-0.08176432
-3.923594	ﺗﺄﺛﯿﺮ	-0.08381854
-3.74332	ﺗﺄﺳﻒ	-0.08263464
-2.562048	ﺗﺎ	-0.139539
-3.923594	ﺗﺎرﯾﮏ	-0.07409696
-3.139284	ﺗﺎرﯾﺦ	-0.1095226
-3.923594	ﺗﺎزه	-0.0837919
-3.139284	ﺗﺎن	-0.09285946
-3.923594	ﺗﺎﺑﺴﺘﺎن	-0.08381854
-3.923594	ﺗﺎﺑﻊ	-0.08330131
-3.923594	ﺗﺎﺛﺮ	-0.08381854
-3.923594	ﺗﺎﺳﺖ؟	-0.08381854
-3.923594	ﺗﺎﻟﻢ	-0.07409696
-3.923594	ﺗﺎﻧﮏ	-0.08106004
-3.093527	ﺗﺒﺎرك	-1.040762
-3.923594	ﺗﺒﺪﯾﻞ	-0.08141232
-3.923594	ﺗﺒﺪﯾﻠﯽ	-0.06424515
-3.923594	ﺗﺒﻌﯿﺘﯽ	-0.08359012
-3.923594	ﺗﺒﻌﯿﺪ	-0.07032031
-3.645313	ﺗﺒﻠﯿﻐﺎت	-0.07228542
-3.923594	ﺗﺠﺰﯾﻪ	-0.07468822
-3.493941	ﺗﺤﺖ	-0.08303222
-3.923594	ﺗﺤﺮﯾﮏ	-0.08366019
-3.923594	ﺗﺤﺼﯿﻞ	-0.0817995
-3.315376	ﺗﺤﻘﻖ	-0.376249
-3.923594	ﺗﺤﻠﯿﻞ	-0.0827835
-3.923594	ﺗﺤﻤﯿﻞ	-0.08211603
-3.315376	ﺗﺤﻮل	-0.05908374
-3.923594	ﺗﺤﻮﻟﯽ	-0.06424515
-3.923594	ﺗﺨﻠﻒ	-0.08172913
-3.923594	ﺗﺪرﯾﺠﯽ	-0.08229177
-3.923594	ﺗﺬﮐﺮاﺗﯽ	-0.08359012
-3.74332	ﺗﺮ	-0.06137826
-3.923594	ﺗﺮ؟	-0.08381854
-3.923594	ﺗﺮﯾﻦ	-0.0837919
-3.923594	ﺗﺮﺑﯿﺖ	-0.0747411
-3.923594	ﺗﺮﺳﻢ	-0.0828186
-3.414897	ﺗﺮﺳﻨﺪ	-0.1071731
-3.923594	ﺗﺮﻗﯽ	-0.08316946
-3.923594	ﺗﺰوﯾﺮ	-0.08063692
-3.923594	ﺗﺰﯾﯿﻨﺎت	-0.08381854
-3.923594	ﺗﺴﺒﯿﺤﻬﻢ	-0.08053108
-3.74332	ﺗﺴﻠﯿﻢ	-0.07950658
-3.923594	ﺗﺸﮑﯿﻞ	-0.08141232
-3.74332	ﺗﺸﮑﺮ	-0.1888308
-3.923594	ﺗﺸﺮﯾﺢ	-0.08302915
-3.923594	ﺗﺸﺮﯾﻔﺎت	-0.08381854
-3.923594	ﺗﺸﺮﯾﻔﺎﺗﯽ	-0.08381854
-3.923594	ﺗﺼﻮر	-0.07032031
-3.923594	ﺗﻀﻌﯿﻒ	-0.08144753
-3.923594	ﺗﻈﺎﻫﺮ	-0.08352003
-3.923594	ﺗﻌﯿﯿﻦ	-0.06814738
-2.838254	ﺗﻌﺎﻟﯽ	-0.07135376
-3.74332	ﺗﻌﺒﯿﺮ	-0.1849709
-3.923594	ﺗﻌﺮض	-0.08381854
-3.923594	ﺗﻌﺮﯾﻒ	-0.0822482
-3.74332	ﺗﻌﻄﯿﻞ	-0.06141513
-3.923594	ﺗﻌﻈﯿﻢ	-0.0817995
-3.923594	ﺗﻌﻈﯿﻤﯽ	-0.0817995
-3.923594	ﺗﻐﯿﯿﺮ	-0.08359012
-3.923594	ﺗﻔﺎوت	-0.08366019
-3.923594	ﺗﻔﺴﯿﻖ	-0.08337983
-3.923594	ﺗﻘﺎﺿﺎي	-0.08376675
-3.923594	ﺗﻘﺪم	-0.08381854
-3.923594	ﺗﻘﺪﯾﻢ	-0.07032031
-3.923594	ﺗﻘﺮﯾﺒﺎ	-0.08373104
-3.923594	ﺗﻘﺼﯿﺮ	-0.08381854
-3.923594	ﺗﻘﻮا	-0.08327546
-3.923594	ﺗﻞ	-0.08381854
-3.74332	ﺗﻠﻒ	-0.06693888
-3.923594	ﺗﻤﺎس	-0.08381854
-2.695587	ﺗﻤﺎم	-0.149959
-3.923594	ﺗﻤﺎﻣﯽ	-0.08239719
-3.923594	ﺗﻤﺎﻣﺶ	-0.08176432
-3.923594	ﺗﻤﺪن	-0.08381854
-3.923594	ﺗﻨﺪروﺗﺮﻧﺪ	-0.07844422
-3.923594	ﺗﻨﺪي	-0.08063692
-3.923594	ﺗﻨﻔﺮ	-0.08381854
-3.645313	ﺗﻨﻬﺎ	-0.07988699
-3.923594	ﺗﻬﯽ	-0.08292389
-3.923594	ﺗﻬﯿﻪ	-0.08311759
-3.493941	ﺗﻬﺬﯾﺐ	-0.2449058
-3.923594	ﺗﻬﺬﯾﺒﯽ	-0.0747411
-2.863078	ﺗﻬﺮان	-0.1167599
-3.74332	ﺗﻮ	-0.08211751
-2.917435	ﺗﻮاﻧﯿﺪ	-0.104975
-3.923594	ﺗﻮاﻧﯿﻢ	-0.08346821
-3.139284	ﺗﻮاﻧﺪ	-0.09576501
-3.923594	ﺗﻮاﻧﺪ؟	-0.07064531
-3.923594	ﺗﻮاﻧﺴﺘﯿﺪ	-0.07402533
-3.923594	ﺗﻮاﻧﺴﺘﻨﺪ	-0.0837401
-3.923594	ﺗﻮاﻧﻢ	-0.08345671
-3.923594	ﺗﻮاﻧﻨﺪ	-0.08095429
-3.923594	ﺗﻮده	-0.07179891
-3.645313	ﺗﻮي	-0.1576445
-3.923594	ﺗﻮپ	-0.06742065
-3.645313	ﺗﻮﺑﻪ	-0.07270625
-3.923594	ﺗﻮﺟﻪ	-0.08337983
-3.74332	ﺗﻮﺣﯿﺪ	-0.08283688
-3.923594	ﺗﻮﺿﯿﺢ	-0.08323959
-3.923594	ﺗﻮﻃﺌﻪ	-0.08267818
-3.923594	ﺗﻮﻟﺪ	-0.0747411
-3.923594	ﺛﺮوت	-0.07954195
-3.923594	ﺛﺮوﺗﻤﻨﺪا	-0.07032031
-3.923594	ﺛﻠﺚ	-0.08377203
-3.923594	ﺛﻼﺛﻪ	-0.08330972
-3.74332	ﺟﯿﺐ	-0.1882508
-3.923594	ﺟﯿﺒﺶ	-0.07032031
-3.493941	ﺟﺎ	-0.07700664
-3.923594	ﺟﺎده	-0.08267818
-3.315376	ﺟﺎن	-0.05828886
-3.923594	ﺟﺎه	-0.07064531
-3.645313	ﺟﺎي	-0.1584197
-3.74332	ﺟﺎﯾﯽ	-0.06994159
-3.923594	ﺟﺎﯾﺶ	-0.08381854
-3.923594	ﺟﺎﺳﺖ	-0.07064531
-2.889407	ﺟﺎﻣﻌﻪ	-0.09568988
-3.923594	ﺟﺎﻧﺐ	-0.08162355
-3.923594	ﺟﺎﻧﺸﺎن	-0.07032031
-3.923594	ﺟﺎﻫﺎ	-0.08183468
-3.923594	ﺟﺎﻫﺎي	-0.08222149
-3.923594	ﺟﺎﻫﺎﯾﯽ	-0.06424515
-3.923594	ﺟﺒﺎر	-0.08366019
-3.052134	ﺟﺒﻬﻪ	-0.2294589
-3.74332	ﺟﺪا	-0.4064264
-3.923594	ﺟﺪﯾﺖ	-0.08260795
-3.923594	ﺟﺪﯾﺪ	-0.08272132
-3.923594	ﺟﺮأت	-0.07064531
-3.923594	ﺟﺮار	-0.08381854
-3.923594	ﺟﺮم	-0.08271328
-3.923594	ﺟﺮﯾﺎن	-0.08348499
-3.923594	ﺟﺮﺛﻮﻣﻪ	-0.0837919
-3.315376	ﺟﺰ	-0.213718
-3.493941	ﺟﺰﯾﯽ	-0.1233162
-3.923594	ﺟﺰﯾﺮه	-0.08381854
-3.923594	ﺟﺴﺎرﺗﯽ	-0.08271328
-3.923594	ﺟﺸﻦ	-0.08334478
-3.923594	ﺟﻠﻮ	-0.08381854
-3.923594	ﺟﻠﻮس	-0.07032031
-3.923594	ﺟﻠﻮه	-0.08329293
-3.923594	ﺟﻠﻮي	-0.08376675
-3.923594	ﺟﻠﻮﮔﯿﺮي	-0.08381854
-3.923594	ﺟﻠﻮﯾﺸﺎن	-0.07032031
-3.923594	ﺟﻤﺎدات	-0.08141232
-3.923594	ﺟﻤﺎﻋﺖ	-0.08373104
-3.923594	ﺟﻤﻊ	-0.08141232
-3.645313	ﺟﻤﻌﯿﺖ	-0.05771205
-3.923594	ﺟﻤﻬﻮري	-0.08250258
-3.923594	ﺟﻨﮓ	-0.0837919
-3.923594	ﺟﻨﮕﯽ	-0.06424515
-3.923594	ﺟﻨﮕﺰدﮔﺎن	-0.08211603
-3.923594	ﺟﻨﮕﻞ	-0.0837919
-3.923594	ﺟﻨﺎب	-0.08381854
-3.315376	ﺟﻨﺎح	-0.3756604
-3.923594	ﺟﻨﺎﯾﺎت	-0.08264386
-3.923594	ﺟﻨﺎﯾﺖ	-0.08381854
-3.923594	ﺟﻨﺎﺑﻌﺎﻟﯽ	-0.0837919
-3.923594	ﺟﻨﺒﺶ	-0.08372024
-3.923594	ﺟﻨﺖ	-0.08381854
-3.923594	ﺟﻨﻮب	-0.08381854
-3.923594	ﺟﻨﻮد	-0.07409696
-3.923594	ﺟﻬﺎﺗﯽ	-0.08377203
-3.923594	ﺟﻬﺎﻟﺘﯿﻦ	-0.08176432
-3.645313	ﺟﻬﺖ	-0.0735251
-3.315376	ﺟﻬﻨﻢ	-0.07888941
-3.923594	ﺟﻮ	-0.08288879
-3.923594	ﺟﻮاب	-0.08370323
-3.923594	ﺟﻮار	-0.0837919
-2.979584	ﺟﻮان	-0.05520566
-3.923594	ﺟﻮاﺑﺪه	-0.07064531
-3.645313	ﺟﻮاﻣﻊ	-0.06616494
-3.315376	ﺟﻮاﻧﯽ	-0.1110142
-3.923594	ﺟﻮاﻧﯿﺪ	-0.05005843
-3.923594	ﺟﻮاﻧﻤﺎن	-0.08376675
-3.923594	ﺟﻮاﻧﻬﺎﯾﺘﺎن	-0.08348499
-3.190437	ﺟﻮر	-0.09990416
-3.923594	ﺟﻮري	-0.06424515
-3.923594	ﺟﻮرﻧﺪ	-0.0837919
-3.923594	ﺟﻮﺷﯿﺪه	-0.08352003
-3.923594	ﺟﻮﺷﺶ	-0.0837919
-3.74332	ﺣﮑﻢ	-0.06687479
-2.713315	ﺣﮑﻮﻣﺖ	-0.3681367
-3.923594	ﺣﮑﻮﻣﺘﯽ	-0.06912655
-3.923594	ﺣﮑﻮﻣﺘﺶ	-0.0825377
-3.923594	ﺣﮑﻮﻣﺘﻬﺎي	-0.08186986
-3.923594	ﺣﯿﺎﺗﺸﺎن	-0.0747411
-3.923594	ﺣﯿﺚ	-0.08360837
-3.923594	ﺣﺎدﺛﻪ	-0.08267818
-3.139284	ﺣﺎل	-0.06035318
-3.923594	ﺣﺎﮐﻢ	-0.08172913
-3.923594	ﺣﺎﮐﻤﻪ	-0.08381854
-3.190437	ﺣﺎﺻﻞ	-0.1411942
-3.923594	ﺣﺎﺿﺮ	-0.06959721
-3.923594	ﺣﺎﺿﺮم	-0.07032031
-3.923594	ﺣﺎﻟﺶ	-0.0837919
-2.562048	ﺣﺎﻻ	-0.08265433
-3.093527	ﺣﺐ	-0.1349023
-3.74332	ﺣﺒﺲ	-0.1660872
-3.923594	ﺣﺒﺶ	-0.08338063
-3.052134	ﺣﺘﯽ	-0.08417625
-3.923594	ﺣﺠﺎز	-0.08123621
-3.923594	ﺣﺠﺎﺑﯽ	-0.08381854
-3.923594	ﺣﺪود	-0.08370323
-3.139284	ﺣﺮف	-0.1095774
-3.315376	ﺣﺮﮐﺖ	-0.1090087
-3.923594	ﺣﺮﮐﺘﯽ	-0.07911735
-3.923594	ﺣﺮﮐﺘﺶ	-0.07391787
-3.645313	ﺣﺴﺎب	-0.08132026
-3.923594	ﺣﺴﺎﺳﺘﺮﯾﻦ	-0.0825377
-3.923594	ﺣﺴﺐ	-0.08373104
-3.923594	ﺣﺴﺮت	-0.08381854
-3.923594	ﺣﺴﺮه	-0.08352003
-3.493941	ﺣﻀﺮت	-0.08295283
-3.923594	ﺣﻆ	-0.08320453
-3.923594	ﺣﻔﻆ	-0.2409938
-2.917435	ﺣﻖ	-0.2170448
-3.923594	ﺣﻘﺎرﺗﯽ	-0.08359012
-3.923594	ﺣﻘﺎﯾﻖ	-0.08381854
-3.923594	ﺣﻘﻨﺪ	-0.08053108
-3.74332	ﺣﻘﻮق	-0.07852323
-3.923594	ﺣﻠﻘﻮم	-0.08232692
-3.923594	ﺣﻤﻞ	-0.08359012
-2.646369	ﺣﻮزه	-0.1047766
-3.645313	ﺧﯿﺎل	-0.2879691
-3.923594	ﺧﯿﺎﺑﺎن	-0.2514085
-3.414897	ﺧﯿﺎﻧﺖ	-0.2078837
-3.74332	ﺧﯿﺎﻧﺘﮑﺎر	-0.07549139
-3.923594	ﺧﯿﺮ	-0.08381854
-3.923594	ﺧﯿﺮات	-0.08381854
-2.917435	ﺧﯿﻠﯽ	-0.1222212
-3.139284	ﺧﺎرج	-0.1549096
-3.74332	ﺧﺎرﺟﯽ	-0.06687479
-3.923594	ﺧﺎك	-0.07026688
-3.923594	ﺧﺎن	-0.08381854
-3.923594	ﺧﺎﻃﺮ	-0.08290708
-3.923594	ﺧﺎﻟﻖ	-0.08381854
-3.645313	ﺧﺎﻧﻪ	-0.0821946
-3.923594	ﺧﺎﻧﻮاده	-0.08381854
-3.923594	ﺧﺒﯿﺚ	-0.0828186
-3.923594	ﺧﺒﯿﺜﻪ	-0.08267818
-3.014345	ﺧﺪا	-0.07795203
-3.315376	ﺧﺪاوﻧﺪ	-0.1323283
-2.889407	ﺧﺪاي	-0.8641943
-3.315376	ﺧﺪاﺳﺖ	-0.1187551
-3.74332	ﺧﺪﻋﻪ	-0.08053256
-3.923594	ﺧﺪﻣﺖ	-0.06683839
-3.645313	ﺧﺪﻣﺘﯽ	-0.1308342
-3.923594	ﺧﺮاب	-0.08290708
-3.74332	ﺧﺮج	-0.06906109
-3.923594	ﺧﺮوﺷﺎن	-0.07064531
-3.923594	ﺧﺮﯾﺪ	-0.08341489
-3.923594	ﺧﺮﻧﺪ	-0.08376675
-3.923594	ﺧﺰ	-0.07064531
-3.923594	ﺧﺰان	-0.08352003
-3.74332	ﺧﺰاﯾﻦ	-0.06496842
-3.923594	ﺧﺰاﻧﻪ	-0.08352003
-3.923594	ﺧﺴﺮاﻟﺪﻧﯿﺎ	-0.08381854
-3.923594	ﺧﺸﻮﻧﺖ	-0.0837919
-3.74332	ﺧﺼﻮص	-0.08351002
-3.923594	ﺧﺼﻮﺻﺎ	-0.0837919
-3.923594	ﺧﺼﻮﺻﺎً	-0.08336305
-3.923594	ﺧﻄﯿﺌﻪ	-0.08381854
-3.923594	ﺧﻄﺮ	-0.08381854
-3.923594	ﺧﻄﺮﻫﺎي	-0.08370323
-3.923594	ﺧﻄﻮر	-0.08172913
-3.923594	ﺧﻔﻪ	-0.08211603
-3.923594	ﺧﻮ	-0.08366019
-3.923594	ﺧﻮاب	-0.08171228
-3.923594	ﺧﻮاﺳﺖ	-0.08058474
-3.923594	ﺧﻮاﺳﺘﺎر	-0.08373104
-3.923594	ﺧﻮاﺳﺘﺎرم	-0.08053108
-3.923594	ﺧﻮاﺳﺘﻢ	-0.08381854
-3.645313	ﺧﻮاﺳﺘﻨﺪ	-0.08332038
-3.923594	ﺧﻮاﻧﺪ	-0.08370323
-3.923594	ﺧﻮاﻧﺪه	-0.06424515
-3.315376	ﺧﻮاﻫﯿﺪ	-0.1818057
-2.863078	ﺧﻮاﻫﯿﻢ	-0.1191898
-3.923594	ﺧﻮاﻫﺎﻧﻢ	-0.08381854
-3.414897	ﺧﻮاﻫﺪ	-0.1073563
-3.923594	ﺧﻮاﻫﺮﻫﺎي	-0.08320453
-3.74332	ﺧﻮاﻫﻢ	-0.08186946
-3.052134	ﺧﻮاﻫﻨﺪ	-0.116524
-2.751104	ﺧﻮب	-0.1025794
-2.814773	ﺧﻮد	-0.08576459
-3.923594	ﺧﻮدداري	-0.07032031
-2.602165	ﺧﻮدش	-0.1694885
-3.923594	ﺧﻮدش؟	-0.08370323
-3.645313	ﺧﻮدم	-0.07251987
-3.74332	ﺧﻮدﮐﺎر	-0.06814738
-3.014345	ﺧﻮدﺗﺎن	-0.07617212
-3.093527	ﺧﻮدﺷﺎن	-0.06763863
-3.052134	ﺧﻮدﻣﺎن	-0.2472268
-3.645313	ﺧﻮرد	-0.08246893
-3.923594	ﺧﻮردن	-0.07468822
-3.645313	ﺧﻮرﺷﯿﺪ	-0.143859
-3.923594	ﺧﻮف	-0.06056622
-3.923594	ﺧﻮﺑﯽ	-0.07409696
-3.923594	ﺧﻮﻧﯽ	-0.08381854
-3.923594	ﺧﻮﻧﯿﻦ	-0.08316946
-3.923594	ﺧﻮﻧﺮﯾﺰي	-0.0712225
-3.923594	ﺧﻼف	-0.07032031
-3.923594	ﺧﻼل	-0.0837919
-3.923594	ﺧﻼﯾﻘﯽ	-0.08306423
-3.923594	ﺧﻼﻓﯽ	-0.0701035
-3.139284	ﺳﯽ	-0.2056932
-3.923594	ﺳﯿﮕﺎرﺗﺎن	-0.0747411
-3.923594	ﺳﯿﺎه	-0.0738173
-3.014345	ﺳﯿﺎﺳﯽ	-0.098646
-3.923594	ﺳﯿﺎﺳﯿﻮن	-0.08355508
-3.923594	ﺳﯿﺎﺳﺖ	-0.07844422
-3.923594	ﺳﯿﺎﺳﺘﯽ	-0.0837919
-3.923594	ﺳﯿﻞ	-0.08376675
-3.923594	ﺳﺎزﻧﺪ	-0.08381854
-2.602165	ﺳﺎل	-0.1596674
-3.923594	ﺳﺎل؟	-0.08355508
-3.052134	ﺳﺎﯾﺮ	-0.1055907
-3.414897	ﺳﺎﯾﻪ	-0.187958
-3.74332	ﺳﺎﺑﻖ	-0.08335832
-3.923594	ﺳﺎﺑﻘﺎ	-0.08123621
-3.923594	ﺳﺎﺑﻘﺎً	-0.0837919
-3.74332	ﺳﺎﺑﻘﻪ	-0.40755
-3.052134	ﺳﺎﻗﻂ	-0.08233352
-3.923594	ﺳﺎﻟﻢ	-0.07401674
-3.645313	ﺳﺎﻟﻪ	-0.1308521
-3.645313	ﺳﺘﺎره	-0.156523
-3.923594	ﺳﺘﻢ	-0.08106004
-3.923594	ﺳﺨﺖ	-0.08292389
-3.923594	ﺳﺪي	-0.06332833
-3.414897	ﺳﺮ	-0.07700624
-3.74332	ﺳﺮاغ	-0.07855057
-3.923594	ﺳﺮان	-0.08381854
-3.74332	ﺳﺮاﯾﺖ	-0.08095509
-3.923594	ﺳﺮش	-0.08381854
-3.923594	ﺳﺮوﮐﺎر	-0.08063692
-3.923594	ﺳﺮي	-0.08381854
-3.923594	ﺳﺮﮐﺎر	-0.0817995
-3.923594	ﺳﺮﮐﻮﺑﯽ	-0.08162355
-3.923594	ﺳﺮﮔﺮم	-0.08288879
-3.493941	ﺳﺮﺗﺎﺳﺮ	-0.2452227
-3.923594	ﺳﺮﺷﺎري	-0.08323959
-3.923594	ﺳﺮﻋﺖ	-0.07032031
-3.923594	ﺳﺮﻣﺎﯾﻪ	-0.07064531
-3.923594	ﺳﺮﻧﯿﺰه	-0.08293066
-3.923594	ﺳﻄﺢ	-0.0837919
-3.923594	ﺳﻌﺎدت	-0.08320453
-3.923594	ﺳﻔﯿﺪ	-0.06424515
-3.923594	ﺳﻔﺎرش	-0.07032031
-3.923594	ﺳﻘﻮط	-0.08172913
-3.923594	ﺳﻠﺴﻠﻪ	-0.08381854
-3.645313	ﺳﻠﻄﺎن	-0.07169049
-3.493941	ﺳﻠﻄﻨﺖ	-0.1282944
-3.923594	ﺳﻠﻄﻨﺘﯽ	-0.0837919
-3.923594	ﺳﻦ	-0.0837919
-3.923594	ﺳﻨﮓ	-0.08172913
-3.923594	ﺳﻨﺦ	-0.08366019
-3.74332	ﺳﻨﺪ	-0.06353097
-3.923594	ﺳﻨﺪي	-0.08381854
-3.923594	ﺳﻨﻢ	-0.0747411
-3.74332	ﺳﻪ	-0.06817497
-3.923594	ﺳﻬﻢ	-0.08381854
-3.923594	ﺳﻮار	-0.07026688
-3.923594	ﺳﻮال	-0.08257362
-3.923594	ﺳﻮدا	-0.08381854
-3.923594	ﺳﻮزد	-0.07064531
-3.923594	ﺳﻮزﻧﺪ	-0.08381854
-3.923594	ﺳﻼح	-0.08334478
-3.923594	ﺳﻼم	-0.2536231
-3.315376	ﺳﻼﻃﯿﻦ	-0.08314572
-3.923594	ﺳﻼﻣﺖ	-0.2508795
-3.923594	ﺷﮑﺎﯾﺖ	-0.08292389
-3.74332	ﺷﮑﺴﺖ	-0.07910039
-3.923594	ﺷﮑﻨﺠﻪ	-0.07032031
-3.923594	ﺷﯽ	-0.08381854
-3.923594	ﺷﯿﻄﺎن	-0.0837919
-3.923594	ﺷﯿﻄﺎﻧﯽ	-0.07409696
-3.190437	ﺷﯿﻌﻪ	-0.1078459
-3.493941	ﺷﺎءاﷲ	-0.07703181
-3.190437	ﺷﺎن	-0.05767485
-2.814773	ﺷﺎه	-0.1093808
-3.052134	ﺷﺎﯾﺪ	-0.08168915
-3.923594	ﺷﺎﻣﻪ	-0.08381854
-3.923594	ﺷﺎﻫﺶ	-0.07032031
-3.923594	ﺷﺎﻫﻨﺸﺎﻫﯽ	-0.08381854
-3.923594	ﺷﺐ	-0.08373104
-3.923594	ﺷﺒﺎﻫﺖ	-0.08337983
-2.979584	ﺷﺨﺺ	-0.1400318
-3.923594	ﺷﺨﺼﯽ	-0.08313438
-3.923594	ﺷﺨﺼﯿﺖ	-0.08313438
-2.616405	ﺷﺪ	-0.13362
-3.923594	ﺷﺪم	-0.08356389
-3.923594	ﺷﺪن	-0.08381854
-2.480743	ﺷﺪه	-0.7423691
-3.923594	ﺷﺪي	-0.08222149
-3.923594	ﺷﺪﯾﺪ	-0.08332799
-3.645313	ﺷﺪﻧﺪ	-0.08147267
-3.923594	ﺷﺮع	-0.08381854
-3.923594	ﺷﺮوع	-0.0828186
-3.923594	ﺷﺮﮐﺖ	-0.08341489
-3.923594	ﺷﺮﯾﮏ	-0.08370323
-3.923594	ﺷﺮﯾﻔﻪ	-0.08297726
-3.645313	ﺷﺮﻋﯽ	-0.06760244
-3.923594	ﺷﺶ	-0.08376675
-3.923594	ﺷﺼﺖ	-0.08323959
-3.74332	ﺷﻌﺎر	-0.07791205
-3.923594	ﺷﻌﺎري	-0.06424515
-3.923594	ﺷﻌﺎرﺷﺎن	-0.08176432
-3.923594	ﺷﻌﺎع	-0.08232692
-3.923594	ﺷﻌﺐ	-0.08381854
-3.923594	ﺷﻢ	-0.0837919
-2.072337	ﺷﻤﺎ	-0.09242462
-3.923594	ﺷﻤﺎرد	-0.08334478
-3.923594	ﺷﻤﺎرﯾﻢ	-0.08067219
-3.923594	ﺷﻤﺎﯾﯿﺪ	-0.06424515
-3.414897	ﺷﻤﺎﺳﺖ	-0.1758332
-3.923594	ﺷﻤﺎﻫﺎ	-0.08001988
-3.923594	ﺷﻨﻮد	-0.08370323
-3.923594	ﺷﻨﻮﻧﺪ	-0.08381854
-3.414897	ﺷﻬﺮ	-0.05850081
-3.923594	ﺷﻬﺮش	-0.08348499
-3.923594	ﺷﻬﺮي	-0.08330972
-3.74332	ﺷﻬﺮﺳﺘﺎن	-0.08047888
-3.923594	ﺷﻬﺮﻫﺎ	-0.08373104
-3.923594	ﺷﻬﺮﻫﺎي	-0.07338013
-3.923594	ﺷﻬﺮﻫﺎﯾﯽ	-0.06424515
-3.923594	ﺷﻮاﻫﺪ	-0.08355508
-2.562048	ﺷﻮد	-0.1830496
-3.923594	ﺷﻮد؟	-0.08316946
-3.74332	ﺷﻮروي	-0.07855056
-3.923594	ﺷﻮﯾﺪ	-0.0747411
-3.923594	ﺷﻮﯾﻢ	-0.08366019
-3.923594	ﺷﻮﻣﯽ	-0.06424515
-3.414897	ﺷﻮﻧﺪ	-0.07626584
-3.923594	ﺷﻮﻫﺮ	-0.0837919
-3.923594	ﺻﺎف	-0.08348499
-3.923594	ﺻﺎﺑﺮ	-0.08370323
-3.923594	ﺻﺎﺣﺐ	-0.08381854
-3.923594	ﺻﺎﻋﻘﻪ	-0.08359012
-3.923594	ﺻﺎﻟﺢ	-0.08381854
-3.923594	ﺻﺎﻟﺤﯽ	-0.07468822
-3.645313	ﺻﺤﯿﺢ	-0.04982179
-3.923594	ﺻﺤﯿﺤﯽ	-0.07248241
-3.74332	ﺻﺤﺒﺖ	-0.06930763
-3.923594	ﺻﺤﺒﺘﯽ	-0.08367924
-3.923594	ﺻﺤﺖ	-0.08381854
-3.315376	ﺻﺪ	-0.2109057
-3.923594	ﺻﺪا	-0.08381854
-3.923594	ﺻﺪاي	-0.08288879
-3.923594	ﺻﺪﻫﺎ	-0.08330972
-3.645313	ﺻﺮف	-0.05508306
-3.923594	ﺻﻒ	-0.08053108
-3.315376	ﺻﻮرت	-0.1317178
-3.74332	ﺻﻮرﺗﯽ	-0.1691452
-3.74332	ﺻﻼح	-0.1892951
-3.923594	ﺿﺎرﯾﺎن	-0.08381854
-3.74332	ﺿﺎﯾﻊ	-0.175306
-3.923594	ﺿﺪ	-0.08123621
-3.74332	ﺿﺮر	-0.08327614
-3.923594	ﺿﺮﺑﯽ	-0.07391787
-3.923594	ﺿﻌﯿﻒ	-0.08017807
-3.923594	ﺿﻌﯿﻔﻨﺪ	-0.08123621
-3.923594	ﻃﯿﺎره	-0.06424515
-3.493941	ﻃﺎﯾﻔﻪ	-0.1346588
-3.923594	ﻃﺎﻏﻮت	-0.07305717
-3.923594	ﻃﺎﻏﻮﺗﯽ	-0.08381854
-3.923594	ﻃﺒﯿﺐ	-0.08348499
-3.315376	ﻃﺒﯿﻌﯽ	-0.1984881
-3.414897	ﻃﺒﯿﻌﺖ	-0.06052926
-3.923594	ﻃﺒﻘﺎت	-0.08281018
-3.315376	ﻃﺒﻘﻪ	-0.08084997
-3.923594	ﻃﺮح	-0.08381854
-3.923594	ﻃﺮز	-0.0747411
-2.889407	ﻃﺮف	-0.06457078
-3.923594	ﻃﻠﺒﮕﯽ	-0.0747411
-3.923594	ﻃﻠﺒﺎﻧﻪ	-0.08288879
-3.923594	ﻃﻠﺒﻪ	-0.08373104
-2.513743	ﻃﻮر	-0.1311495
-3.014345	ﻃﻮري	-0.1979677
-3.923594	ﻃﻮرﯾﮑﻪ	-0.08377203
-3.923594	ﻃﻮرﻫﺎ	-0.08144753
-3.493941	ﻃﻮل	-0.2481783
-3.923594	ﻃﻼب	-0.08376675
-3.923594	ﻇﺎﻫﺮا	-0.08352003
-3.923594	ﻇﺎﻫﺮاﻟﺼﻼح	-0.08370323
-3.74332	ﻇﺮف	-0.1667522
-3.414897	ﻇﻞ	-1.417493
-3.493941	ﻇﻠﻢ	-0.06872789
-3.923594	ﻇﻠﻤﯽ	-0.08355508
-3.493941	ﻋﺎدت	-0.1187251
-3.493941	ﻋﺎدي	-0.08127949
-3.923594	ﻋﺎدﯾﺶ	-0.08366019
-3.923594	ﻋﺎدﺗﺶ	-0.08229177
-3.923594	ﻋﺎﺋﻠﻪ	-0.08377203
-3.923594	ﻋﺎﻗﻞ	-0.08381854
-3.923594	ﻋﺎﻟﯽ	-0.08370323
-2.450074	ﻋﺎﻟﻢ	-0.1216644
-3.923594	ﻋﺎﻟﻤﯽ	-0.08338063
-3.923594	ﻋﺎﻟﻤﻬﺎﯾﯽ	-0.08295897
-3.923594	ﻋﺎﻣﻞ	-0.0837919
-3.923594	ﻋﺒﺪود	-0.08229177
-3.315376	ﻋﺪاﻟﺖ	-0.06882794
-3.923594	ﻋﺪدﺗﺎن	-0.08381854
-3.923594	ﻋﺪدﻣﺎن	-0.08381854
-3.923594	ﻋﺪل	-0.08327466
-3.74332	ﻋﺬر	-0.06979693
-2.917435	ﻋﺮض	-0.7105398
-3.923594	ﻋﺮﺑﯽ	-0.08063692
-3.923594	ﻋﺮﺿﻪ	-0.08381854
-3.923594	ﻋﺰﯾﺰ	-0.06023358
-3.923594	ﻋﺰﯾﺰان	-0.07844422
-3.923594	ﻋﻄﺎري	-0.08381854
-3.923594	ﻋﻈﯿﻢ	-0.08355508
-3.923594	ﻋﻈﯿﻤﯽ	-0.08243232
-3.923594	ﻋﻈﻤﺖ	-0.07947122
-3.645313	ﻋﻘﺐ	-0.08276816
-3.923594	ﻋﻘﺒﺎت	-0.08171228
-3.923594	ﻋﻘﺒﺎﺗﯽ	-0.06424515
-3.923594	ﻋﻘﺪه	-0.08334478
-3.923594	ﻋﻘﻞ	-0.07391787
-3.923594	ﻋﻘﻼﯾﯽ	-0.07391787
-3.923594	ﻋﻠﯽ	-0.08158835
-3.923594	ﻋﻠﯿﮑﻢ	-0.08377203
-3.645313	ﻋﻠﯿﻪ	-0.08329441
-3.093527	ﻋﻠﻢ	-0.1535045
-3.923594	ﻋﻠﻤﯽ	-0.08381854
-3.923594	ﻋﻠﻤﯿﻪ	-0.08377203
-3.190437	ﻋﻠﻤﺎ	-0.1145018
-3.923594	ﻋﻠﻤﺎي	-0.08366019
-3.923594	ﻋﻠﻤﺶ	-0.08381854
-3.923594	ﻋﻠﻮم	-0.08381854
-3.923594	ﻋﻤﯿﻖ	-0.0837919
-3.923594	ﻋﻤﺎﻣﻪ	-0.08359012
-3.414897	ﻋﻤﺮ	-0.1102192
-3.923594	ﻋﻤﺮﺗﺎن	-0.08381854
-3.923594	ﻋﻤﺮﺷﺎن	-0.0747411
-3.190437	ﻋﻤﻞ	-0.0555139
-3.923594	ﻋﻤﻠﯽ	-0.08176432
-3.923594	ﻋﻤﻠﻤﺎن	-0.08366019
-3.923594	ﻋﻨﺎﯾﺎﺗﯽ	-0.07409696
-3.74332	ﻋﻨﺎﯾﺖ	-0.06171001
-3.923594	ﻋﻨﺎﯾﺘﯽ	-0.06424515
-3.923594	ﻋﻨﺪاﻟﻨﺰع	-0.08381854
-3.315376	ﻋﻬﺪه	-0.1325203
-3.74332	ﻋﻮاﻟﻢ	-0.07900264
-3.74332	ﻋﻮض	-0.07273395
-3.74332	ﻋﻮﺿﺶ	-0.07953347
-3.493941	ﻋﻼوه	-0.24577
-3.923594	ﻋﻼﻗﻪ	-0.08355508
-3.923594	ﻏﯿﺒﯽ	-0.07388204
-3.74332	ﻏﯿﺒﺖ	-0.175125
-3.493941	ﻏﯿﺮ	-0.0813273
-3.923594	ﻏﯿﺮﻗﺎﻧﻮﻧﯽ	-0.2444454
-3.923594	ﻏﺎرت	-0.0828537
-3.923594	ﻏﺎرﺗﮕﺮان	-0.08377203
-3.923594	ﻏﺎﻟﺒﺎً	-0.08320453
-3.923594	ﻏﻔﻠﺖ	-0.08381854
-3.493941	ﻏﻠﻂ	-0.07091672
-3.923594	ﻏﻨﻢ	-0.08381854
-3.645313	ﻓﮑﺮ	-0.08204719
-3.923594	ﻓﯿﻀﯿﻪ	-0.07391787
-3.923594	ﻓﯿﻪ	-0.07064531
-3.74332	ﻓﺎﯾﺪه	-0.07248241
-3.74332	ﻓﺎﺗﺤﻪ	-0.4048415
-3.923594	ﻓﺎﺳﺪ	-0.06023358
-3.923594	ﻓﺎﻗﺪ	-0.08377203
-3.645313	ﻓﺤﺶ	-0.05820242
-3.923594	ﻓﺪاﮐﺎري	-0.06424515
-3.923594	ﻓﺪاﯾﯽ	-0.08306423
-3.923594	ﻓﺮاواﻧﻨﺪ	-0.08348499
-3.923594	ﻓﺮاﻧﺴﻪ	-0.07032031
-3.139284	ﻓﺮد	-0.1926167
-3.923594	ﻓﺮدا	-0.08355508
-3.414897	ﻓﺮض	-0.3274007
-3.645313	ﻓﺮق	-0.08236353
-3.923594	ﻓﺮو	-0.08381854
-3.923594	ﻓﺮوﺧﺘﻨﺪ	-0.07032031
-3.139284	ﻓﺮﯾﺎد	-0.09181846
-3.923594	ﻓﺮﯾﺎدﺷﺎن	-0.08053108
-3.923594	ﻓﺮﯾﺎدﻫﺎﯾﯽ	-0.06424515
-3.923594	ﻓﺮﯾﺐ	-0.08372024
-3.923594	ﻓﺮﯾﺒﯽ	-0.0837919
-3.74332	ﻓﺮﺳﺘﺎده	-0.3984073
-3.923594	ﻓﺮﺳﺘﺎدﻧﺶ	-0.0828186
-3.923594	ﻓﺮﺳﺘﻨﺪ	-0.08330972
-3.923594	ﻓﺮﺳﺦ	-0.07205085
-3.923594	ﻓﺮﺻﺖ	-0.08053108
-3.923594	ﻓﺮﺿﺎً	-0.08123621
-3.923594	ﻓﺮﻗﯽ	-0.08292389
-3.315376	ﻓﺮﻣﺎن	-0.4074165
-3.923594	ﻓﺮﻣﺎﯾﺪ	-0.08381854
-3.923594	ﻓﺮﻣﺎﯾﺸﯽ	-0.07409696
-3.923594	ﻓﺮﻣﺎﻧﺶ	-0.08366019
-3.923594	ﻓﺮﻣﻮده	-0.08352003
-3.923594	ﻓﺮﻫﻨﮓ	-0.08376675
-3.923594	ﻓﺮﻫﻨﮕﯽ	-0.08366019
-3.923594	ﻓﺮﻫﻨﮕﺶ	-0.06424515
-3.74332	ﻓﺴﺎد	-0.07978096
-3.923594	ﻓﺴﺎدي	-0.08288879
-3.923594	ﻓﺴﺪ	-0.08376675
-3.923594	ﻓﺸﺎر	-0.08148274
-3.923594	ﻓﺸﺎرﻫﺎ	-0.08060164
-3.923594	ﻓﺸﺎرﻫﺎﯾﯽ	-0.08236206
-3.923594	ﻓﻌﺎل	-0.074044
-3.315376	ﻓﻌﺎﻟﯿﺖ	-0.07946235
-3.923594	ﻓﻌﺎﻟﻨﺪ	-0.08381854
-3.923594	ﻓﻌﺎﻻﻧﻪ	-0.08381854
-3.74332	ﻓﻘﺮا	-0.06771148
-3.923594	ﻓﻘﺮاي	-0.08381854
-3.923594	ﻓﻘﻂ	-0.08127144
-3.923594	ﻓﻠﺞ	-0.08373104
-3.923594	ﻓﻠﺴﻄﯿﻦ	-0.06424515
-3.923594	ﻓﻨﺎ	-0.0837919
-3.923594	ﻓﻬﻢ	-0.08271328
-3.923594	ﻓﻬﻤﯿﺪ	-0.06414231
-3.923594	ﻓﻬﻤﯿﺪه	-0.07302126
-3.74332	ﻓﻬﻤﯿﺪﻧﺪ	-0.07879862
-3.923594	ﻓﻬﻤﯿﻢ	-0.07377535
-3.315376	ﻓﻼن	-0.08114965
-3.923594	ﻓﻼﮐﺖ	-0.08381854
-3.923594	ﻓﻼﻧﯽ	-0.08370323
-3.414897	ﻗﯿﺎم	-0.1012918
-3.645313	ﻗﯿﺎﻣﯽ	-0.04841869
-3.414897	ﻗﺎﯾﻞ	-0.2369348
-3.923594	ﻗﺎﺿﯽ	-0.06985043
-3.923594	ﻗﺎﻣﺖ	-0.08320453
-3.315376	ﻗﺎﻧﻮﻧﯽ	-0.1203824
-3.923594	ﻗﺒﺮﺳﺘﺎن	-0.08106004
-3.493941	ﻗﺒﻞ	-0.06529708
-3.923594	ﻗﺒﻠﺶ	-0.0747411
-3.414897	ﻗﺪر	-0.185762
-2.979584	ﻗﺪرت	-0.1623572
-3.414897	ﻗﺪري	-0.06282981
-3.923594	ﻗﺪرﺗﯽ	-0.08123621
-3.923594	ﻗﺪم	-0.08001988
-3.923594	ﻗﺪﯾﻤﯽ	-0.08323959
-3.923594	ﻗﺪﻣﯽ	-0.2345936
-3.645313	ﻗﺮآن	-0.1474135
-3.923594	ﻗﺮار	-0.0828186
-3.923594	ﻗﺮن	-0.08327466
-3.923594	ﻗﺮﯾﺐ	-0.08355508
-3.74332	ﻗﺸﺮﻫﺎ	-0.06052927
-3.645313	ﻗﻀﯿﻪ	-0.08141991
-3.645313	ﻗﻄﻊ	-0.08232839
-3.645313	ﻗﻠﺐ	-0.06985195
-3.923594	ﻗﻠﺒﯽ	-0.06424515
-3.923594	ﻗﻠﺒﺶ	-0.07026688
-3.923594	ﻗﻠﺪري	-0.08229177
-3.923594	ﻗﻠﺪرﯾﻬﺎ	-0.08381854
-3.923594	ﻗﻠﺪرﻫﺎ	-0.08381854
-3.923594	ﻗﻠﻢ	-0.074044
-3.923594	ﻗﻠﻢ/	-0.0747411
-3.923594	ﻗﻠﻤﯽ	-0.08229177
-3.645313	ﻗﻢ	-0.08141911
-3.923594	ﻗﻮاي	-0.08381854
-3.645313	ﻗﻮاﻧﯿﻦ	-0.06941706
-3.923594	ﻗﻮت	-0.08377203
-3.74332	ﻗﻮل	-0.08248575
-3.923594	ﻗﻮه	-0.08091904
-3.923594	ﻗﻮي	-0.08381854
-2.838254	ﻟﮑﻦ	-0.06361667
-3.923594	ﻟﮕﺪ	-0.08123621
-3.923594	ﻟﯿﮑﻦ	-0.08381854
-3.923594	ﻟﺒﺎس	-0.08326625
-3.923594	ﻟﺒﻨﺎن	-0.08373104
-3.923594	ﻟﺤﺎظ	-0.08381854
-3.923594	ﻟﺴﺎﻣﻊ	-0.08381854
-3.923594	ﻟﺸﮑﺮ	-0.08381854
-3.923594	ﻟﻄﯿﻒ	-0.08381854
-3.923594	ﻟﻄﻤﻪ	-0.0820457
-3.923594	ﻟﻐﻮ	-0.0828537
-3.923594	ﻟﻘﻤﻪ	-0.08381854
-3.923594	ﻟﻨﮓ	-0.07409696
-3.74332	ﻟﻬﺬا	-0.08017887
-3.923594	ﻟﻮاي	-0.08172913
-3.923594	ﻟﻮزﺗﯿﻦ	-0.06424515
-3.923594	ﻟﻮﻃﯽ	-0.08106004
-3.923594	ﻟﻮﻟﻪ	-0.08239719
-3.923594	ﻣﮑﺘﺐ	-0.08106004
-3.74332	ﻣﮑﻠﻔﯿﺪ	-0.1696222
-3.315376	ﻣﮕﺮ	-0.07696902
-1.512602	ﻣﯽ	-0.4612542
-3.923594	ﻣﯿﻠﯿﺎرد	-0.0827835
-3.74332	ﻣﯿﻠﯿﻮن	-0.1896203
-3.923594	ﻣﺄﻣﻮر	-0.08243232
-3.923594	ﻣﺄﻣﻮرﯾﺖ	-0.08014276
-3.923594	ﻣﺆدب	-0.08381854
-3.923594	ﻣﺆﻣﻨﯿﻦ	-0.08063692
-1.906006	ﻣﺎ	-0.1040015
-3.923594	ﻣﺎ/	-0.08248576
-3.923594	ﻣﺎآزادي	-0.07032031
-3.923594	ﻣﺎدر	-0.08186986
-3.923594	ﻣﺎدري	-0.06424515
-3.74332	ﻣﺎده	-0.08307409
-3.923594	ﻣﺎدﯾﺎت	-0.0747411
-3.923594	ﻣﺎذﺋﺒﺎن	-0.08381854
-3.923594	ﻣﺎرك	-0.08344994
-3.414897	ﻣﺎل	-0.1080762
-3.923594	ﻣﺎن	-0.08222149
-3.315376	ﻣﺎه	-0.05076047
-3.923594	ﻣﺎوراءاﻟﻄﺒﯿﻌﻪ	-0.08381854
-3.923594	ﻣﺎوراءﻃﺒﯿﻌﺖ	-0.08091904
-3.923594	ﻣﺎﺑﯿﻦ	-0.08366019
-3.923594	ﻣﺎﺑﻌﺪ	-0.08330972
-3.74332	ﻣﺎﺑﻌﺪاﻟﻄﺒﯿﻌﻪ	-0.08164188
-3.923594	ﻣﺎﺑﻘﯽ	-0.08381854
-3.315376	ﻣﺎﺳﺖ	-0.07702851
-3.923594	ﻣﺎﻟﯿﺎت	-0.08381854
-3.923594	ﻣﺎﻣﻮر	-0.08243232
-3.645313	ﻣﺎﻣﻮرﯾﺖ	-0.06994986
-3.74332	ﻣﺎﻧﺪ	-0.04967976
-3.923594	ﻣﺎﻧﺪه	-0.0827835
-3.923594	ﻣﺎﻧﻊ	-0.08367924
-3.923594	ﻣﺎﻻﻧﺪه	-0.08172913
-3.923594	ﻣﺒﺎرزه	-0.08381854
-3.923594	ﻣﺒﺎرك	-0.08377203
-3.923594	ﻣﺒﺎرﮐﯽ	-0.07409696
-3.923594	ﻣﺒﺎرﮐﻪ	-0.08381854
-3.923594	ﻣﺒﺎﺣﺜﻪ	-0.08359012
-3.645313	ﻣﺒﺘﺬل	-0.05473392
-3.923594	ﻣﺒﺘﺬﻟﯿﻢ	-0.07844422
-3.923594	ﻣﺒﺘﻼﺳﺖ	-0.08370323
-3.923594	ﻣﺒﺪا	-0.08231009
-3.923594	ﻣﺒﻠﻐﯿﻦ	-0.08348499
-3.923594	ﻣﺒﻨﺎي	-0.08366019
-3.923594	ﻣﺘﺄذي	-0.08365142
-3.923594	ﻣﺘﺄﺳﻔﻢ	-0.08341489
-3.923594	ﻣﺘﺤﺮك	-0.08243232
-3.923594	ﻣﺘﺪﯾﻦ	-0.08325787
-3.923594	ﻣﺘﺮﻗﯽ	-0.08299407
-3.923594	ﻣﺘﺸﺘﺖ	-0.08348499
-3.923594	ﻣﺘﻌﺎل	-0.08377203
-3.923594	ﻣﺘﻔﻘﯿﻦ	-0.0837919
-3.74332	ﻣﺘﻦ	-0.0794189
-3.923594	ﻣﺘﻨﺎﻫﯽ	-0.08381854
-3.923594	ﻣﺘﻨﺒﻪ	-0.0837919
-3.923594	ﻣﺘﻮﺟﻪ	-0.08243232
-3.923594	ﻣﺘﻮﻟﺪ	-0.08381854
-2.814773	ﻣﺜﻞ	-0.1164059
-3.190437	ﻣﺜﻼ	-0.1148737
-3.923594	ﻣﺜﻼً	-0.07468822
-3.923594	ﻣﺠﺎزﻧﺪ	-0.08267818
-3.74332	ﻣﺠﺎﻟﺲ	-0.08360076
-3.923594	ﻣﺠﺎﻟﺴﯽ	-0.07409696
-3.923594	ﻣﺠﺎﻫﺪﯾﻦ	-0.08381854
-3.74332	ﻣﺠﻠﺲ	-0.06634726
-3.923594	ﻣﺠﻠﺴﯿﻦ	-0.08366019
-3.923594	ﻣﺠﻠﻪ	-0.08267818
-3.923594	ﻣﺠﻬﺰ	-0.08373104
-3.923594	ﻣﺤﯿﻂ	-0.08381854
-3.923594	ﻣﺤﺎل	-0.08158835
-3.923594	ﻣﺤﺒﺲ	-0.07032031
-3.923594	ﻣﺤﺘﺮم	-0.0825377
-3.923594	ﻣﺤﺘﺮﻣﺎﻧﻪ	-0.08381854
-3.923594	ﻣﺤﺪودﺗﺮي	-0.08344994
-3.493941	ﻣﺤﺴﻮﺳﯽ	-0.2365978
-3.923594	ﻣﺤﺼﻞ	-0.08376675
-3.923594	ﻣﺤﻔﻮظ	-0.08248576
-3.923594	ﻣﺤﻠﯽ	-0.06424515
-3.493941	ﻣﺤﻠﻪ	-0.2123323
-3.74332	ﻣﺤﻤﺪرﺿﺎ	-0.0727886
-3.923594	ﻣﺤﻤﺪرﺿﺎﺧﺎن	-0.07391787
-3.923594	ﻣﺤﻮل	-0.08172913
-3.923594	ﻣﺤﻼت	-0.08377203
-3.923594	ﻣﺨﯿﻠﻪ	-0.0837919
-3.923594	ﻣﺨﺎزﻧﺶ	-0.07391787
-3.923594	ﻣﺨﺎﻟﻔﺖ	-0.07947122
-3.923594	ﻣﺨﺎﻟﻔﺘﯽ	-0.08271328
-3.923594	ﻣﺨﺘﺼﺎت	-0.08366019
-3.923594	ﻣﺨﺘﻠﻔﻪ	-0.0837919
-3.923594	ﻣﺪارس	-0.08267818
-3.923594	ﻣﺪت	-0.08007212
-3.315376	ﻣﺪرﺳﻪ	-0.1299683
-3.923594	ﻣﺪﯾﺮ	-0.07006736
-3.923594	ﻣﺪﯾﻨﻪ	-0.07032031
-3.923594	ﻣﺪﻋﯽ	-0.07409696
-3.923594	ﻣﺬاﮐﺮات	-0.08373104
-3.923594	ﻣﺬاﻫﺐ	-0.08381854
-3.493941	ﻣﺬﻫﺐ	-0.1415569
-3.923594	ﻣﺮاﺗﺐ	-0.08381854
-3.923594	ﻣﺮاﺗﻌﺶ	-0.08306423
-3.74332	ﻣﺮاﺟﻌﻪ	-0.4081023
-3.923594	ﻣﺮد	-0.08300209
-3.923594	ﻣﺮدان	-0.08381854
-3.923594	ﻣﺮداﻧﻪ	-0.08320453
-2.646369	ﻣﺮدم	-0.04182705
-3.923594	ﻣﺮدم/	-0.08327466
-3.923594	ﻣﺮده	-0.08381854
-3.923594	ﻣﺮدﻣﯽ	-0.06424515
-3.923594	ﻣﺮدﻫﺎي	-0.08274839
-3.923594	ﻣﺮض	-0.08381854
-3.645313	ﻣﺮگ	-0.3106148
-3.923594	ﻣﺮﮐﺰ	-0.08257961
-3.923594	ﻣﺮﯾﻀﯽ	-0.0817995
-3.923594	ﻣﺮﺑﻮط	-0.07391787
-3.923594	ﻣﺮﺗﺐ	-0.07064531
-3.923594	ﻣﺮﺗﺒﻪ	-0.08381854
-3.923594	ﻣﺮﺟﻌﯽ	-0.08381854
-3.923594	ﻣﺮﺣﻮم	-0.0837919
-3.923594	ﻣﺮﺿﺶ	-0.08381854
-3.923594	ﻣﺮﻓﻪ	-0.08337983
-3.923594	ﻣﺮﻫﻮن	-0.08373104
-3.923594	ﻣﺰارع	-0.07391787
-3.923594	ﻣﺰاﯾﺎي	-0.08172913
-3.923594	ﻣﺰاﯾﺎﯾﯽ	-0.06424515
-3.923594	ﻣﺰاﺟﯽ	-0.08381854
-3.923594	ﻣﺰدﻣﺎن	-0.08337983
-3.923594	ﻣﺴﯿﺢ	-0.08266136
-3.923594	ﻣﺴﯿﺤﯿﯿﻦ	-0.08381854
-3.923594	ﻣﺴﺆوﻟﯿﺪ	-0.07064531
-3.190437	ﻣﺴﺎﯾﻞ	-0.1060668
-3.923594	ﻣﺴﺎﯾﻠﯽ	-0.07409696
-3.923594	ﻣﺴﺎﺋﻞ	-0.08236206
-3.923594	ﻣﺴﺎﻋﺪت	-0.08381854
-3.414897	ﻣﺴﺎﻟﻪ	-0.1106798
-3.923594	ﻣﺴﺎﻣﺤﻪ	-0.08211603
-3.923594	ﻣﺴﺒﺢ	-0.08381854
-3.923594	ﻣﺴﺘﺸﺎران	-0.08377203
-3.923594	ﻣﺴﺘﻀﻌﻒ	-0.07844422
-3.923594	ﻣﺴﺘﻔﯿﺪ	-0.08377203
-3.923594	ﻣﺴﺘﻘﯿﻢ	-0.08348499
-3.923594	ﻣﺴﺘﻘﻞ	-0.07409696
-3.923594	ﻣﺴﺘﻘﻠﯽ	-0.08373104
-3.923594	ﻣﺴﺘﻨﺪ	-0.07391787
-3.923594	ﻣﺴﺘﻮدع	-0.0817995
-3.923594	ﻣﺴﺠﺪ	-0.08360837
-3.923594	ﻣﺴﻠﻂ	-0.08381854
-3.645313	ﻣﺴﻠﻤﯿﻦ	-0.07284323
-3.923594	ﻣﺴﻠﻤﯿﻦ؟	-0.08377203
-3.923594	ﻣﺴﻨﺪ	-0.08377203
-3.923594	ﻣﺴﻮول	-0.08334478
-3.414897	ﻣﺴﻮوﻟﯿﺖ	-0.06856547
-3.923594	ﻣﺸﮑﻼﺗﯽ	-0.06424515
-3.923594	ﻣﺸﺎم	-0.08373104
-3.923594	ﻣﺸﺎﯾﻌﺘﯽ	-0.0747411
-3.923594	ﻣﺸﺎﺑﻪ	-0.08359012
-3.923594	ﻣﺸﺎﻫﺪات	-0.07844422
-3.923594	ﻣﺸﺖ	-0.08381854
-3.923594	ﻣﺸﺘﺶ	-0.08063692
-3.74332	ﻣﺸﻐﻮل	-0.07445656
-3.493941	ﻣﺼﯿﺒﺖ	-0.1312895
-3.923594	ﻣﺼﺎﺣﺒﻪ	-0.07003121
-3.923594	ﻣﺼﺎﻟﺢ	-0.07255431
-3.923594	ﻣﺼﺮف	-0.08381854
-3.923594	ﻣﻀﺎﯾﻘﻪ	-0.08271328
-3.923594	ﻣﻀﺮ	-0.08381854
-3.923594	ﻣﻄﯿﻊ	-0.08334478
-3.645313	ﻣﻄﺎﻟﺐ	-0.0818598
-3.923594	ﻣﻄﺎﻟﺒﯽ	-0.08370323
-3.923594	ﻣﻄﺎﻟﻌﻪ	-0.08352003
-3.923594	ﻣﻄﺒﻮﻋﺎت	-0.08123621
-2.814773	ﻣﻄﻠﺐ	-0.05447458
-3.923594	ﻣﻄﻠﺒﯽ	-0.0822398
-3.923594	ﻣﻄﻠﺒﺶ	-0.08007212
-3.923594	ﻣﻄﻠﻖ	-0.0837919
-3.923594	ﻣﻄﻤﺌﻦ	-0.08370323
-3.923594	ﻣﻈﻠﻮم	-0.08381854
-3.923594	ﻣﻊ	-0.254167
-3.923594	ﻣﻌﺎﺷﺮت	-0.08381854
-3.923594	ﻣﻌﺎﺻﯽ	-0.08062002
-3.923594	ﻣﻌﺎﻟﺠﻪ	-0.07032031
-3.923594	ﻣﻌﺪ	-0.08381854
-3.923594	ﻣﻌﺬﺑﯿﺪ	-0.08123621
-3.923594	ﻣﻌﺮض	-0.08381854
-3.923594	ﻣﻌﺮوف	-0.06424515
-3.923594	ﻣﻌﺼﯿﺘﯽ	-0.06909032
-3.923594	ﻣﻌﻠﻤﻬﺎي	-0.0828537
-3.923594	ﻣﻌﻠﻮم	-0.07388204
-3.923594	ﻣﻌﻤﻢ	-0.08377203
-3.093527	ﻣﻌﻨﺎ	-0.2198099
-3.923594	ﻣﻌﻨﺎﯾﯽ	-0.06424515
-3.923594	ﻣﻌﻨﻮﯾﺎﺗﯽ	-0.08348499
-3.923594	ﻣﻌﻮﺿﺶ	-0.0837919
-3.923594	ﻣﻔﯿﺪ	-0.08215118
-3.923594	ﻣﻔﺎﺳﺪ	-0.08381854
-3.493941	ﻣﻔﺘﻀﺢ	-0.1439019
-3.493941	ﻣﻔﺴﺪه	-0.08142222
-3.923594	ﻣﻘﺎﯾﺴﻪ	-0.08179107
-2.814773	ﻣﻘﺎﺑﻞ	-0.1821131
-3.923594	ﻣﻘﺎﺑﻠﺶ	-0.08274839
-3.923594	ﻣﻘﺎﺗﻠﻪ	-0.07032031
-3.74332	ﻣﻘﺪار	-0.08371495
-3.923594	ﻣﻘﺪارش	-0.0837919
-3.923594	ﻣﻘﺪاري	-0.06424515
-3.923594	ﻣﻘﺪس	-0.08302915
-3.923594	ﻣﻘﺪﺳﯽ	-0.08381854
-3.923594	ﻣﻘﺪﺳﻪ	-0.08381854
-3.923594	ﻣﻘﺪﻣﻨﺪ	-0.08323959
-3.923594	ﻣﻘﺪﻣﻪ	-0.08381854
-3.923594	ﻣﻘﺼﺪ	-0.08381854
-3.923594	ﻣﻠﮑﻮﺗﯽ	-0.0828186
-3.493941	ﻣﻠﯽ	-0.05981864
-2.287347	ﻣﻠﺖ	-0.1069253
-3.139284	ﻣﻠﺘﯽ	-0.09281055
-3.923594	ﻣﻠﺘﻔﺖ	-0.08381854
-3.923594	ﻣﻠﺘﻬﺎ	-0.0825377
-3.923594	ﻣﻠﺤﻮظ	-0.08337983
-3.923594	ﻣﻠﻞ	-0.08067219
-3.493941	ﻣﻤﮑﻦ	-0.1196069
-3.923594	ﻣﻤﺎﻟﮏ	-0.08222149
-3.923594	ﻣﻤﺎﻟﮑﯽ	-0.08288879
-2.525325	ﻣﻤﻠﮑﺖ	-0.1538395
-3.923594	ﻣﻤﻠﮑﺘﯽ	-0.08381854
-2.280613	ﻣﻦ	-0.03700887
-3.923594	ﻣﻨﯽ	-0.06424515
-3.923594	ﻣﻨﺎزل	-0.08320453
-3.645313	ﻣﻨﺎﺑﻊ	-0.1410118
-3.923594	ﻣﻨﺎﺑﻌﺸﺎن	-0.08381854
-3.923594	ﻣﻨﺎﻓﯽ	-0.08381854
-3.923594	ﻣﻨﺎﻓﻊ	-0.06970575
-3.74332	ﻣﻨﺒﺮ	-0.08207206
-3.923594	ﻣﻨﺘﻬﯽ	-0.0828186
-3.923594	ﻣﻨﺘﻬﺎ	-0.0747411
-3.139284	ﻣﻨﺤﺮف	-0.1142931
-3.923594	ﻣﻨﺤﻮس	-0.07064531
-3.923594	ﻣﻨﺰل	-0.0837401
-3.923594	ﻣﻨﺰوي	-0.0828537
-3.923594	ﻣﻨﺰﻟﻪ	-0.08377203
-3.923594	ﻣﻨﺸﺎ	-0.08377203
-3.923594	ﻣﻨﺼﺐ	-0.07409696
-3.923594	ﻣﻨﺼﻮب	-0.08330972
-3.190437	ﻣﻨﻄﻖ	-0.1028585
-3.923594	ﻣﻨﻄﻘﯽ	-0.08229177
-3.923594	ﻣﻨﻔﻌﺖ	-0.08359012
-3.923594	ﻣﻨﻘﻮل	-0.07409696
-3.923594	ﻣﻨﻢ	-0.08359012
-3.923594	ﻣﻬﺎﻟﮏ	-0.08381854
-3.74332	ﻣﻬﺬب	-0.06193105
-3.923594	ﻣﻬﺬﺑﯿﻦ	-0.0837919
-3.923594	ﻣﻬﻠﺖ	-0.08366019
-3.923594	ﻣﻮارد	-0.08381854
-3.923594	ﻣﻮاﺟﻪ	-0.08058474
-3.923594	ﻣﻮاﻇﺒﺖ	-0.08381854
-3.923594	ﻣﻮت	-0.07844422
-3.923594	ﻣﻮدب	-0.08381854
-3.923594	ﻣﻮرد	-0.08264386
-3.923594	ﻣﻮرﯾﺲ	-0.07391787
-3.923594	ﻣﻮﯾﺪ	-0.08370323
-3.923594	ﻣﻮﺟﯽ	-0.08295897
-3.923594	ﻣﻮﺟﺐ	-0.08376675
-3.645313	ﻣﻮﺟﻮد	-0.05863188
-3.093527	ﻣﻮﺟﻮدات	-0.143664
-3.923594	ﻣﻮﺟﻮداﺗﯽ	-0.2345936
-3.923594	ﻣﻮﺟﻮدﻧﺪ	-0.253553
-3.923594	ﻣﻮﻇﻔﯿﺪ	-0.08373104
-3.493941	ﻣﻮﻋﻈﻪ	-0.1391967
-3.923594	ﻣﻮﻓﻖ	-0.08381854
-3.923594	ﻣﻼ	-0.08356389
-3.923594	ﻣﻼ؟	-0.08377203
-3.923594	ﻣﻼﯾﻤﺘﺮﻧﺪ	-0.0747411
-3.014345	ﻣﻼﺣﻈﻪ	-0.3127305
-3.923594	ﻣﻼﻗﺎت	-0.0837919
-3.923594	ﻣﻼﻫﺎي	-0.0747411
-3.923594	ﻣﻼﻫﺎﯾﯽ	-0.08320453
-3.923594	ﻣﻼﻫﺎﺳﺖ	-0.0837919
-3.923594	ﻧﮑﺘﻪ	-0.08232692
-3.923594	ﻧﮑﺮد	-0.08295897
-3.923594	ﻧﮑﺮدم	-0.08352003
-3.923594	ﻧﮑﺮدن	-0.0827835
-3.923594	ﻧﮑﺮده	-0.2536582
-3.190437	ﻧﮑﻨﯿﺪ	-0.04254596
-3.923594	ﻧﮑﻨﺪ	-0.07386488
-3.923594	ﻧﮑﻨﻨﺪ	-0.08123621
-3.923594	ﻧﮕﯿﺮﯾﺪ	-0.0825377
-3.645313	ﻧﮕﺎه	-0.06840227
-3.923594	ﻧﮕﺬارد	-0.0833981
-3.645313	ﻧﮕﺬارﯾﺪ	-0.06135175
-3.74332	ﻧﮕﺬارﻧﺪ	-0.05017196
-3.923594	ﻧﮕﺬاﺷﺘﻪ	-0.07392606
-3.923594	ﻧﮕﻪ	-0.08381854
-3.923594	ﻧﮕﻮﯾﻢ	-0.08377203
-3.923594	ﻧﯿﺎورد	-0.08267818
-2.575013	ﻧﯿﺴﺖ	-0.1917995
-3.923594	ﻧﯿﺴﺘﯿﺪ	-0.06424515
-3.74332	ﻧﯿﺴﺘﻨﺪ	-0.08193176
-3.923594	ﻧﯿﻔﺘﻨﺪ	-0.07844422
-3.923594	ﻧﯿﻤﻪ	-0.08267818
-3.923594	ﻧﺎداﺷﺘﻪ	-0.08243232
-3.923594	ﻧﺎدر	-0.06424515
-3.923594	ﻧﺎر	-0.08007212
-3.74332	ﻧﺎراﺣﺖ	-0.3946307
-3.923594	ﻧﺎﭘﺎك	-0.08348499
-3.923594	ﻧﺎﭘﺎﮐﯽ	-0.08381854
-3.923594	ﻧﺎﭼﯿﺰي	-0.07409696
-3.923594	ﻧﺎﮔﻮار	-0.0822398
-3.923594	ﻧﺎﺣﯿﻪ	-0.08381854
-3.923594	ﻧﺎﺷﯽ	-0.07064531
-3.493941	ﻧﺒﺎﯾﺪ	-0.06240075
-3.923594	ﻧﺒﺎﺗﺎت	-0.08381854
-3.923594	ﻧﺒﺎﺷﯿﻢ	-0.08373104
-3.645313	ﻧﺒﺎﺷﺪ	-0.08324598
-3.923594	ﻧﺒﺎﺷﻨﺪ	-0.08377203
-3.315376	ﻧﺒﻮد	-0.099912
-3.74332	ﻧﺒﻮده	-0.3984073
-3.923594	ﻧﺒﻮدﯾﺪ	-0.07844422
-3.923594	ﻧﺒﻮدﯾﻢ	-0.08123621
-3.74332	ﻧﺘﯿﺠﻪ	-0.08330095
-3.923594	ﻧﺘﺎﯾﺠﯽ	-0.0837919
-3.923594	ﻧﺘﻮاﻧﯿﻢ	-0.2538685
-3.923594	ﻧﺘﻮاﻧﺪ	-0.08176432
-3.923594	ﻧﺘﻮاﻧﺴﺘﻨﺪ	-0.08343316
-3.923594	ﻧﺘﻮاﻧﺴﺘﻪ	-0.07392606
-3.923594	ﻧﺘﻮاﻧﻨﺪ	-0.08222149
-3.923594	ﻧﺠﺎت	-0.08360837
-3.315376	ﻧﺠﻒ	-0.06662686
-3.923594	ﻧﺠﻤﻪ	-0.08366019
-3.74332	ﻧﺤﻮي	-0.1598682
-3.923594	ﻧﺨﯿﺮ	-0.08299407
-3.923594	ﻧﺨﺴﺖ	-0.254167
-3.139284	ﻧﺨﻮاﺳﺘﻪ	-0.09400787
-3.923594	ﻧﺨﻮاﻫﻨﺪ	-0.0828186
-3.923594	ﻧﺪادﻧﺪ	-0.0837919
-2.838254	ﻧﺪارد	-0.1018559
-3.74332	ﻧﺪارم	-0.1700445
-3.923594	ﻧﺪارﯾﺪ	-0.08365142
-3.014345	ﻧﺪارﯾﻢ	-0.1755807
-3.923594	ﻧﺪارﯾﻢ؟	-0.08341489
-3.139284	ﻧﺪارﻧﺪ	-0.1446279
-3.923594	ﻧﺪاﺷﺘﯿﺪ	-0.08370323
-3.923594	ﻧﺪاﺷﺘﯿﻢ	-0.07816048
-3.923594	ﻧﺪاﺷﺘﻦ	-0.07409696
-3.923594	ﻧﺪاﺷﺘﻪ	-0.08144753
-3.923594	ﻧﺪاﻣﺖ	-0.07064531
-3.923594	ﻧﺪاﻧﯿﺪ	-0.06424515
-3.923594	ﻧﺪﻫﯿﺪ	-0.08243232
-3.923594	ﻧﺮﺳﯿﺪه	-0.0817995
-3.923594	ﻧﺰاع	-0.08007212
-3.923594	ﻧﺰد	-0.08186986
-3.923594	ﻧﺰدﯾﮑﺘﺮ	-0.07409696
-3.923594	ﻧﺴﺒﺖ	-0.2442663
-3.923594	ﻧﺴﻞ	-0.08346821
-3.923594	ﻧﺸﯿﻦ	-0.08106004
-3.923594	ﻧﺸﯿﻨﯽ	-0.08292389
-3.493941	ﻧﺸﺪ	-0.08155612
-3.923594	ﻧﺸﺪه	-0.07409696
-3.923594	ﻧﺸﺴﺖ	-0.08381854
-3.923594	ﻧﺸﻨﯿﺪه	-0.08377203
-3.493941	ﻧﺸﻮد	-0.03738469
-3.923594	ﻧﺼﯿﺐ	-0.07844422
-3.923594	ﻧﺼﯿﺤﺖ	-0.08341489
-3.923594	ﻧﻈﯿﺮ	-0.08373104
-3.923594	ﻧﻈﺎرت	-0.08346821
-3.139284	ﻧﻈﺎﻣﯽ	-0.08013727
-3.493941	ﻧﻈﺮ	-0.06746533
-3.923594	ﻧﻌﻮذ	-0.08381854
-3.923594	ﻧﻌﻮذﺑﺎﷲ	-0.08381854
-3.923594	ﻧﻔﯽ	-0.08239719
-2.979584	ﻧﻔﺖ	-0.05889992
-3.923594	ﻧﻔﺘﯽ	-0.06424515
-3.923594	ﻧﻔﺘﺶ	-0.05666951
-3.923594	ﻧﻔﺘﻤﺎن	-0.07032031
-2.889407	ﻧﻔﺮ	-0.1114844
-3.923594	ﻧﻔﺮي	-0.08381854
-3.923594	ﻧﻔﺮﯾﻦ	-0.2540517
-3.093527	ﻧﻔﺲ	-0.05014228
-3.923594	ﻧﻔﺴﺎﻧﯽ	-0.07409696
-3.923594	ﻧﻔﺴﻤﺎن	-0.08377203
-3.493941	ﻧﻔﻊ	-0.1359356
-3.923594	ﻧﻘﺸﻪ	-0.08322281
-3.493941	ﻧﻘﻄﻪ	-0.2349403
-3.923594	ﻧﻘﻞ	-0.07409696
-2.308197	ﻧﻤﯽ	-0.2376495
-3.923594	ﻧﻤﺎﯾﻨﺪ	-0.08373104
-3.923594	ﻧﻤﻮﻧﻪ	-0.08381854
-3.923594	ﻧﻨﻮﯾﺴﻨﺪ	-0.0837919
-2.751104	ﻧﻪ	-0.1326517
-3.923594	ﻧﻬﯽ	-0.08360837
-3.414897	ﻧﻬﻀﺖ	-0.06911001
-3.923594	ﻧﻬﻀﺘﯽ	-0.08229177
-3.493941	ﻧﻮر	-0.1135239
-3.923594	ﻧﻮراﻧﯽ	-0.08172913
-3.923594	ﻧﻮرش	-0.07064531
-3.923594	ﻧﻮﮐﺮي	-0.07026688
-3.74332	ﻧﻮﺷﺘﻪ	-0.06963339
-3.923594	ﻫﯽ	-0.0837401
-2.771307	ﻫﯿﭻ	-0.1000858
-3.923594	ﻫﯿﭽﯽ	-0.08355508
-3.923594	ﻫﯿﮑﻠﺶ	-0.08274839
-3.923594	ﻫﯿﺎت	-0.06419097
-3.923594	ﻫﯿﺎﻫﻮ	-0.0837919
-2.190437	ﻫﺎ	-0.0686938
-3.923594	ﻫﺎرون	-0.08376675
-2.470278	ﻫﺎي	-0.0843934
-2.917435	ﻫﺎﯾﯽ	-0.6256207
-3.923594	ﻫﺎﯾﺘﺎن	-0.08091904
-3.74332	ﻫﺎﯾﺶ	-0.07977251
-3.74332	ﻫﺎﯾﺸﺎن	-0.07793055
-3.923594	ﻫﺎﺳﺖ	-0.2345936
-3.923594	ﻫﺎﺷﺎن	-0.0837919
-3.923594	ﻫﺬا	-0.2519368
-2.460058	ﻫﺮ	-0.10776
-3.923594	ﻫﺮزه	-0.08106004
-3.923594	ﻫﺮﺟﺎ	-0.08377203
-2.838254	ﻫﺰار	-0.1403737
-3.923594	ﻫﺰارﻫﺎ	-0.08330972
-2.588377	ﻫﺴﺖ	-0.04577305
-3.923594	ﻫﺴﺖ؟	-0.08381854
-3.923594	ﻫﺴﺘﯽ	-0.0747411
-2.917435	ﻫﺴﺘﯿﺪ	-0.1398634
-3.923594	ﻫﺴﺘﯿﺪ؟	-0.08348499
-3.139284	ﻫﺴﺘﯿﻢ	-0.0886113
-3.74332	ﻫﺴﺘﯿﻢ؟	-0.08222148
-3.493941	ﻫﺴﺘﻢ	-0.08018569
-3.923594	ﻫﺴﺘﻢ؟	-0.08158835
-2.646369	ﻫﺴﺘﻨﺪ	-0.1076258
-3.923594	ﻫﺸﯿﺎر	-0.08158835
-3.923594	ﻫﺸﯿﺎري	-0.08053108
-3.923594	ﻫﺸﯿﺎرﻧﺪ	-0.08323959
-3.74332	ﻫﺸﺖ	-0.08247423
-3.74332	ﻫﻔﺖ	-0.4081023
-2.060103	ﻫﻢ	-0.09111589
-3.923594	ﻫﻢ/	-0.07391787
-3.923594	ﻫﻢ؟	-0.0837919
-3.923594	ﻫﻤﭽﻨﯿﻦ	-0.08377203
-3.139284	ﻫﻤﭽﻮ	-0.05092929
-3.923594	ﻫﻤﮕﺎﻧﯽ	-0.08162355
-3.645313	ﻫﻤﯿﺸﻪ	-0.05390368
-2.792497	ﻫﻤﯿﻦ	-0.1841217
-3.923594	ﻫﻤﯿﻨﻄﻮر	-0.08243232
-2.917435	ﻫﻤﺎن	-0.06060984
-3.923594	ﻫﻤﺠﻨﺲ	-0.08381854
-3.923594	ﻫﻤﺪردي	-0.08355508
-3.923594	ﻫﻤﺮاه	-0.07064531
-3.923594	ﻫﻤﺮاﻫﯽ	-0.08366019
-3.923594	ﻫﻤﺴﺮ	-0.08353829
-2.115803	ﻫﻤﻪ	-0.1090943
-3.923594	ﻫﻮاداران	-0.08243232
-3.923594	ﻫﻮاي	-0.08316946
-3.923594	ﻫﻮاﭘﯿﻤﺎﯾﯽ	-0.08381854
-3.923594	ﻫﻮاﭘﯿﻤﺎﻫﺎ	-0.08176432
-3.923594	ﻫﻮاﻫﺎي	-0.08320453
-3.923594	ﻫﻮﺷﯿﺎر	-0.08243232
-3.74332	ﻻاﻗﻞ	-0.08276748
-3.74332	ﻻزم	-0.07324482
-3.923594	ﻻﺗﻔﻘﻬﻮن	-0.08381854

\2-grams:
-0.7554365	.. ﻏﻨﻢ
-2.594285	... ...
-2.594285	... آﻣﺪه
-2.594285	... آﻧﻮﻗﺖ
-2.594285	... اﮔﺮ
-2.594285	... اﯾﺮان
-1.319407	... اﯾﻦ
-2.594285	... اﺣﺘﺮام
-2.594285	... اﺳﺖ
-2.594285	... اﻋﺘﺼﺎب
-2.594285	... اﻟﺒﺘﻪ
-2.594285	... داﺷﺘﻪ
-2.594285	... دروغ
-2.594285	... دﯾﮕﺮي
-2.594285	... رادﯾﻮﻫﺎي
-2.594285	... واﻟﺴﻼم
-2.594285	... وﺳﻮﺳﻪ
-1.891322	... وﻗﺘﯽ
-2.594285	... ﭘﯿﺪا
-2.594285	... ﭼﯽ
-2.594285	... ﭼﺮاﻏﺎن
-2.594285	... ﭼﻨﺪ
-2.594285	... ﮐﺸﺘﻪ
-2.594285	... ﮐﻢ
-2.594285	... ﮐﻪ
-1.526435	... ﯾﮏ
-2.594285	... ﺑﯿﺮق
-2.594285	... ﺑﯿﻦ
-2.594285	... ﺑﺎزار
-2.594285	... ﺑﺒﯿﻨﯿﺪ
-2.594285	... ﺑﺪﻫﺪ
-1.576881	... ﺑﻪ
-2.594285	... ﺗﻤﺎم
-2.594285	... ﺗﻮﻟﺪ
-2.594285	... ﺧﻮدش
-2.594285	... ﺧﻮﻧﺮﯾﺰي
-2.594285	... ﺷﺪه
-2.594285	... ﺷﻌﺎري
-2.594285	... ﺻﺪ
-2.594285	... ﻋﺎدﺗﺶ
-2.594285	... ﻓﺮﺿﺎً
-2.594285	... ﻓﻘﺮاي
-2.594285	... ﻗﻀﯿﻪ
-2.594285	... ﻟﮑﻦ
-1.891322	... ﻣﯽ
-2.594285	... ﻣﺎ
-2.594285	... ﻣﺮدم
-2.594285	... ﻣﺴﺎﻟﻪ
-2.594285	... ﻣﻄﻠﺐ
-2.594285	... ﻣﻌﻨﺎ
-1.891322	... ﻣﻠﺖ
-1.891322	... ﻣﻦ
-2.594285	... ﻧﺴﺒﺖ
-2.594285	... ﻧﻤﯽ
-1.891322	... ﻫﺮ
-2.594285	... ﻫﻤﯿﻦ
-0.7554365	.آﺧﺮ اﯾﻦ
-0.7554365	.اي آﻗﺎ
-0.7554365	.اﮔﺮ اﻋﺘﻘﺎد
-0.7554365	.اﯾﻨﮑﻪ ﻣﺎ
-0.7554365	.اﯾﻨﻬﺎ اﺳﺖ
-0.7554365	.اﺳﻼم ﻋﺰﯾﺰ
-0.7554365	.اﺻﻄﻼﺣﺎت اﺛﺮي
-0.7554365	.اﻟﺒﺘﻪ آﻧﻬﺎ
-0.7554365	.اﻻن اﻋﺘﺼﺎب
-0.7554365	.ﺑﺎ اﯾﻦ
-0.7554365	.ﺗﻤﺎم ﻋﺎﻟﻢ
-0.7554365	.ﺧﺪاي ﺗﺒﺎرك
-0.7554365	.ﺳﺮ دﻧﯿﺎ
-0.7554365	.ﺷﻤﺎ ﻣﯽ
-0.7554365	.ﻣﻦ ﺧﺪاي
-0.7554365	.ﻧﮕﺬارﯾﺪ اﯾﻦ
-0.7554365	/در/ ﺟﻨﺖ
-0.7554365	/ﮐﺸﻮر/ دﯾﮕﺮ
-0.7554365	/ﺑﺎ/ وﻗﺘﯽ
-0.7554365	/ﺑﺮاي اﯾﻨﮑﻪ
-0.7554365	/ﺗﺤﺖ ﻧﻈﺎرت
-0.7554365	13 چهارده
-0.7554365	<s> اﻋﻮذ
-1.056466	UNK ارجمندند؛
-1.056466	UNK تاریخ
-0.7554365	UNKی می‌پذیرد
-0.7554365	ء اﻻ
-1.056466	آئیم زنیم
-1.056466	آئیم سراغ
-1.658527	آب اﺳﺘﻔﺎده
-1.658527	آب اﻧﺒﺎر
-1.658527	آب ﺑﯿﺎورﻧﺪ
-1.658527	آب ﺑﺎﯾﺪ
-1.658527	آب ﻧﺪارد
-0.9555632	آب ﻧﺪارﻧﺪ
-1.658527	آب ﻫﺴﺖ
-0.7554365	آبرو دادیم
-1.232558	آبروی را
-1.232558	آبروی ملت
-1.232558	آبروی کشورشان
-1.056466	آداب دﯾﺪ
-1.056466	آداب دﯾﻨﯽ
-0.7554365	آداﺑﯽ ﻋﻬﺪه
-0.7554365	آداﺑﺶ را
-1.256593	آدم آدم
-1.959556	آدم امر
-1.959556	آدم اﺳﺖ
-1.959556	آدم حوزه
-1.959556	آدم قانونی
-1.959556	آدم مجلس
-1.959556	آدم واسطه
-1.959556	آدم کارها
-1.959556	آدم ﮐﻪ
-1.959556	آدم ﺷﺪن
-1.959556	آدم ﻋﺎﻟﻤﯽ
-1.959556	آدم ﻋﻄﺎري
-1.959556	آدم ﻣﯽ
-1.959556	آدم ﻣﺮض
-1.959556	آدم ﻫﺮ
-0.7554365	آدمی ملت
-1.056466	آدﻣﯽ ﮐﻪ
-1.056466	آدﻣﯽ ﻫﺴﺘﻢ
-0.7554365	آدﻣﻬﺎ ﺳﺎﻗﻂ
-0.7554365	آرامش گرفتاریهایی
-1.056466	آراي ﻣﺘﺸﺘﺖ
-1.056466	آراي ﻣﻠﺖ
-1.056466	آرای مردم
-1.056466	آرای ملت
-0.3535033	آرزوي ﻧﻔﺴﺎﻧﯽ
-1.056466	آزاد کار
-1.056466	آزاد ﺑﺎﺷﯿﻢ
-1.006716	آزادي اﯾﻦ
-1.709679	آزادي اﺳﺘﻘﻼل
-1.709679	آزادي ﮐﺸﺘﺎرﻫﺎﯾﯽ
-0.6922746	آزادي ﮐﻪ
-1.709679	آزادي ﺧﻮب
-1.709679	آزادي ﻫﻤﻪ
-0.7554365	آزادی پنجاه
-0.7554365	آسیبی دید
-1.232558	آغوش UNKی
-1.232558	آغوش ملت
-1.232558	آغوش کرده‌اند
-1.056466	آقامحمدخان قجر
-1.056466	آقامحمدخان نکرده
-1.709679	آمریکا آمریکا
-1.709679	آمریکا اجنبی
-1.709679	آمریکا برود
-1.709679	آمریکا دادند
-1.709679	آمریکا عوض
-1.709679	آمریکا مرد
-1.709679	آمریکا نفت
-1.709679	آمریکا وادار
-1.709679	آمریکا پشتیبانی
-0.7554365	آمریکاست کارهائی
-0.7554365	آن ﺣﺎﻻ
-0.7554365	آنها اشخاصی
-1.232558	آنهائی اصفهان
-1.232558	آنهائی سن
-1.232558	آنهائی مجلس
-1.056466	آنوقت حقی
-1.056466	آنوقت موسسان
-0.7554365	آنوقتی ساقط
-0.7554365	آه ﻫﻢ
-1.056466	آوارﮔﺎن ﺑﯽ
-1.056466	آوارﮔﺎن ﺟﻨﮕﺰدﮔﺎن
-0.7554365	آوردﯾﻢ ﺑﻪ
-0.7554365	آورند خیابان
-0.7554365	آوري ﺧﯿﺎﻧﺖ
-0.7554365	آوري؟ اﮔﺮ
-0.7554365	آورﯾﺪ ﺑﻪ
-1.232558	آورﻧﺪ ارﺿﯽ
-1.232558	آورﻧﺪ ﻣﯽ
-1.232558	آورﻧﺪ ﻫﺮ
-0.7554365	آ‌ن‌وقتی صدای
-0.7554365	آﯾﯿﺪ اﯾﻨﺠﺎ
-0.7554365	آﯾﺎ ﻻزم
-1.232558	آﯾﺪ ﮐﻪ
-1.232558	آﯾﺪ ﺑﺎزارﻫﺎ
-1.232558	آﯾﺪ ﺑﺮاي
-0.7554365	آﯾﻨﺪ ﮐﻪ
-0.7554365	آﯾﻨﺪه ﻣﺎ
-0.7554365	آﯾﻪ ﺷﺮﯾﻔﻪ
-0.3400921	آﺑﺎد ﮐﻨﯿﺪ
-1.357497	آﺑﺎد ﺑﺸﻮد
-0.7554365	آﺑﺎن ﯾﮏ
-1.056466	آﺑﺮوي ﺗﻨﻬﺎ
-1.056466	آﺑﺮوي ﻣﯽ
-0.7554365	آﺑﺮوﯾﯽ ﺟﺎﻣﻌﻪ
-1.755437	آﺗﯿﻪ آﺗﯿﻪ
-0.7380321	آﺗﯿﻪ اﺳﻼم
-1.755437	آﺗﯿﻪ ﺑﺎﻗﯽ
-1.755437	آﺗﯿﻪ ﺑﺪي
-1.052473	آﺗﯿﻪ ﺷﻤﺎ
-1.755437	آﺗﯿﻪ ﻣﺎن
-1.755437	آﺗﯿﻪ ﻣﺎﺳﺖ
-1.454406	آﺗﺶ اﯾﻦ
-1.454406	آﺗﺶ اﺳﺖ
-1.454406	آﺗﺶ ﮐﺸﯿﺪه
-1.454406	آﺗﺶ ﺣﻮزه
-1.454406	آﺗﺶ ﻣﯽ
-1.658527	آﺧﺮ اﻣﺮ
-1.658527	آﺧﺮ ﭘﻨﺠﺎه
-1.658527	آﺧﺮ ﭼﺮا
-1.658527	آﺧﺮ ﭼﻪ
-1.658527	آﺧﺮ ﻋﻤﺮ
-1.658527	آﺧﺮ ﻣﺤﻔﻮظ
-1.658527	آﺧﺮ ﻧﻬﻀﺖ
-1.658527	آﺧﺮ ﻫﺴﺘﯿﻢ
-1.357497	آﺧﺮت واﻗﻊ
-1.357497	آﺧﺮت ﭼﯿﺰﻫﺎﯾﯽ
-1.357497	آﺧﺮت ﺟﺎﻣﻌﻪ
-1.357497	آﺧﺮت ﻋﻤﻠﻤﺎن
-1.056466	آﺧﺮش ﯾﮏ
-1.056466	آﺧﺮش ﺗﻘﺎﺿﺎي
-0.7554365	آﺧﺮﯾﻦ ﻧﻔﺲ
-1.232558	آﺧﻮﻧﺪ آﻧﺠﺎ
-1.232558	آﺧﻮﻧﺪ ﺗﺠﺰﯾﻪ
-1.232558	آﺧﻮﻧﺪ ﻃﺎﯾﻔﻪ
-0.7554365	آﺧﻮﻧﺪزاده آﻣﺪم
-0.7554365	آﺧﻮﻧﺪي ﯾ
-1.056466	آﺧﻮﻧﺪﻫﺎ ﮐﺬا
-1.056466	آﺧﻮﻧﺪﻫﺎ ﺟﻮرﻧﺪ
-0.7554365	آﺷﯿﺦ ﻣﺤﺎل
-0.7554365	آﺷﻔﺘﮕﯽ ﻫﺎ
-0.7554365	آﺷﻨﺎ ﻫﺴﺘﯿﺪ
-0.7554365	آﺷﻨﺎﺳﺖ روﺣﺎﻧﯿﺖ
-0.7554365	آﺷﻮﺑﯽ ﺣﻮزه
-1.86938	آﻗﺎ اﯾﻦ
-1.86938	آﻗﺎ اﺧﻼﻗﺘﺎن
-1.86938	آﻗﺎ اﻫﻞ
-1.86938	آﻗﺎ ﭼﻪ
-1.86938	آﻗﺎ ﮔﻔﺘﻪ
-1.86938	آﻗﺎ ﯾﮏ
-1.86938	آﻗﺎ ﺑﻪ
-1.86938	آﻗﺎ ﺳﯿﺎﺳﯽ
-0.8519754	آﻗﺎ ﺷﻤﺎ
-1.86938	آﻗﺎ ﻣﻦ
-1.86938	آﻗﺎ ﻫﻮاﻫﺎي
-1.232558	آﻗﺎي آﺷﯿﺦ
-1.232558	آﻗﺎي ﮐﺎرﺗﺮ
-1.232558	آﻗﺎي ﺷﺎﻫﺶ
-1.600535	آﻗﺎﯾﺎن اﮔﺮ
-1.600535	آﻗﺎﯾﺎن اﯾﻦ
-1.600535	آﻗﺎﯾﺎن ﭘﻮل
-0.8975713	آﻗﺎﯾﺎن ﮐﻪ
-1.600535	آﻗﺎﯾﺎن ﮔﻔﺘﻪ
-1.600535	آﻗﺎﯾﺎن ﺧﯿﻠﯽ
-0.7554365	آﻣﺎل آرزوي
-1.658527	آﻣﺪ ﮐﺮد
-1.658527	آﻣﺪ ﮐﻪ
-1.658527	آﻣﺪ ﯾﮏ
-1.658527	آﻣﺪ ﺟﻠﻮس
-1.658527	آﻣﺪ ﺳﺮﺗﺎﺳﺮ
-1.658527	آﻣﺪ ﺳﻨﺪي
-1.658527	آﻣﺪ ﻋﻠﻤﺎ
-1.658527	آﻣﺪ ﻧﻤﯽ
-1.056466	آﻣﺪم دﯾﺪ
-1.056466	آﻣﺪم ﻧﻪ
-0.5831301	آﻣﺪه اﺳﺖ
-0.5831301	آﻣﺪه اﻧﺪ
-1.600535	آﻣﺪه ﻧﻤﯽ
-1.056466	آﻣﺪﻧﺪ اﯾﻦ
-1.056466	آﻣﺪﻧﺪ ﺑﺎب
-1.600535	آﻣﺮﯾﮑﺎ اﻧﮕﻠﺴﺘﺎن
-1.600535	آﻣﺮﯾﮑﺎ ﭼﯿﺰﻫﺎﯾﯽ
-1.600535	آﻣﺮﯾﮑﺎ ﮐﻪ
-0.8975713	آﻣﺮﯾﮑﺎ ﯾﺎ
-1.600535	آﻣﺮﯾﮑﺎ ﺑﺎﯾﺪ
-1.600535	آﻣﺮﯾﮑﺎ ﻗﺪرت
-1.357497	آﻣﺮﯾﮑﺎﯾﯽ ...
-1.357497	آﻣﺮﯾﮑﺎﯾﯽ ﺑﺮاي
-0.6545333	آﻣﺮﯾﮑﺎﯾﯽ ﻫﺎ
-1.232558	آﻧﭽﻪ اﺳﺖ
-1.232558	آﻧﭽﻪ دﻫﻠﯽ
-1.232558	آﻧﭽﻪ ﺑﺎﯾﺪ
-1.232558	آﻧﮑﻪ ﺑﺮاي
-1.232558	آﻧﮑﻪ ﺗﮑﻠﯿﻒ
-1.232558	آﻧﮑﻪ ﻇﻞ
-0.3535033	آﻧﯽ ﮐﻪ
-0.7554365	آﻧﺎن ﻣﺪرﺳﻪ
-1.796829	آﻧﺠﺎ ادراك
-1.796829	آﻧﺠﺎ رﯾﺎ
-1.796829	آﻧﺠﺎ رﺳﯿﺪه
-1.796829	آﻧﺠﺎ ﭼﻨﺪ
-1.796829	آﻧﺠﺎ ﮐﻮچ
-1.796829	آﻧﺠﺎ ﯾﮏ
-1.796829	آﻧﺠﺎ ﺑﻤﺎﻧﻨﺪ
-1.796829	آﻧﺠﺎ ﺟﻤﻊ
-1.796829	آﻧﺠﺎ ﻣﺘﺄذي
-1.796829	آﻧﺠﺎ ﻣﺸﺎم
-1.796829	آﻧﺠﺎ ﻫﻢ
-0.2151534	آﻧﺠﺎﯾﯽ ﮐﻪ
-0.7554365	آﻧﺠﺎﻫﺎي ﺧﻮد
-2.36822	آﻧﻬﺎ آدم
-2.36822	آﻧﻬﺎ اﯾﻦ
-2.36822	آﻧﻬﺎ داﺷﺘﻨﺪ
-2.36822	آﻧﻬﺎ درﺻﺪ
-2.36822	آﻧﻬﺎ دﯾﮕﺮ
-2.36822	آﻧﻬﺎ رد
-1.665257	آﻧﻬﺎ وارد
-2.36822	آﻧﻬﺎ وﻗﺘﯽ
-2.36822	آﻧﻬﺎ ﭘﺸﺘﯿﺒﺎﻧﯽ
-2.36822	آﻧﻬﺎ ﺑﮑﻨﺪ
-2.36822	آﻧﻬﺎ ﺑﮕﻮﯾﻨﺪ
-1.665257	آﻧﻬﺎ ﺑﺎ
-2.36822	آﻧﻬﺎ ﺑﺎز
-2.36822	آﻧﻬﺎ ﺑﺪﻫﺪ
-2.36822	آﻧﻬﺎ ﺑﺮ
-2.36822	آﻧﻬﺎ ﺑﺮاي
-2.36822	آﻧﻬﺎ ﺑﻨﻮﯾﺴﻨﺪ
-1.665257	آﻧﻬﺎ ﺑﻪ
-2.36822	آﻧﻬﺎ ﺗﺸﮑﺮ
-2.36822	آﻧﻬﺎ ﺣﺐ
-2.36822	آﻧﻬﺎ ﺧﺮاب
-2.36822	آﻧﻬﺎ ﺧﻮاﺳﺘﺎر
-1.665257	آﻧﻬﺎ ﺷﻤﺎ
-1.665257	آﻧﻬﺎ ﺻﻼح
-2.36822	آﻧﻬﺎ ﻋﺰﯾﺰ
-2.36822	آﻧﻬﺎ ﻗﺎﻧﻮﻧﯽ
-1.350816	آﻧﻬﺎ ﻣﯽ
-2.36822	آﻧﻬﺎ ﻧﺪاﺷﺘﻪ
-2.36822	آﻧﻬﺎ ﻧﻪ
-2.36822	آﻧﻬﺎ ﻫﺴﺖ
-2.36822	آﻧﻬﺎ ﻫﺴﺘﻨﺪ
-1.350816	آﻧﻬﺎ ﻫﻢ
-1.755437	آﻧﻬﺎﯾﯽ دﻋﻮت
-0.1718111	آﻧﻬﺎﯾﯽ ﮐﻪ
-1.755437	آﻧﻬﺎﯾﯽ ﺣﻮزه
-1.755437	آﻧﻬﺎﯾﯽ ﻋﻤﻞ
-1.454406	آﻧﻬﺎﺳﺖ ﮐﻪ
-1.454406	آﻧﻬﺎﺳﺖ ﺗﻤﺎم
-1.454406	آﻧﻬﺎﺳﺖ ﻟﻬﺬا
-1.454406	آﻧﻬﺎﺳﺖ ﻣﺴﻮوﻟﯿﺖ
-1.454406	آﻧﻬﺎﺳﺖ ﻫﻤﻪ
-1.232558	آﻧﻮﻗﺖ ذﻫﻨﻢ
-1.232558	آﻧﻮﻗﺖ ﭘﻮل
-1.232558	آﻧﻮﻗﺖ ﻫﺮ
-0.7554365	إِلَیْهِ راجِعُونَ
-0.7554365	إِنا للَّهِ
-0.7554365	ابن ملجم
-1.232558	ابی اسلام
-1.232558	ابی سلام
-1.232558	ابی طالب-
-0.7554365	اجازه باشد
-0.7554365	اجانب نگه
-0.7554365	اجداد رای
-0.7554365	اجر عنایت
-1.056466	اجنبی باشد
-1.056466	اجنبی گوئیم
-0.7554365	احمدشاه آقامحمدخان
-0.7554365	احکام قرآن
-1.232558	اختناق اختناق
-1.232558	اختناق باقی
-1.232558	اختناق کام
-0.7554365	اختناقی باقی
-1.056466	اختیار تاسیس
-1.056466	اختیار موسسان
-0.7554365	اخیر صدها
-0.7554365	ادا ﻧﮑﻨﯿﺪ
-0.9141234	اداره اﻣﻮر
-1.228565	اداره ﮐﻨﯿﺪ
-1.228565	اداره ﮐﻨﺪ
-1.931528	اداره ﺑﮑﻨﯿﺪ
-1.228565	اداره ﺑﮑﻨﺪ
-0.863677	اداره ﻣﯽ
-1.931528	اداره ﻣﻤﻠﮑﺖ
-0.7554365	اداري ﮐﺬا
-1.232558	ادامه اختناق
-1.232558	ادامه بدهند
-1.232558	ادامه بدهیم
-0.7554365	اداﻣﻪ ﺑﺪﻫﯿﺪ
-1.056466	ادراك ﺟﻬﻨﻢ
-1.056466	ادراك ﺷﻢ
-0.7554365	ادراک آنوقت
-0.7554365	ادعا ملت
-0.3535033	ادﻋﺎ ﻣﯽ
-0.7554365	اذا ﻓﺴﺪ
-0.7554365	اذن ﻣﯽ
-0.7554365	اذﯾﺖ ﻣﯽ
-1.357497	اراده اﷲ
-1.357497	اراده ﺗﻌﺎﻟﯽ
-1.357497	اراده ﺣﻖ
-1.357497	اراده ﻫﺴﺘﯿﻢ
-0.7554365	اراﺿﯽ ﺟﻨﻮب
-1.709679	ارتش تشکر
-1.709679	ارتش دستور
-1.709679	ارتش قبولش
-1.709679	ارتش قشرهائی
-1.709679	ارتش مستشارهای
-0.6922746	ارتش مستقل
-1.709679	ارتش نصحیتی
-1.056466	ارج زﯾﺎد
-1.056466	ارج ﻗﺎﯾﻞ
-0.7554365	ارجمند هستند
-0.7554365	ارجمندند؛ رجایی
-0.7554365	ارز ﺑﮕﯿﺮﯾﻢ
-0.3535033	ارزش داﺷﺘﻪ
-0.7554365	ارزشمند هستند
-0.7554365	ارزنده‌ای ملت
-0.7554365	ارزﺷﺪاري اﺳﺖ
-0.7554365	ارزﻧﺪه ﺧﯿﻠﯽ
-1.232558	ارضی طولانی
-1.232558	ارضی لطمه
-1.232558	ارضی کردند
-0.7554365	اروپا پایش
-1.056466	اروﭘﺎ دﻓﻌﻪ
-1.056466	اروﭘﺎ ﮐﺎرﺷﻨﺎس
-0.7554365	ارکان ارتش
-0.7554365	ارﺗﮑﺎب ﯾﮏ
-0.7554365	ارﺗﺠﺎع ﺗﻌﺒﯿﺮ
-0.7554365	ارﺗﺶ اﻧﮕﻞ
-0.7554365	ارﺗﺸﯽ ﮐﻪ
-0.7554365	ارﺟﻤﻨﺪ ﻫﺴﺘﯿﺪ
-0.7554365	ارﺷﺎد واﺳﻄﻪ
-1.357497	ارﺿﯽ آﻗﺎ
-1.357497	ارﺿﯽ آﻧﺠﺎ
-1.357497	ارﺿﯽ اﺻﻼﺣﺎت
-1.357497	ارﺿﯽ ﮐﻪ
-0.7554365	از/ اﯾﻦ/
-0.7554365	ازاﯾﺶ ﭘﺎﯾﮕﺎه
-0.7554365	ازدواج زﻣﺎن
-0.7554365	اسباب فرض
-2.135648	است احکام
-2.135648	است تعیین
-2.135648	است حفظ
-2.135648	است دستشان
-2.135648	است دلش
-2.135648	است دولتی
-2.135648	است رفتن
-2.135648	است سال
-2.135648	است سرتاسر
-2.135648	است علاوه
-2.135648	است فرهنگ
-2.135648	است قانونی
-2.135648	است قیام
-2.135648	است متکی
-2.135648	است مراکز
-2.135648	است مسائل
-1.118243	است ملت
-2.135648	است می‌دانم
-2.135648	است نیمه
-2.135648	است وکلا
-2.135648	است وکلائی
-2.135648	است پنجاه
-0.7554365	است؛ رای
-0.7554365	است‌ دنیا
-0.7554365	اسرائیل دست
-2.010709	اسلام است
-2.010709	اسلام اسلام
-2.010709	اسلام امام
-2.010709	اسلام ایمان
-2.010709	اسلام بود
-2.010709	اسلام بودند
-2.010709	اسلام تروریست‌هاست
-2.010709	اسلام حفظ
-2.010709	اسلام داریم
-2.010709	اسلام دست
-2.010709	اسلام رفتن
-2.010709	اسلام شهید
-2.010709	اسلام صدر
-2.010709	اسلام عالیتر
-2.010709	اسلام فدا
-2.010709	اسلام قیام
-2.010709	اسلام مخالف
-2.010709	اسلام پیشوایان
-1.600535	اسلامی آسیبی
-0.8975713	اسلامی اسلام
-1.600535	اسلامی بانگ
-1.600535	اسلامی تبریک
-1.600535	اسلامی نفر
-1.600535	اسلامی وضعی
-1.056466	اسلحه اسلحه
-1.056466	اسلحه مستشارهای
-1.056466	اسم را
-1.056466	اسم قانونی
-1.232558	اش اﻧﺴﺎن
-1.232558	اش حوزه
-1.232558	اش ﺧﯿﻠﯽ
-0.7554365	اشاره حضار
-0.7554365	اشتباه شناخت
-1.454406	اشخاص بسته
-1.454406	اشخاص سستی
-1.454406	اشخاص شخصیتها
-1.454406	اشخاص فاسد
-1.454406	اشخاص مومن
-1.357497	اشخاصی بالاها؛
-1.357497	اشخاصی شهید
-1.357497	اشخاصی فرار
-1.357497	اشخاصی مکتبی؛
-1.056466	اشرار فریاد
-1.056466	اشرار ملت
-0.7554365	اصحاب او-
-0.7554365	اصفهان همدان
-0.3535033	اصلاحات ارضی
-0.7554365	اصلش حرف
-0.7554365	اصلًا ظاهر
-0.7554365	اطراف دانشگاه
-1.357497	اطلاع دادند
-1.357497	اطلاع رضایت
-1.357497	اطلاع شناسند
-1.357497	اطلاع مجلسی
-0.7554365	اعاده بشود
-0.7554365	اعظمی کشته
-0.7554365	اغتیال دزدکی
-0.7554365	اغیار دست
-1.454406	افراد اشخاص
-1.454406	افراد رفتن‌
-1.454406	افراد متعهد
-1.454406	افراد مسئله‌ای
-1.454406	افراد ملت
-1.056466	افرادی راس
-1.056466	افرادی قرن
-0.7554365	افساد قضیه
-0.7554365	افسرها متصل
-0.7554365	افسرهای نیروی
-1.357497	افکار اسلامی
-1.357497	افکار غربزده‌ها
-1.357497	افکار مادی
-1.357497	افکار مومنین
-0.3535033	افکارشان افکار
-1.232558	اقتصاد برگردانیم
-1.232558	اقتصاد خراب
-1.232558	اقتصاد ملاحظه
-0.7554365	اقدامات رذیلانه
-0.7554365	اقربای سه
-1.056466	اقشار بکنند
-1.056466	اقشار ملت
-1.600535	الآن اطلاع
-1.600535	الآن ببینید
-1.600535	الآن جمهوری
-1.600535	الآن دانشگاه
-1.600535	الآن صحنه
-1.600535	الآن ملاحظه
-1.600535	الآن هست
-0.7554365	الرحیم مصیبت‌ها
-0.7554365	السلام علیکم
-0.7554365	السلام- عمر
-0.7554365	العملی بدهند
-1.658527	الله الآن
-1.658527	الله برکاته
-1.658527	الله بود
-1.658527	الله صغیر
-0.9555632	الله علیه-
-1.658527	الله علیهم-
-1.658527	الله نظارت
-0.7554365	المومنین- سلام
-0.7554365	ام دﯾﻨﻢ
-0.7554365	ام؟ ﺗﻘﻮا
-1.232558	امام جماعت
-1.232558	امام خمینی
-1.232558	امام سلام
-0.7554365	امت می‌دانند
-1.232558	امثال تفاله‌هایی
-1.232558	امثال شهید
-1.232558	امثال ملت
-1.357497	امر آمریکا
-1.357497	امر انتظامات
-1.357497	امر باطلی
-1.357497	امر رضاخان
-0.7554365	امکان مردم
-0.7554365	انبیا قیامت
-1.056466	انتخاب حاضرند
-1.056466	انتخاب رئیس
-1.056466	انتخابیه اش
-1.056466	انتخابیه سوال
-0.7554365	انتشارات تبلیغات
-0.7554365	انتظامات نظام
-0.7554365	انتظامی نظامی
-0.7554365	انحراف اسلام
-0.7554365	انسان نیروی
-1.056466	انسانی ترجیح
-1.056466	انسانی ماست
-0.7554365	انسجام صحنه
-0.7554365	انشا ملت
-0.7554365	انقلاب کرده‌اند
-0.7554365	انکار ملت
-0.7554365	انگلیس پشتیبانی
-1.056466	انگیزه انگیزه
-1.056466	انگیزه ملت
-0.7554365	اهل منبر
-1.056466	او اسلام
-1.056466	او ﺑﻪ
-0.7554365	او- سلام
-0.7554365	اوج ﺗﺤﻮل
-1.357497	اول اسلام
-1.357497	اول اﯾﻦ
-1.357497	اول اﯾﻨﻬﺎ
-1.357497	اول شرقی
-0.7554365	اولاد می‌افتد
-0.7554365	اوﺳﺖ ﺳﻠﻄﺎن
-0.7554365	اوﺿﺎع اﺳﻔﻨﺎك
-0.7554365	اوﺿﺎﻋﺸﺎن ﻧﺘﻮاﻧﺴﺘﻨﺪ
-1.056466	اوﻟﯽ ﮐﻪ
-1.056466	اوﻟﯽ ﺑﺎﺷﺪ؟
-0.7554365	اوﻟﯿﺎ ﻓﺮﺳﺘﺎده
-0.7554365	اوﻻدم ...
-2.286915	اي اﯾﻦ
-1.583952	اي اﯾﻨﻬﺎ
-2.286915	اي درﺳﺖ
-2.286915	اي دﯾﮕﺮي
-2.286915	اي دﺳﺘﻪ
-2.286915	اي ﭘﯿﺪا
-2.286915	اي ﭘﯿﺶ
-2.286915	اي ﭘﺎپ
-0.5314789	اي ﮐﻪ
-2.286915	اي ﺑﯿﻦ
-2.286915	اي ﺑﺎز
-2.286915	اي ﺑﺎﺷﻨﺪ
-2.286915	اي ﺗﻨﺪروﺗﺮﻧﺪ
-2.286915	اي ﺗﻬﺬﯾﺐ
-2.286915	اي ﺣﻮزه
-2.286915	اي ﺷﻤﺎ
-2.286915	اي ﻓﻌﺎل
-1.583952	اي ﻧﯿﺴﺖ
-2.286915	اي ﻧﺸﻮد
-2.286915	اي ﻫﺴﺘﻨﺪ
-1.583952	اي ﻫﻢ
-2.286915	اي ﻫﻤﺎن
-1.056466	اي؟ ﭼﻪ
-1.056466	اي؟ ﯾﮏ
-0.7554365	ایجاد خدای
-1.232558	ایران مجلس
-1.232558	ایران مرکز
-1.232558	ایران می‌خورد
-0.7554365	ایران‌ زمانهای
-1.056466	ایستاد ایستادگی
-1.056466	ایستاد قدرتهای
-0.7554365	ایستاده امثال
-1.056466	ایستاده‌اند همچو
-1.056466	ایستاده‌اند گرفتاریها
-0.7554365	ایستادگی زن
-1.056466	ایمان افکارشان
-1.056466	ایمان شناخت
-1.454406	این خون
-1.454406	این دستش
-1.454406	این سلطنتی
-1.454406	این مملکت
-1.454406	این هشتاد
-1.056466	اینها است
-1.056466	اینها بی‌تفاوت
-1.056466	اینهائی مجلس
-1.056466	اینهائی نشدند
-1.056466	اینهایی فرار
-1.056466	اینهایی کارها
-0.7554365	اﮐﺘﻔﺎ ﺑﻪ
-0.7554365	اﮐﻨﻮن ﺑﺮادران
-2.630498	اﮔﺮ آﻧﺠﺎ
-1.355619	اﮔﺮ اﯾﻦ
-2.630498	اﮔﺮ اﯾﻨﻄﻮر
-2.630498	اﮔﺮ اﯾﻨﻬﺎ
-2.630498	اﮔﺮ اﺣﯿﺎﻧﺎ
-2.630498	اﮔﺮ اﻫﺎﻧﺘﯽ
-2.630498	اﮔﺮ دارﯾﻢ
-2.630498	اﮔﺮ داﺷﺘﻪ
-2.630498	اﮔﺮ واﻗﻊ
-2.630498	اﮔﺮ وﻗﺖ
-2.630498	اﮔﺮ ﭘﺪرت
-0.5326386	اﮔﺮ ﭼﻨﺎﻧﭽﻪ	0.07191591
-2.630498	اﮔﺮ ﭼﻨﺪ
-1.927535	اﮔﺮ ﮐﺸﻮري
-1.046872	اﮔﺮ ﯾﮏ
-2.630498	اﮔﺮ ﯾﮑﯽ
-2.630498	اﮔﺮ ﺑﺎ
-2.630498	اﮔﺮ ﺑﺎﺷﺪ
-2.630498	اﮔﺮ ﺑﺨﻮاﻫﻨﺪ
-2.630498	اﮔﺮ ﺑﺸﮑﻨﯿﻢ
-1.613093	اﮔﺮ ﺑﻨﺎ
-1.613093	اﮔﺮ ﺑﻪ
-2.630498	اﮔﺮ ﺟﺎن
-2.630498	اﮔﺮ ﺟﻮان
-2.630498	اﮔﺮ ﺧﺪاي
-2.630498	اﮔﺮ ﺧﻼل
-2.630498	اﮔﺮ ﺳﺎﻗﻂ
-2.630498	اﮔﺮ ﻣﯽ
-1.927535	اﮔﺮ ﻣﺎ
-2.630498	اﮔﺮ ﻣﺴﺎﻣﺤﻪ
-2.630498	اﮔﺮ ﻣﻦ
-2.630498	اﮔﺮ ﻧﺒﻮد
-2.630498	اﮔﺮ ﻧﺨﺴﺖ
-2.630498	اﮔﺮ ﻧﺪارﯾﻢ
-1.927535	اﮔﺮ ﻧﺸﺪ
-2.630498	اﮔﺮ ﻫﺮ
-2.630498	اﮔﺮ ﻫﻢ
-0.7554365	اﯾﺎدي اﺟﺎﻧﺐ
-0.7554365	اﯾﺎم اﮔﺮ
-0.7554365	اﯾﺠﺎد ﻫﻤﻪ
-0.7554365	اﯾﺪ؟ ﭼﻪ
-2.33522	اﯾﺮان آﻣﺪه
-2.33522	اﯾﺮان آﻧﺠﺎﻫﺎي
-2.33522	اﯾﺮان اﮔﺮ
-2.33522	اﯾﺮان اﺛﺮ
-2.33522	اﯾﺮان اﺳﺘﻌﻤﺎر
-2.33522	اﯾﺮان را
-2.33522	اﯾﺮان وﺿﻊ
-2.33522	اﯾﺮان ﭘﯿﺪا
-2.33522	اﯾﺮان ﭘﺎﯾﮕﺎه
-2.33522	اﯾﺮان ﭘﺸﺘﯿﺒﺎﻧﯽ
-2.33522	اﯾﺮان ﮐﺮده
-1.267369	اﯾﺮان ﮐﻪ
-1.632257	اﯾﺮان ﯾﮏ
-2.33522	اﯾﺮان ﯾﺎري
-2.33522	اﯾﺮان ﺑﮕﻮﯾﯿﺪ
-1.267369	اﯾﺮان ﺑﻪ
-2.33522	اﯾﺮان ﺗﺎرﯾﺦ
-2.33522	اﯾﺮان ﺗﺸﮑﯿﻞ
-2.33522	اﯾﺮان ﺣﺠﺎز
-2.33522	اﯾﺮان ﺳﺎﯾﺮ
-2.33522	اﯾﺮان ﺷﻬﺮش
-2.33522	اﯾﺮان ﺻﺪاي
-2.33522	اﯾﺮان ﻓﮑﺮ
-2.33522	اﯾﺮان ﻓﺮض
-1.317816	اﯾﺮان ﻣﯽ
-2.33522	اﯾﺮان ﻣﺎ
-2.33522	اﯾﺮان ﻧﺒﻮد
-2.33522	اﯾﺮان ﻫﺴﺖ
-2.33522	اﯾﺮان ﻫﻢ
-0.3535033	اﯾﺮاﻧﯽ ﮐﻪ
-1.357497	اﯾﺰد اﺳﺖ
-0.6545333	اﯾﺰد ﭼﻪ
-1.357497	اﯾﺰد ﻓﺮﻣﺎن
-1.056466	اﯾﺴﺘﺎد اﯾﻦ
-1.056466	اﯾﺴﺘﺎد ﻣﻘﺎﺑﻞ
-0.7554365	اﯾﺴﺘﺎده اﺳﺖ
-0.7554365	اﯾﺴﺘﺪ ﻗﻢ
-1.658527	اﯾﺸﺎن ﭘﺎ
-0.9555632	اﯾﺸﺎن ﮐﻪ
-1.658527	اﯾﺸﺎن ﮔﻔﺘﻪ
-1.658527	اﯾﺸﺎن ﺣﺎﻻ
-1.658527	اﯾﺸﺎن ﻗﺒﻞ
-1.658527	اﯾﺸﺎن ﻣﯽ
-1.658527	اﯾﺸﺎن ﻫﻢ
-0.7554365	اﯾﺸﺎن/ دﻋﻮﺗﺸﺎن
-1.056466	اﯾﻢ ﮐﻨﯿﻢ
-1.056466	اﯾﻢ ﻣﺼﯿﺒﺖ
-1.232558	اﯾﻤﺎن اﻧﺴﺎن
-1.232558	اﯾﻤﺎن دﺳﺖ
-1.232558	اﯾﻤﺎن ﻣﯽ
-0.7554365	اﯾﻤﺎﻧﯽ ﻣﺎ
-0.7554365	اﯾﻤﺎﻧﻢ ﺻﺎف
-3.325979	اﯾﻦ آب
-2.308575	اﯾﻦ آدم
-2.308575	اﯾﻦ آزادي
-3.325979	اﯾﻦ آﺗﺶ
-3.325979	اﯾﻦ آﺧﺮ
-3.325979	اﯾﻦ آﺧﻮﻧﺪ
-3.325979	اﯾﻦ آﺷﻔﺘﮕﯽ
-3.325979	اﯾﻦ آﻗﺎ
-3.325979	اﯾﻦ آﻣﺎل
-3.325979	اﯾﻦ آﻣﺮﯾﮑﺎﯾﯽ
-3.325979	اﯾﻦ ارزش
-2.623016	اﯾﻦ اﮔﺮ
-3.325979	اﯾﻦ اﯾﻦ
-3.325979	اﯾﻦ اﺗﻮﻣﺒﯿﻞ
-3.325979	اﯾﻦ اﺟﺘﻤﺎع
-2.308575	اﯾﻦ اﺣﮑﺎم
-2.623016	اﯾﻦ اﺧﺘﻼﻓﺎت
-3.325979	اﯾﻦ اﺳﺒﺎب
-1.52915	اﯾﻦ اﺳﺖ	-0.6339074
-3.325979	اﯾﻦ اﺳﻼم
-1.845507	اﯾﻦ اﺷﺨﺎﺻﯽ	-0.3589333
-3.325979	اﯾﻦ اﻣﺮ
-3.325979	اﯾﻦ اﻣﺮي
-2.308575	اﯾﻦ اﻣﻮر
-3.325979	اﯾﻦ اﻧﺒﯿﺎ
-3.325979	اﯾﻦ اﻧﺒﺎري
-3.325979	اﯾﻦ اﻧﺘﺨﺎﺑﺎت
-3.325979	اﯾﻦ اﻧﺪ
-3.325979	اﯾﻦ اﻻن
-3.325979	اﯾﻦ دارﯾﻢ
-2.623016	اﯾﻦ دﯾﮕﺮ
-3.325979	اﯾﻦ دﺧﺘﺮ
-2.623016	اﯾﻦ دﺳﺖ
-3.325979	اﯾﻦ دﺳﺘﻪ
-3.325979	اﯾﻦ دﺳﺘﻮرات
-3.325979	اﯾﻦ دﻣﻮﮐﺮاﺳﯽ
-3.325979	اﯾﻦ دﻧﯿﺎ
-3.325979	اﯾﻦ دﻧﯿﺎي
-3.325979	اﯾﻦ دﻫﯽ
-3.325979	اﯾﻦ ذﻫﻨﻢ
-3.325979	اﯾﻦ را
-2.623016	اﯾﻦ راﺟﻊ
-3.325979	اﯾﻦ رواﺑﻂ
-3.325979	اﯾﻦ روزﻫﺎ
-3.325979	اﯾﻦ روﺣﯽ
-2.308575	اﯾﻦ رژﯾﻢ
-2.308575	اﯾﻦ زاﻏﻪ
-3.325979	اﯾﻦ زودي
-2.258129	اﯾﻦ زﻣﯿﻦ
-3.325979	اﯾﻦ زﻧﺪﮔﯽ
-3.325979	اﯾﻦ ورﻫﻢ
-2.623016	اﯾﻦ وﺣﺪت
-2.623016	اﯾﻦ وﺿﻊ
-3.325979	اﯾﻦ وﻃﻦ
-3.325979	اﯾﻦ ﭘﯿﺪا
-3.325979	اﯾﻦ ﭘﯿﺮوزي
-2.308575	اﯾﻦ ﭘﯿﺸﺮﻓﺖ
-3.325979	اﯾﻦ ﭘﺮﭼﻢ
-2.623016	اﯾﻦ ﭘﺸﺘﯿﺒﺎﻧﯽ
-3.325979	اﯾﻦ ﭼﯽ
-3.325979	اﯾﻦ ﭼﯿﺰي
-3.325979	اﯾﻦ ﭼﯿﺰﻫﺎ
-3.325979	اﯾﻦ ﭼﯿﺴﺖ
-3.325979	اﯾﻦ ﭼﺎدرﻧﺸﯿﻦ
-2.623016	اﯾﻦ ﭼﺮخ
-2.623016	اﯾﻦ ﭼﻪ
-2.258129	اﯾﻦ ﮐﺎر	-0.1728569
-3.325979	اﯾﻦ ﮐﺎرﮔﺮﻫﺎي
-3.325979	اﯾﻦ ﮐﺎرﺧﺎﻧﻪ
-2.623016	اﯾﻦ ﮐﺎرﻫﺎ
-3.325979	اﯾﻦ ﮐﺸﻮر
-2.623016	اﯾﻦ ﮐﻠﻤﻪ
-3.325979	اﯾﻦ ﮐﻨﺪ
-1.491362	اﯾﻦ ﮐﻪ
-3.325979	اﯾﻦ ﮐﻮﭼﮏ
-1.845507	اﯾﻦ ﯾﮏ
-3.325979	اﯾﻦ ﺑﭽﻪ
-3.325979	اﯾﻦ ﺑﮑﻨﯿﻢ
-3.325979	اﯾﻦ ﺑﮑﻨﺪ
-3.325979	اﯾﻦ ﺑﯿﭽﺎره
-3.325979	اﯾﻦ ﺑﯿﺪاري
-3.325979	اﯾﻦ ﺑﺎ
-3.325979	اﯾﻦ ﺑﺎر
-3.325979	اﯾﻦ ﺑﺎزارﻫﺎي
-3.325979	اﯾﻦ ﺑﺎﯾﺪ
-3.325979	اﯾﻦ ﺑﺎﺷﺪ
-3.325979	اﯾﻦ ﺑﺎﻗﯽ
-3.325979	اﯾﻦ ﺑﺎﻻﺗﺮ
-3.325979	اﯾﻦ ﺑﺪﻫﻨﺪ
-2.258129	اﯾﻦ ﺑﺮاي
-3.325979	اﯾﻦ ﺑﺰرگ
-3.325979	اﯾﻦ ﺑﻨﯿﺎد
-2.623016	اﯾﻦ ﺑﻨﺪي
-2.308575	اﯾﻦ ﺑﻪ
-2.623016	اﯾﻦ ﺑﻮد
-3.325979	اﯾﻦ ﺑﻮده
-3.325979	اﯾﻦ ﺗﮑﻠﯿﻒ
-3.325979	اﯾﻦ ﺗﺎ
-3.325979	اﯾﻦ ﺗﺤﻮل
-3.325979	اﯾﻦ ﺗﺤﻮﻟﯽ
-3.325979	اﯾﻦ ﺗﻀﻌﯿﻒ
-3.325979	اﯾﻦ ﺗﻌﺒﯿﺮ
-3.325979	اﯾﻦ ﺗﻘﺎﺿﺎي
-3.325979	اﯾﻦ ﺗﻘﺪم
-3.325979	اﯾﻦ ﺗﻮﻃﺌﻪ
-2.623016	اﯾﻦ ﺟﺎ
-3.325979	اﯾﻦ ﺟﺎﺳﺖ
-3.325979	اﯾﻦ ﺟﺎﻣﻌﻪ
-3.325979	اﯾﻦ ﺟﺮﯾﺎن
-3.325979	اﯾﻦ ﺟﺮﺛﻮﻣﻪ
-2.623016	اﯾﻦ ﺟﻤﻌﯿﺖ
-3.325979	اﯾﻦ ﺟﻨﺎﯾﺎت
-2.623016	اﯾﻦ ﺟﻬﺖ
-3.325979	اﯾﻦ ﺟﻮان
-3.325979	اﯾﻦ ﺟﻮاﻧﯽ
-2.258129	اﯾﻦ ﺟﻮر
-2.258129	اﯾﻦ ﺣﺐ
-3.325979	اﯾﻦ ﺣﺴﺎﺳﺘﺮﯾﻦ
-3.325979	اﯾﻦ ﺣﻆ
-2.623016	اﯾﻦ ﺧﯿﺎﻧﺖ
-3.325979	اﯾﻦ ﺧﯿﺎﻧﺘﮑﺎر
-3.325979	اﯾﻦ ﺧﺎرﺟﯽ
-3.325979	اﯾﻦ ﺧﺪﻣﺖ
-3.325979	اﯾﻦ ﺧﺮج
-3.325979	اﯾﻦ ﺧﺰاﯾﻦ
-3.325979	اﯾﻦ ﺧﻮدش
-3.325979	اﯾﻦ ﺳﯿﺎﺳﯽ
-3.325979	اﯾﻦ ﺳﯿﻞ
