
\data\
ngram 1=3376
ngram 2=11113
ngram 3=71

\1-grams:
-3.916705	''	-0.04527595
-3.916705	</s>
-99	<s>	-0.04559205
-3.413702	UNK	-0.04441624
-3.916705	``	-0.04559205
-3.916705	sدوره	-0.04494049
-3.916705	آئین	-0.04559205
-2.936581	آب	-0.1342651
-3.413702	آبادانی	-0.04396145
-3.916705	آبان	-0.04497404
-3.916705	آبت	-0.04555472
-3.916705	آبدیده	-0.04547711
-3.916705	آبرومندانه	-0.04556333
-3.916705	آبرومندانه‌ای	-0.0443696
-3.916705	آبزیان	-0.04527595
-3.916705	آبها	-0.04541007
-3.916705	آبهای	-0.03834656
-3.916705	آبی	-0.04529037
-3.721059	آب‌های	-0.04534188
-3.916705	آتیه	-0.04559205
-3.112672	آثار	-0.04263052
-3.727548	آخرین	-0.04131064
-3.916705	آراء	-0.04559205
-3.15843	آرامش	-0.04158971
-3.721059	آرزو	-0.04505558
-3.916705	آرزوهای	-0.04556333
-3.721059	آرزوی	-0.04485423
-3.916705	آرمان‌های	-0.04559205
-3.683843	آزاد	-0.04389661
-3.071279	آزادی	-0.04267489
-3.916705	آزادی‌ها	-0.04559205
-3.916705	آزادی‌های	-0.04553944
-3.916705	آزردگی	-0.04559205
-3.916705	آزمایش	-0.04490693
-3.916705	آزمایش‌های	-0.04559205
-3.916705	آسانی	-0.04406707
-3.916705	آسای	-0.04556333
-3.721059	آسایش	-0.04468636
-3.916705	آسفالت	-0.04555472
-3.916705	آسمان	-0.04559205
-3.916705	آسیائی	-0.04556333
-3.916705	آسیایی	-0.04147002
-3.916705	آسیبی	-0.04559205
-3.916705	آشفته	-0.04550949
-3.916705	آشناکردن	-0.04530948
-2.665514	آغاز	-0.07380092
-3.916705	آلات	-0.0453239
-3.916705	آلمان	-0.04556333
-3.916705	آلودگی	-0.04519456
-3.916705	آلودگی‌هایی	-0.04490693
-3.916705	آلومینیوم	-0.03982384
-3.721059	آماده	-0.04342776
-3.916705	آمادگی	-0.0450182
-3.916705	آمار	-0.04453759
-3.916705	آمارهای	-0.04527595
-3.916705	آماری	-0.04559205
-3.916705	آمال	-0.04217985
-3.916705	آمد	-0.04359603
-3.916705	آمدند	-0.03987715
-3.721059	آمده	-0.04288851
-3.916705	آمدها	-0.04530948
-3.413702	آمده‌است	-0.03730858
-3.916705	آمده‌اند	-0.04555472
-3.721059	آموز	-0.04364416
-3.916705	آموزان	-0.04553944
-2.681308	آموزش	-0.102217
-3.916705	آموزشگاه	-0.04559205
-3.916705	آموزشگاه‌ها	-0.04556211
-3.916705	آموزشگاه‌های	-0.04507471
-2.770249	آموزشی	-0.06030675
-3.916705	آموزش‌های	-0.0451418
-3.721059	آمیز	-0.04104818
-3.413702	آن	-0.04237744
-3.916705	آنان	-0.04507471
-3.916705	آنهم	-0.04556211
-3.916705	آنیم	-0.04556211
-3.916705	آن‌ها	-0.04559205
-3.916705	آن‌هائی	-0.04547711
-3.267574	آهن	-0.03930462
-3.413702	آهنگ	-0.093331
-3.916705	آهنگی	-0.04553944
-3.721059	آورد	-0.04537184
-3.916705	آوردند	-0.04494049
-3.916705	آورده‌است	-0.04553944
-3.916705	آورده‌ایم	-0.04490693
-3.916705	آورم	-0.04559205
-3.721059	آورند	-0.04221362
-3.721059	آوریم	-0.04342653
-3.916705	آپارتمان	-0.04537654
-3.916705	آگاه	-0.04487336
-3.916705	آگاهانه	-0.04426878
-3.916705	آگاهی	-0.04473908
-3.721059	آید	-0.04202547
-2.499888	آینده	-0.04909175
-3.916705	آینده‌ای	-0.04541007
-3.916705	آیین‌نامه	-0.04473908
-3.916705	ابائی	-0.04460476
-3.916705	ابتدائی	-0.04502203
-3.721059	ابتکار	-0.04452324
-3.916705	ابتکارات	-0.04547711
-3.916705	ابتکاری	-0.03829306
-3.413702	ابراز	-0.04429652
-3.916705	ابعاد	-0.04465636
-3.916705	ابلاغ	-0.04555472
-3.916705	ابهامی	-0.04396617
-3.209582	اتحاد	-0.1374413
-3.916705	اتحادی	-0.04356236
-3.916705	اتحادیه	-0.04463835
-3.916705	اتحادیه‌های	-0.04525684
-3.727548	اتخاذ	-0.04422081
-3.727548	اتفاق	-0.03887561
-3.916705	اتفاقات	-0.04527595
-3.727548	اتلاف	-0.04507713
-3.112672	اتمی	-0.04225814
-3.916705	اتوبوس	-0.04494049
-3.916705	اتکا	-0.04453759
-3.916705	اتکاء	-0.04559205
-3.112672	اثر	-0.04182003
-3.916705	اثری	-0.04559205
-3.683843	اجاره	-0.04433136
-3.413702	اجازه	-0.0958265
-3.916705	اجباری	-0.04137921
-3.112672	اجتماع	-0.03490125
-3.916705	اجتماعات	-0.04517534
-2.231858	اجتماعی	-0.06081375
-3.916705	اجتناب‌ناپذیر	-0.04559205
-3.916705	اجحاف	-0.04416793
-3.916705	اجحافاتی	-0.04555472
-3.15843	اجرا	-0.07107779
-3.916705	اجراء	-0.04376431
-3.916705	اجرائی	-0.04416793
-2.396669	اجرای	-0.2199345
-3.721059	اجرایی	-0.04452324
-2.833918	اجلاسیه	-0.209689
-3.916705	اجلاسیه‌های	-0.04559205
-3.916705	اجمالی	-0.04541007
-3.721059	احتراز	-0.04465278
-2.966544	احترام	-0.2188794
-3.916705	احتساب	-0.04470551
-3.916705	احتمالی	-0.04556333
-3.683843	احتیاج	-0.04409606
-3.413702	احتیاجات	-0.0349099
-3.721059	احتیاجی	-0.04447049
-3.721059	احداث	-0.04523746
-3.721059	احراز	-0.04516681
-3.916705	احزاب	-0.04467193
-3.209582	احساس	-0.1092851
-3.721059	احساسات	-0.04300415
-3.916705	احسن	-0.04556211
-3.721059	احقاق	-0.04476794
-3.916705	احیاء	-0.04547711
-3.916705	اختتام	-0.04559205
-3.916705	اختصار	-0.04460476
-3.916705	اختصاص	-0.04525684
-3.916705	اختصاصاً	-0.04416793
-3.727548	اختلاف	-0.04361049
-3.721059	اختلافات	-0.04548681
-3.916705	اختلافی	-0.04559205
-3.209582	اختیار	-0.04338944
-3.916705	اختیارات	-0.0452233
-3.916705	اخذ	-0.04550949
-3.727548	اخلاقی	-0.1099821
-3.916705	اخوت	-0.04556211
-3.916705	اخیر	-0.04553944
-3.916705	ادا	-0.04376431
-3.916705	ادارات	-0.04438021
-3.15843	اداره	-0.1231658
-2.936581	اداری	-0.03490743
-2.833918	ادامه	-0.04963182
-3.916705	ادغام	-0.04556333
-3.916705	ادوار	-0.04463835
-3.916705	اذهان	-0.04497404
-3.916705	ار	-0.04467193
-3.916705	ارائه	-0.04559205
-3.916705	اراده	-0.04383161
-3.916705	اراده‌ای	-0.04527595
-3.916705	اراضی	-0.04556211
-3.916705	ارباب	-0.04559205
-3.413702	ارتباط	-0.03803608
-3.916705	ارتباطات	-0.04556211
-3.721059	ارتش	-0.0452425
-3.916705	ارث	-0.04525301
-3.916705	ارثیه	-0.04555472
-3.727548	ارزش	-0.1116807
-3.721059	ارزش‌های	-0.04513326
-3.916705	ارزنده‌ای	-0.04527595
-2.908552	ارضی	-0.06190115
-3.15843	ارقام	-0.04018767
-3.916705	ارکان	-0.04556211
-3.916705	ازدیاد	-0.04559205
-2.413702	اساس	-0.07767944
-3.916705	اساسنامه	-0.04556211
-2.750944	اساسی	-0.0894099
-2.635551	است	-0.0343693
-3.916705	است|	-0.04559205
-3.916705	استان	-0.04559205
-3.916705	استاندارد	-0.04556333
-3.916705	استان‌ها	-0.04505558
-3.916705	استثمار	-0.04553944
-3.916705	استثماری	-0.04559205
-3.916705	استثنائی	-0.04376432
-3.916705	استثنای	-0.04477265
-3.916705	استثنایی	-0.04494049
-3.916705	استحقاق	-0.04537654
-3.916705	استحکام	-0.04547711
-3.721059	استخدام	-0.04500289
-3.916705	استخدامی	-0.04559205
-3.916705	استخراج	-0.04086068
-3.916705	استرئوفونیک	-0.04537654
-3.916705	استرالیا	-0.04487336
-3.721059	استظهار	-0.04544947
-3.916705	استعانت	-0.04556333
-3.413702	استعداد	-0.04450408
-3.916705	استعدادها	-0.04485423
-3.916705	استعدادهای	-0.04550949
-3.916705	استعدادی	-0.04396617
-3.209582	استعمار	-0.04314855
-3.683843	استعماری	-0.03933953
-3.916705	استعمال	-0.04559205
-3.916705	استقبال	-0.04555472
-3.721059	استقرار	-0.04493195
-3.112672	استقلال	-0.1699813
-3.916705	استمرار	-0.04556211
-3.916705	استو	-0.04556333
-3.413702	استوار	-0.0382919
-3.727548	استوارتر	-0.04540544
-3.916705	استیجاری	-0.04527595
-3.916705	استیلای	-0.04556333
-3.916705	اسدآباد	-0.04490693
-3.916705	اسرائیل	-0.04537654
-3.916705	اسراف	-0.04498847
-3.916705	اسرع	-0.04556211
-3.916705	اسفند	-0.04377494
-3.916705	اسفندماه	-0.04555472
-3.916705	اسف‌انگیز	-0.04556333
-3.721059	اسلام	-0.04282108
-3.727548	اسلامی	-0.04403352
-3.916705	اسلوب‌ها	-0.04559205
-3.916705	اسم	-0.04559205
-3.683843	اشاره	-0.04441293
-3.916705	اشاره‌شد	-0.04555472
-3.916705	اشاعه	-0.0448878
-3.916705	اشتباه	-0.04556211
-3.916705	اشتباهات	-0.04559205
-3.916705	اشتباهی	-0.04556333
-3.727548	اشتراک	-0.256632
-3.721059	اشتغال	-0.04435401
-3.916705	اشخاص	-0.04373066
-3.916705	اشخاصی	-0.04527595
-3.916705	اشعار	-0.04386525
-3.916705	اشغال	-0.04559205
-3.916705	اشغالی	-0.04559205
-3.721059	اشکال	-0.04477274
-3.916705	اصالت	-0.04467193
-3.916705	اصطکاک‌هایی	-0.04559205
-2.650274	اصل	-0.08285093
-3.15843	اصلاح	-0.03955093
-2.665514	اصلاحات	-0.3507302
-3.916705	اصلاحاتی	-0.04524242
-3.916705	اصلاحی	-0.04559205
-3.112672	اصلی	-0.03824553
-3.916705	اصناف	-0.04524242
-2.594158	اصول	-0.174145
-3.916705	اصولی	-0.04298966
-3.727548	اصیل	-0.1085906
-3.721059	اصیل‌ترین	-0.04541951
-3.413702	اضافه	-0.04423141
-3.727548	اطلاع	-0.1120113
-3.413702	اطلاعات	-0.04472482
-3.916705	اطلاعاتی	-0.04548077
-3.916705	اطمیمان	-0.04386525
-3.727548	اطمینان	-0.04382689
-3.916705	اطمینان‌بخش	-0.03834656
-3.916705	اطمینان‌بخشی	-0.04517534
-3.683843	اظهار	-0.1737969
-3.413702	اعتبار	-0.09434595
-3.727548	اعتبارات	-0.1097126
-3.916705	اعتباری	-0.04416793
-3.413702	اعتقاد	-0.316385
-3.916705	اعتلای	-0.04559205
-3.721059	اعتماد	-0.04500289
-3.916705	اعراب	-0.04559205
-3.916705	اعصار	-0.04559205
-3.413702	اعضای	-0.09599861
-3.916705	اعظم	-0.04520888
-3.916705	اعلا	-0.04537654
-3.916705	اعلای	-0.04559205
-3.721059	اعم	-0.04495491
-3.727548	اعمال	-0.04344574
-3.916705	افتاد	-0.0435287
-3.916705	افتادن	-0.04559205
-3.916705	افتادگی	-0.04559205
-2.857399	افتتاح	-0.3446676
-3.683843	افتخار	-0.08040441
-3.916705	افتخارترین	-0.04494049
-3.916705	افتد	-0.04315818
-2.650274	افراد	-0.1572603
-3.916705	افرادی	-0.04426878
-3.916705	افراط‌کاری‌ها	-0.04559205
-3.916705	افریقا	-0.04559205
-2.681308	افزایش	-0.05768989
-3.209582	افزوده	-0.04216542
-3.916705	افزوده‌شد	-0.04559205
-3.916705	افغانستان	-0.04541007
-3.916705	افق	-0.04559205
-3.916705	افکار	-0.04473908
-3.916705	اقتدار	-0.04555472
-3.683843	اقتصاد	-0.07947983
-2.521607	اقتصادی	-0.1925704
-2.908552	اقدام	-0.0627303
-3.209582	اقدامات	-0.04046864
-3.916705	اقداماتی	-0.04527595
-3.721059	اقدامی	-0.04391335
-3.15843	اقدام‌ها	-0.06620806
-3.916705	اقساطی	-0.04556333
-3.916705	اقلیتی	-0.04559205
-3.916705	اقوام	-0.04527595
-3.413702	اقیانوس	-0.3174973
-3.916705	الامکان	-0.04550949
-3.916705	التفاوت	-0.04559205
-3.916705	الحاق	-0.1905636
-3.916705	الطاف	-0.04556211
-3.916705	المقدور	-0.04559205
-3.721059	المللی	-0.04520897
-3.916705	الوقت	-0.04559205
-3.916705	الکترونیکی	-0.04559205
-3.916705	امان	-0.04556211
-2.681308	امر	-0.1070628
-3.916705	امروز	-0.0436814
-3.727548	امروزی	-0.03686309
-3.916705	امری	-0.04394316
-3.916705	امریکای	-0.04559205
-3.916705	امضاء	-0.04502203
-3.413702	املاک	-0.04332165
-3.916705	امن	-0.04556211
-2.882223	امنیت	-0.08996091
-3.916705	اموری	-0.04507471
-3.15843	امکان	-0.07068621
-3.033491	امکانات	-0.0545368
-3.916705	امکان‌پذیر	-0.04443681
-3.916705	امید	-0.04495849
-3.916705	امیدبخش	-0.04147002
-3.916705	امیدواری	-0.0448398
-3.916705	انتخاب	-0.04477265
-3.683843	انتخابات	-0.04382191
-3.916705	انتخاباتی	-0.04559205
-3.033491	انتظار	-0.04131431
-3.916705	انتظارهای	-0.04559205
-3.721059	انتظامی	-0.04240054
-3.916705	انتقال	-0.04553944
-3.916705	انجامید	-0.04534302
-3.721059	انجمن	-0.04178891
-3.916705	انجمنهای	-0.04559205
-3.916705	انجمنی	-0.04556211
-3.413702	انجمن‌های	-0.0978068
-3.916705	انحراف	-0.04520888
-3.916705	انحطاط	-0.04300774
-3.916705	انداختن	-0.04556333
-3.916705	انداخته	-0.04453759
-3.916705	انداز	-0.04559205
-3.916705	اندازد	-0.04559205
-3.916705	اندازند	-0.04430239
-3.413702	اندازه	-0.04384223
-3.916705	اندازه‌ای	-0.04556333
-3.916705	اندازیم	-0.04559205
-3.916705	اندیش	-0.04520888
-3.916705	اندیشند	-0.04559205
-3.916705	اندیشی	-0.04525684
-3.916705	انرژی	-0.04530948
-3.112672	انسانی	-0.06443782
-3.916705	انستیتوهای	-0.04559205
-3.916705	انشاءالله	-0.04559205
-3.15843	انصاف	-0.04383856
-3.916705	انضباط	-0.04460476
-3.916705	انضمام	-0.04555472
-3.916705	انعکاس	-0.0448398
-3.916705	انفعالاتی	-0.04467193
-2.422476	انقلاب	-0.2535659
-3.267574	انقلابی	-0.03993641
-3.721059	انواع	-0.04298493
-3.916705	انگاشته	-0.04559205
-3.727548	انگلستان	-0.03953757
-3.916705	انگیزه	-0.04556211
-3.916705	انگیزه‌ای	-0.04547711
-3.916705	ان‌شاءالله	-0.04434661
-3.916705	اهالی	-0.04556333
-3.916705	اهتمام	-0.04559205
-3.916705	اهریمن	-0.04537654
-3.916705	اهم	-0.0453239
-2.966544	اهمیت	-0.03865774
-3.916705	اوائل	-0.04410069
-3.916705	اوج	-0.04559205
-3.721059	اوضاع	-0.04329295
-3.916705	اوضاعی	-0.04295595
-3.721059	اوقات	-0.04517543
-3.916705	اولویت‌ها	-0.04376431
-3.916705	اولی	-0.04530948
-3.916705	اولیای	-0.04556333
-3.916705	اولیه	-0.04329295
-3.721059	اوپک	-0.1364734
-3.721059	اِشغال	-0.03781183
-3.916705	اکتشاف	-0.04537654
-3.916705	اکتفا	-0.04379797
-3.916705	اکثریت	-0.04559205
-3.916705	اکثریتی	-0.0452233
-3.916705	ایالتی	-0.0452233
-3.916705	ایتالیا	-0.04487336
-3.413702	ایجاب	-0.317041
-2.532888	ایجاد	-0.04229294
-3.916705	ایجاده	-0.03861906
-3.916705	ایده‌آل	-0.04559205
-1.879676	ایران	-0.01697953
-2.388396	ایرانی	-0.02701197
-3.916705	ایرانیان	-0.04539575
-3.916705	ایفا	-0.04553944
-3.721059	ایفای	-0.04472351
-3.727548	ایمان	-0.04513709
-3.916705	اینهمه	-0.04460476
-3.683843	بابت	-0.08708321
-3.916705	باتفاق	-0.04534302
-3.916705	بارز	-0.04559205
-3.916705	بارزتری	-0.04555472
-3.916705	بارزی	-0.04555472
-3.916705	بارقه	-0.04559205
-3.916705	بارِ	-0.04530948
-3.916705	باری	-0.04556333
-3.916705	بازارهای	-0.04403343
-3.916705	بازتر	-0.04559205
-3.916705	بازده	-0.0448578
-3.916705	بازرسی	-0.1905636
-3.727548	بازرگانی	-0.04465278
-3.916705	بازمی‌داشت	-0.04559205
-3.916705	بازنشستگی	-0.04559205
-3.916705	بازگشتیم	-0.04520888
-3.916705	بازی‌های	-0.04559205
-3.916705	باستانی	-0.04556333
-3.916705	باسرع	-0.04556211
-3.916705	باسواد	-0.04530948
-3.916705	باسوادان	-0.04559205
-3.916705	باسوادها	-0.04559205
-3.071279	باشد	-0.03712419
-3.916705	باشند	-0.0448398
-3.916705	باشگاه‌های	-0.04556333
-3.916705	باشیم	-0.04559205
-3.916705	باصطلاح	-0.04559205
-3.727548	باعث	-0.04118001
-3.916705	باقتدای	-0.04556211
-3.916705	باقتضای	-0.04548199
-3.727548	باقی	-0.04359488
-3.916705	باقیمانده	-0.04410069
-3.916705	بال	-0.04556211
-3.916705	بالا	-0.04278735
-3.916705	بالابردن	-0.0451418
-3.683843	بالاتر	-0.0860342
-3.916705	بالاترین	-0.04359603
-3.916705	بالارفتن	-0.0448398
-3.916705	بالخصوص	-0.04497404
-3.033491	بالغ	-0.1057813
-3.916705	بالقوه	-0.04559205
-3.916705	بالمره	-0.04559205
-3.916705	بانوان	-0.04356237
-3.916705	بانک	-0.03919756
-3.916705	بانکی	-0.04559205
-3.916705	باگذشت	-0.04147002
-3.916705	باید	-0.04559205
-3.916705	بایستی	-0.04492136
-3.916705	باین	-0.04467193
-3.916705	ببرد	-0.04559205
-3.916705	ببریم	-0.04556333
-3.916705	ببیند	-0.04559205
-3.916705	بتذکار	-0.04547711
-3.916705	بترتیب	-0.04507471
-3.916705	بتصویب	-0.04356236
-3.916705	بتنهائی	-0.04147002
-3.727548	بتوانند	-0.04540544
-3.916705	بتون	-0.04559205
-3.916705	بثمر	-0.04559205
-3.916705	بجای	-0.04507471
-3.916705	بحال	-0.04559205
-3.916705	بحث	-0.04537654
-3.916705	بحد	-0.04559205
-3.916705	بحدی	-0.04556211
-3.916705	بحران	-0.04379797
-3.916705	بحرانی	-0.04494049
-3.916705	بحران‌های	-0.04559205
-3.727548	بحرین	-0.04537426
-3.916705	بحمدالله	-0.03970736
-3.916705	بخاطر	-0.04460476
-3.916705	بخرج	-0.04559205
-3.916705	بخشند	-0.04530948
-3.916705	بخشیدن	-0.0448398
-3.916705	بخشیده	-0.0450853
-3.916705	بخش‌ها	-0.04527595
-3.916705	بخش‌های	-0.189523
-3.916705	بخواست	-0.04518976
-3.721059	بدارد	-0.04492135
-3.721059	بدانند	-0.04215674
-3.916705	بدانچه	-0.04403343
-3.916705	بدان‌ها	-0.04555472
-3.15843	بدست	-0.1029356
-3.916705	بدل	-0.04559205
-3.916705	بدهد	-0.04356236
-3.916705	بدهند	-0.04368263
-3.916705	بدهی	-0.04559205
-3.721059	بدهیم	-0.04490196
-3.727548	بدو	-0.04451843
-3.916705	بدینوسیله	-0.04559205
-2.857399	بدیهی	-0.03048039
-3.721059	بذل	-0.04324005
-3.721059	برآورد	-0.04460842
-3.721059	برآیند	-0.04548681
-3.916705	برابری	-0.04477265
-3.721059	برادران	-0.04479066
-3.727548	برادری	-0.04427121
-3.916705	براساسی	-0.04556333
-3.916705	برانگیخت	-0.04556211
-3.916705	برجا	-0.04534302
-3.916705	برجسته	-0.04541007
-3.916705	برحذر	-0.04556211
-3.916705	برخلاف	-0.04524242
-3.916705	برخواهد	-0.0443696
-3.916705	برخورد	-0.1907791
-3.727548	برخورداری	-0.04423402
-3.683843	برد	-0.0407204
-3.916705	بردارد	-0.04282107
-3.916705	برداریم	-0.04478709
-3.916705	برداشت	-0.04530948
-3.267574	برداشته	-0.03780602
-3.916705	بردباری	-0.04527595
-3.413702	بردن	-0.04398741
-3.916705	برده	-0.04547711
-3.916705	برده‌اند	-0.03987715
-3.721059	بررسی	-0.04386526
-3.916705	بررسی‌های	-0.04524242
-3.916705	برساند	-0.04507471
-3.721059	برسانیم	-0.04396617
-3.683843	برسد	-0.03643312
-3.916705	برسند	-0.04556211
-3.683843	برطرف	-0.04332174
-3.916705	برعهده	-0.04559205
-3.209582	برق	-0.04464798
-3.721059	برقرار	-0.04517063
-3.916705	برقراری	-0.04497405
-3.916705	برقی	-0.04460476
-2.449914	برنامه	-0.3015796
-3.727548	برنامه‌ای	-0.04334111
-3.916705	برنامه‌ریزی	-0.04510825
-3.721059	برنامه‌ها	-0.04457361
-2.908552	برنامه‌های	-0.04490924
-3.916705	برنج	-0.04559205
-3.916705	برند	-0.04559205
-3.683843	برود	-0.04450989
-3.916705	بروند	-0.0428548
-3.916705	برچیدند	-0.04555472
-3.916705	برکنار	-0.04550949
-3.916705	برگزاری	-0.04551072
-3.916705	برگزیدند	-0.04559205
-3.916705	برگزیده‌ایم	-0.04430239
-3.916705	بری	-0.04559205
-3.916705	بزرگتری	-0.04420156
-3.727548	بزرگترین	-0.04468522
-3.916705	بزرگداشت	-0.04559205
-3.721059	بزرگی	-0.04356236
-3.916705	بزیان	-0.04559205
-3.916705	بساط	-0.04295595
-3.916705	بستن	-0.04559205
-3.916705	بسته	-0.04477265
-3.916705	بسر	-0.04553944
-3.916705	بسرعت	-0.0444032
-3.916705	بسپارد	-0.04541007
-3.721059	بسیج	-0.04341911
-3.916705	بشردوستانه‌است	-0.04555472
-3.033491	بشری	-0.06344786
-3.721059	بشریت	-0.04482066
-3.721059	بشمار	-0.04525683
-3.916705	بشمارد	-0.04537654
-3.916705	بشود	-0.04302337
-3.916705	بشوند	-0.04555472
-3.916705	بشگه	-0.04556211
-3.916705	بصری	-0.04473908
-3.721059	بصورت	-0.04530478
-3.916705	بصورتی	-0.04492136
-3.916705	بطلان	-0.04559205
-3.916705	بطلبم	-0.04559205
-3.683843	بطوری	-0.08694381
-3.112672	بطوریکه	-0.03064361
-3.916705	بطول	-0.04559205
-3.916705	بعدی	-0.04356236
-3.916705	بعلت	-0.04510825
-3.112672	بعمل	-0.04207622
-3.916705	بعنوان	-0.04356236
-3.683843	بعهده	-0.03683979
-3.916705	بغداد	-0.04547954
-3.916705	بغیر	-0.04559205
-3.916705	بقا	-0.0453287
-3.916705	بقای	-0.04559205
-3.916705	بقدری	-0.04507471
-3.916705	بلایای	-0.04467193
-3.916705	بلندی	-0.04497404
-3.916705	بمانم	-0.04559205
-3.916705	بمانیم	-0.04559205
-3.916705	بن	-0.04553944
-3.721059	بنا	-0.04526742
-3.916705	بنابراین	-0.04556333
-3.916705	بنام	-0.04431684
-3.916705	بناهای	-0.04537654
-3.721059	بنای	-0.04387971
-3.721059	بنحو	-0.04548681
-3.916705	بنحوی	-0.04386525
-3.916705	بند	-0.04534302
-3.916705	بندرسازی	-0.04559205
-3.727548	بنظر	-0.04437932
-3.916705	بنماید	-0.0424162
-3.916705	بنمایند	-0.04517534
-3.916705	بنوبه	-0.04346136
-3.916705	بنگاه	-0.04530948
-3.916705	بنگاه‌های	-0.04547711
-3.683843	بنیاد	-0.04386151
-3.916705	بنیان	-0.04556333
-3.916705	بنیانگذاری	-0.1905636
-3.916705	بنیان‌گذاری	-0.04559205
-3.916705	بنیه	-0.04425442
-3.916705	بهای	-0.04480623
-3.209582	بهبود	-0.07300954
-3.916705	بهتری	-0.04406707
-3.916705	بهداری	-0.03763045
-2.998729	بهداشت	-0.1408395
-3.209582	بهداشتی	-0.1082034
-3.916705	بهرحال	-0.04530948
-3.15843	بهره	-0.07125616
-3.209582	بهره‌برداری	-0.04185177
-3.916705	بهره‌مند	-0.0439998
-3.916705	بهسازی	-0.04537654
-3.916705	بهم	-0.04477265
-3.916705	بهمان	-0.04505558
-3.916705	بهمراه	-0.04537654
-3.727548	بهمن	-0.2569157
-3.916705	به‌خصوص	-0.04556211
-3.916705	به‌هیچ‌وجه	-0.04525684
-3.033491	بوجود	-0.06428769
-3.033491	بود	-0.09586214
-3.15843	بودجه	-0.06613005
-3.916705	بودند	-0.04147002
-3.413702	بوده	-0.04398429
-2.998729	بوده‌است	-0.0350621
-3.916705	بوده‌ایم	-0.04559205
-3.916705	بور	-0.04537654
-3.916705	بوروکراسی	-0.04559205
-3.267574	بوسیله	-0.07806067
-3.916705	بوشهر	-0.04559205
-3.916705	بوظایف	-0.04470551
-3.721059	بپردازند	-0.04224739
-3.916705	بپردازیم	-0.04556333
-3.916705	بپیماید	-0.04556333
-3.916705	بکرات	-0.04559205
-3.413702	بکلی	-0.04156675
-3.916705	بکند	-0.04556211
-3.916705	بکنیم	-0.04553944
-3.916705	بکوشد	-0.04559205
-3.916705	بکوشند	-0.0448398
-3.916705	بکوشیم	-0.04359603
-3.916705	بکیفر	-0.04559205
-3.916705	بگردد	-0.04559205
-3.916705	بگوئیم	-0.04559205
-3.916705	بگیرد	-0.04467193
-3.916705	بیافتد	-0.04556333
-3.721059	بیان	-0.04527481
-3.916705	بیاید	-0.0453239
-3.916705	بیخ	-0.04559205
-3.916705	بیسابقه	-0.04530948
-2.936581	بیست	-0.677528
-3.916705	بیستمین	-0.04282107
-3.916705	بیست‌ساله	-0.04556211
-3.916705	بیست‌وسوم	-0.04494049
-3.916705	بیست‌وهفت	-0.04416793
-3.916705	بیسوادان	-0.04559205
-3.267574	بیسوادی	-0.02642817
-3.916705	بیشترین	-0.04376431
-3.916705	بیشماری	-0.04559205
-3.916705	بیعدالتی‌ها	-0.04309078
-3.916705	بیغرضانه	-0.04527595
-3.916705	بیغرضی	-0.04556211
-3.916705	بیمار	-0.04559205
-3.916705	بیمارستان	-0.04510826
-3.916705	بیمارستان‌های	-0.04553944
-3.916705	بیماری	-0.0452233
-3.916705	بیماری‌ها	-0.04537654
-3.071279	بیمه	-0.03923274
-3.916705	بیمه‌ها	-0.0452233
-3.721059	بیمه‌های	-0.1337341
-3.916705	بیمورد	-0.03982384
-3.916705	بینی	-0.04463835
-2.62131	بین‌المللی	-0.04143088
-3.916705	بیگانه	-0.04302337
-3.916705	بیگانگان	-0.04538713
-3.916705	بی‌آنکه	-0.04559205
-3.916705	بی‌تناسب	-0.04556211
-3.916705	بی‌خبر	-0.04556333
-3.916705	بی‌درنگ	-0.04559205
-3.727548	بی‌سابقه	-0.04090525
-3.916705	بی‌سواد	-0.0452233
-3.916705	بی‌سوادی	-0.03834656
-3.916705	بی‌عدالتی	-0.04303786
-3.916705	بی‌عدالتی‌ها	-0.04559205
-3.916705	بی‌فایده	-0.04510825
-3.916705	بی‌نظیر	-0.04542448
-3.916705	بی‌نقص	-0.04527595
-3.916705	بی‌نهایتی	-0.04555472
-3.916705	بی‌نیاز	-0.04548077
-3.916705	بی‌وقفه	-0.04356236
-3.916705	تأثر	-0.04559205
-3.727548	تأثیر	-0.04317266
-3.916705	تأثیرات	-0.04559205
-3.721059	تأخیر	-0.04541951
-3.916705	تأسف	-0.1905636
-2.770249	تأسیس	-0.07068484
-3.916705	تأسیسات	-0.04416794
-3.916705	تألّمات	-0.04556211
-2.45946	تأمین	-0.08115099
-3.916705	تأمینیه	-0.04520888
-3.727548	تأیید	-0.04457483
-3.071279	تأییدات	-0.7847647
-3.916705	تاب	-0.04559205
-3.916705	تابحال	-0.04356236
-3.916705	تابع	-0.04559205
-2.790453	تاریخ	-0.2928654
-3.15843	تاریخی	-0.03365816
-3.916705	تاریک	-0.04559205
-3.916705	تاریکی	-0.04507471
-3.15843	تازه‌ای	-0.03761098
-3.916705	تازگی	-0.04556211
-3.727548	تامین	-0.04446926
-3.916705	تامینیه	-0.04418596
-3.916705	تایید	-0.04497404
-3.916705	تاییدات	-0.04453759
-3.916705	تباه	-0.04559205
-3.916705	تبحر	-0.04376431
-3.916705	تبدیل	-0.04559205
-3.916705	تبعیت	-0.1895566
-3.721059	تبعیض	-0.04433485
-3.916705	تبلیغات	-0.04559205
-3.916705	تبهکاران	-0.04559205
-3.721059	تثبیت	-0.04342768
-3.916705	تجارب	-0.04551072
-3.916705	تجاربی	-0.04534302
-3.916705	تجارت	-0.04488397
-3.721059	تجاوز	-0.04534188
-3.683843	تجدید	-0.2369291
-3.916705	تجدیدنظر	-0.04406707
-3.916705	تجربه	-0.04556211
-3.916705	تجربه‌های	-0.04559205
-3.916705	تجربیات	-0.04527595
-3.916705	تجلی	-0.04460477
-3.727548	تجهیز	-0.04427939
-3.916705	تحرک	-0.04379797
-3.916705	تحریکات	-0.04559205
-3.15843	تحصیل	-0.03500544
-3.721059	تحصیلات	-0.04426878
-3.721059	تحصیلند	-0.04358164
-3.916705	تحصیلکرده	-0.03834656
-3.15843	تحصیلی	-0.06925258
-2.882223	تحقق	-0.03786841
-3.916705	تحقیق	-0.04520889
-3.721059	تحقیقات	-0.0401972
-3.916705	تحقیقاتی	-0.04482424
-3.916705	تحقیقی	-0.04559205
-3.727548	تحمل	-0.04432041
-3.413702	تحمیل	-0.04301864
-3.112672	تحول	-0.06482764
-3.683843	تحولات	-0.04302346
-3.916705	تحولی	-0.04559205
-3.727548	تحکیم	-0.04453645
-3.916705	تخریب	-0.04559205
-3.916705	تخصص	-0.04086068
-3.916705	تخصصی	-0.04489136
-3.916705	تخصیص	-0.04490693
-3.721059	تدارک	-0.04544947
-3.916705	تدافعی	-0.03982384
-3.916705	تداوم	-0.04555472
-3.916705	تدریج	-0.0455021
-3.916705	تدریجاً	-0.04515622
-3.916705	تدوین	-0.04534302
-2.62131	تذکر	-0.2695458
-3.916705	تذکرداده‌ایم	-0.0450076
-3.916705	تذکردادیم	-0.04534302
-3.916705	تراخم	-0.0444032
-3.916705	ترازنامه	-0.0450927
-3.916705	ترازنامه‌ای	-0.04527595
-3.916705	تراورس	-0.04490693
-3.916705	تراکتورسازی	-0.04559205
-3.683843	تربیت	-0.04339286
-3.916705	تربیتی	-0.0425512
-2.790453	ترتیب	-0.06170737
-3.727548	ترتیبی	-0.03777066
-3.916705	تردید	-0.04556333
-3.916705	ترفیع	-0.04547711
-2.966544	ترقی	-0.04580215
-3.209582	ترقیات	-0.04235461
-3.916705	ترقیاتی	-0.03834656
-3.15843	ترویج	-0.213039
-3.916705	ترکیب	-0.04507471
-3.916705	ترکیه	-0.04547711
-3.916705	تری	-0.04473908
-3.916705	تریاک	-0.04497404
-3.916705	تز	-0.04517534
-3.916705	تساوی	-0.1900604
-3.916705	تسریع	-0.04470551
-3.916705	تسلط	-0.04477265
-3.916705	تسهیل	-0.044336
-3.916705	تسهیلات	-0.04555472
-3.916705	تشبث	-0.04559205
-3.916705	تشبید	-0.04556333
-3.721059	تشخیص	-0.04490221
-3.916705	تشدید	-0.04559205
-3.916705	تشرک	-0.04520888
-3.727548	تشریک	-0.4238437
-3.916705	تشنج	-0.04477265
-3.413702	تشویق	-0.04337961
-2.770249	تشکیل	-0.03004162
-3.916705	تشکیلات	-0.04455203
-3.721059	تشیید	-0.04545686
-3.916705	تصادف	-0.04559205
-3.916705	تصدیق	-0.04559205
-3.916705	تصرف	-0.04559205
-3.916705	تصریح	-0.1907791
-3.916705	تصفیه	-0.03834656
-3.727548	تصمیم	-0.04503262
-3.721059	تصمیمات	-0.04280666
-3.916705	تصمیماتی	-0.04547215
-3.916705	تصمیمی	-0.04559205
-3.916705	تصور	-0.04113161
-2.908552	تصویب	-0.0511954
-3.916705	تضاد	-0.04559205
-3.916705	تضعیف	-0.04396617
-3.721059	تضمین	-0.04492492
-3.916705	تضییغ	-0.04541007
-3.683843	تطبیق	-0.08747695
-3.916705	تعادل	-0.04556333
-3.727548	تعالی	-0.04173582
-3.916705	تعاون	-0.04510825
-2.908552	تعاونی	-0.06885413
-3.916705	تعاونی‌ها	-0.04559205
-3.727548	تعاونی‌های	-0.0442638
-2.650274	تعداد	-0.09589043
-3.916705	تعدیل	-0.04494049
-3.916705	تعرض	-0.04542448
-3.916705	تعقیب	-0.04559205
-3.916705	تعلل	-0.04473908
-3.721059	تعلیمات	-0.04435044
-3.413702	تعمیم	-0.03670681
-3.916705	تعهدات	-0.04527595
-3.721059	تعیین	-0.04462277
-3.721059	تغذیه	-0.04320636
-3.916705	تغییر	-0.04482066
-3.916705	تغییرات	-0.04541007
-3.916705	تغییرناپذیر	-0.04559205
-2.998729	تفاهم	-0.1654291
-3.916705	تفاهمی	-0.04497404
-3.916705	تفاوت	-0.04534302
-3.916705	تفرقه	-0.04559205
-3.916705	تفسیر	-0.04559205
-3.916705	تفضلات	-0.04530948
-3.916705	تفکر	-0.04556211
-3.916705	تقارن	-0.04559205
-3.916705	تقاضا	-0.04512268
-3.916705	تقاضای	-0.04494049
-3.721059	تقدیر	-0.04411514
-3.413702	تقسیم	-0.04207377
-3.916705	تقسیم‌بندی	-0.04556211
-3.916705	تقلید	-0.04559205
-3.916705	تقلیل	-0.04555472
-3.916705	تقنینه	-0.04510825
-2.790453	تقنینیه	-0.0428813
-2.770249	تقویت	-0.06815816
-3.727548	تلاش	-0.0425657
-3.916705	تلاشی	-0.04559205
-3.916705	تلاش‌های	-0.04547711
-3.916705	تلخ	-0.04559205
-3.916705	تلف	-0.04559205
-3.916705	تلفنی	-0.04553944
-3.916705	تلویزیون	-0.04366335
-3.727548	تلویزیونی	-0.04456263
-3.916705	تلکس	-0.04490693
-3.916705	تلگراف	-0.04559205
-3.916705	تماس	-0.04559205
-3.267574	تمامیت	-0.1908152
-3.916705	تمایل	-0.04537654
-3.916705	تمایلات	-0.04473908
-3.15843	تمدن	-0.0685892
-3.916705	تمرکز	-0.04356236
-3.916705	تمهید	-0.04534302
-3.916705	تن	-0.04559205
-3.727548	تناسب	-0.0451177
-3.916705	تنبیه	-0.04450399
-3.916705	تندرستی	-0.0448878
-3.15843	تنظیم	-0.03593535
-3.916705	تنه	-0.04497404
-3.916705	تنهائی	-0.04416793
-3.916705	تنهایی	-0.04450399
-3.916705	تنگناها	-0.04559205
-3.683843	تهدید	-0.136108
-3.727548	تهران	-0.04378236
-3.267574	تهیه	-0.04432538
-3.916705	توأم	-0.04527595
-3.916705	توازن	-0.04303786
-3.916705	توافق	-0.04556211
-3.721059	توانائی	-0.04369701
-3.916705	توانسته‌است	-0.04550949
-3.721059	توانسته‌ایم	-0.0443696
-3.916705	توانگران	-0.04559205
-2.364484	توجه	-0.07001038
-3.916705	توجهات	-0.04559205
-3.721059	توجهی	-0.04373075
-3.916705	توحید	-0.04520888
-3.916705	توده	-0.04530948
-3.916705	توده‌های	-0.04510825
-3.112672	تورم	-0.04257627
-3.916705	تورمی	-0.04537654
-3.683843	توزیع	-0.08826276
-2.54447	توسعه	-0.1188223
-3.916705	توسل	-0.04550949
-3.916705	توضیح	-0.04356237
-3.916705	توضیحی	-0.04556333
-2.998729	توفیق	-0.1170261
-2.811642	تولید	-0.06599665
-3.916705	تولیدات	-0.1898925
-3.916705	تولیدهای	-0.04530948
-3.15843	تولیدی	-0.04274994
-3.413702	تکامل	-0.04458421
-3.916705	تکثیر	-0.04559205
-3.916705	تکدری	-0.04559205
-3.721059	تکلیف	-0.04520417
-3.209582	تکمیل	-0.04017786
-3.916705	تکمیلی	-0.0448398
-3.916705	تکنولوژی	-0.04431684
-3.916705	تکوین	-0.04547711
-3.112672	ثابت	-0.03601378
-3.413702	ثبات	-0.09476937
-3.916705	ثبت	-0.04559205
-2.998729	ثروت	-0.04915276
-3.916705	ثروتمند	-0.04547711
-3.916705	ثروتی	-0.04559205
-3.916705	ثروت‌های	-0.04500761
-3.916705	ثغور	-0.04507471
-3.916705	ثمربخش	-0.04547711
-3.916705	جائی	-0.04559205
-2.650274	جاری	-0.07866142
-3.916705	جالب	-0.04547954
-3.916705	جالبی	-0.04534302
-3.916705	جامع	-0.04537654
-2.413702	جامعه	-0.1607986
-3.916705	جامعه‌است	-0.04520888
-3.727548	جامعه‌ای	-0.04469696
-3.916705	جامعی	-0.04534302
-3.727548	جان	-0.04540422
-3.916705	جانب	-0.0435095
-3.721059	جانبه	-0.04153768
-3.721059	جانبه‌ای	-0.1350482
-3.916705	جاودانی	-0.04494049
-3.916705	جایگزین	-0.04396617
-3.916705	جبران	-0.04559205
-3.916705	جدّیت	-0.04559205
-3.916705	جدی	-0.04512268
-3.916705	جدیت	-0.0450076
-3.916705	جدیدی	-0.04539575
-3.916705	جذب	-0.04559205
-3.916705	جزء	-0.04547711
-3.916705	جزئی	-0.04373066
-3.916705	جزائر	-0.04551072
-3.916705	جزائری	-0.04547711
-3.916705	جزیره	-0.04559205
-3.721059	جسمی	-0.04548681
-3.916705	جشن	-0.04184198
-3.916705	جشن‌های	-0.04559205
-3.916705	جغرافیائی	-0.03987715
-3.721059	جلب	-0.1366974
-3.916705	جلسه	-0.04519456
-3.916705	جلوتر	-0.04530948
-3.916705	جلوه‌گر	-0.04386525
-3.727548	جماهیر	-0.4241982
-3.916705	جمعی	-0.04373066
-3.112672	جمعیت	-0.05589435
-3.727548	جمعیتی	-0.04430239
-3.267574	جمله	-0.04151364
-3.916705	جمهوری	-0.04559205
-3.727548	جنبه	-0.0446298
-3.916705	جنبه‌های	-0.04526163
-3.916705	جنوب	-0.03982384
-3.916705	جنگ	-0.04559205
-3.721059	جنگل	-0.04510354
-3.916705	جنگل‌های	-0.04555472
-3.916705	جنگل‌هایی	-0.04490693
-3.916705	جنگی	-0.04559205
-3.916705	جنگ‌ها	-0.04556211
-3.413702	جهاد	-0.04457492
-2.431431	جهان	-0.03651548
-2.770249	جهانی	-0.04181018
-3.727548	جهش	-0.04271998
-3.916705	جهشی	-0.04482066
-3.209582	جوئی	-0.07333834
-3.916705	جوائز	-0.04555472
-3.916705	جوابگوئی	-0.04541007
-3.916705	جوابگوی	-0.04258495
-3.727548	جوامع	-0.2570465
-3.727548	جوان	-0.1101986
-3.267574	جوانان	-0.111924
-3.916705	جوانمردی	-0.04555472
-3.916705	جوّی	-0.03834656
-3.916705	جویان	-0.04559205
-3.916705	جویی	-0.04507471
-2.998729	حاصل	-0.05492323
-3.916705	حاصله	-0.04356236
-3.916705	حاصلی	-0.04559205
-3.916705	حاضریم	-0.04542448
-3.721059	حافظ	-0.0376987
-3.916705	حال	-0.04530948
-3.721059	حالیکه	-0.03650272
-3.683843	حاکمیت	-0.07744035
-3.916705	حاکی	-0.04527595
-3.916705	حجم	-0.0452233
-3.916705	حجمی	-0.04556333
-2.882223	حد	-0.05304827
-3.916705	حدات	-0.04555472
-3.916705	حداقل	-0.04541007
-3.916705	حدامکان	-0.04389889
-3.727548	حدی	-0.0418903
-3.916705	حذف	-0.04547711
-3.916705	حرف	-0.04559205
-3.916705	حرفه	-0.04530948
-3.209582	حرفه‌ای	-0.04226783
-3.916705	حرکات	-0.04553944
-3.727548	حزب	-0.04204358
-3.727548	حس	-0.1117993
-3.916705	حساب	-0.04534302
-3.916705	حسب	-0.04524242
-2.998729	حسن	-0.1024266
-3.721059	حسنه	-0.04292223
-3.916705	حصول	-0.04556211
-3.916705	حضرت	-0.04559205
-3.916705	حضور	-0.04556333
-3.916705	حفاظت	-0.04517534
-2.62131	حفظ	-0.1059624
-3.727548	حقاً	-0.04496908
-3.209582	حقه	-0.03723158
-2.750944	حقوق	-0.07429998
-3.916705	حقوقی	-0.04559205
-3.916705	حقوق‌ها	-0.04393254
-3.413702	حقوق‌های	-0.09713312
-3.413702	حقیقت	-0.0446372
-3.721059	حقیقی	-0.03242641
-3.071279	حل	-0.04364801
-3.916705	حل‌های	-0.04556211
-3.112672	حمایت	-0.0666954
-3.721059	حمل	-0.3616693
-3.916705	حوائج	-0.04527595
-3.112672	حوادث	-0.06944028
-3.916705	حوادثی	-0.04282107
-3.727548	حوزه	-0.04486145
-3.916705	حکم	-0.04556211
-3.721059	حکمفرما	-0.04341206
-3.727548	حکومت	-0.04397948
-3.916705	حکومتی	-0.04396617
-3.916705	حیات	-0.1873669
-3.683843	حیاتی	-0.03625931
-3.267574	حیث	-0.04258029
-3.727548	حیثیت	-0.04158603
-3.916705	حیثیتی	-0.04537654
-3.916705	خائنین	-0.04559205
-3.683843	خاتمه	-0.08562548
-3.209582	خارج	-0.1294265
-3.721059	خارجه	-0.0454269
-2.750944	خارجی	-0.02568066
-3.267574	خاص	-0.03472347
-3.916705	خاصه	-0.04517534
-3.727548	خاصی	-0.04317266
-3.413702	خاطر	-0.04424489
-3.916705	خاطرنشان	-0.04556333
-3.916705	خالص	-0.04559205
-3.916705	خالصجات	-0.04470551
-3.916705	خالی	-0.04553944
-3.209582	خانه	-0.1344191
-3.916705	خانه‌ها	-0.04553944
-3.267574	خانه‌های	-0.2009515
-3.413702	خانواده	-0.04340856
-3.916705	خانواده‌ها	-0.04520889
-3.721059	خانواده‌های	-0.3599724
-3.916705	خانوادگی	-0.04559205
-3.112672	خانوار	-0.7424121
-3.916705	خانگی	-0.04559205
-3.683843	خاورمیانه	-0.1363163
-3.916705	خاورمیانه‌است	-0.04527595
-3.916705	خاویار	-0.04490693
-3.683843	خاک	-0.04508685
-3.916705	خاکی	-0.04559205
-3.916705	خبرگی	-0.04559205
-3.727548	خداداد	-0.1044043
-3.916705	خداداده	-0.04295595
-2.594158	خداوند	-0.6068523
-3.916705	خدماتی	-0.04507471
-2.882223	خدمت	-0.09903388
-3.916705	خدمتگزار	-0.04396617
-3.916705	خدمتگزاران	-0.04537654
-3.916705	خدمتگزاری	-0.04556211
-3.916705	خراسان	-0.04469116
-3.916705	خرده‌فروشی	-0.03834656
-3.916705	خرسندی	-0.04553944
-3.727548	خرید	-0.04494057
-3.916705	خریدار	-0.04555472
-3.916705	خریداری	-0.0453239
-3.916705	خستگی‌ناپذیر	-0.04553944
-3.916705	خشخاش	-0.04369701
-3.916705	خشکسالی	-0.04530948
-3.916705	خصائص	-0.04550949
-3.209582	خصوص	-0.03596489
-2.882223	خصوصی	-0.04029173
-3.916705	خصومت	-0.04555472
-3.916705	خط	-0.04485423
-3.916705	خطاکاران	-0.04537654
-3.727548	خطر	-0.04512275
-3.916705	خطرات	-0.04559205
-3.916705	خطراتی	-0.04555472
-3.916705	خطرناک	-0.04553944
-3.916705	خطرناک‌ترین	-0.04556211
-3.916705	خطری	-0.04261869
-3.916705	خطوط	-0.04525684
-3.727548	خطیر	-0.03757685
-3.267574	خطیری	-0.0786125
-3.916705	خط‌مشی	-0.04556333
-3.916705	خلاصی	-0.04556333
-3.916705	خلاف	-0.04553944
-3.721059	خلاقه	-0.04450643
-3.916705	خلاقیت	-0.04384607
-3.267574	خلع	-0.366053
-3.916705	خلع‌سلاح	-0.04555472
-3.916705	خلق	-0.04559205
-3.916705	خللی	-0.04556333
-3.071279	خلیج	-0.2195853
-3.916705	خوادهد	-0.04386525
-3.916705	خواربار	-0.04473908
-3.916705	خواستار	-0.04520888
-3.916705	خواستارم	-0.04467193
-3.916705	خواستاریم	-0.04547337
-3.916705	خواهان	-0.0452233
-3.916705	خواهدبود	-0.04420156
-3.916705	خواهدداشت	-0.04460476
-3.916705	خواهدرسید	-0.04556333
-3.916705	خواهدشد	-0.0448398
-3.916705	خواهدکرد	-0.04389889
-3.916705	خواهندبود	-0.04559205
-3.916705	خواهندشد	-0.04383161
-3.916705	خواهیم‌بود	-0.04504116
-3.916705	خواهیم‌داشت	-0.04555472
-3.916705	خواهیم‌ساخت	-0.04556333
-3.721059	خواهیم‌کرد	-0.0453431
-3.727548	خوبی	-0.04525212
-3.727548	خود	-0.04393262
-3.916705	خودداری	-0.04367782
-3.916705	خودمان	-0.04559205
-3.916705	خودکفایی	-0.04555472
-3.916705	خودگذشتگی	-0.04453759
-3.916705	خوراک	-0.04559205
-3.916705	خوراکی	-0.04535743
-3.916705	خورده	-0.04537654
-3.916705	خوزستان	-0.04556211
-3.916705	خوشبخت	-0.04550949
-3.916705	خوشبختی	-0.04559205
-3.916705	خوشبخت‌ترین	-0.04524242
-3.916705	خوشنودی	-0.04530949
-3.916705	خوشوقت	-0.04497404
-3.413702	خوشوقتی	-0.09161475
-3.916705	خوشوقتیم	-0.04510826
-3.916705	خوشی	-0.04530948
-3.916705	خوی	-0.04510825
-3.916705	خویش	-0.04556211
-3.916705	خیال	-0.04556333
-3.721059	خیانت	-0.04548681
-3.916705	خیرخواهی	-0.04559205
-3.413702	خیریه	-0.04426406
-3.916705	دائم	-0.04559205
-3.721059	دائمی	-0.04410069
-3.916705	داخله	-0.04295595
-3.033491	داخلی	-0.03783037
-3.916705	داد	-0.04559205
-3.916705	دادم	-0.04559205
-3.916705	داده	-0.0444368
-3.413702	داده‌است	-0.0353868
-3.15843	داده‌ایم	-0.04059451
-3.916705	داده‌شود	-0.04416794
-3.916705	داده‌می‌شود	-0.04467193
-3.267574	دادگستری	-0.03779998
-3.916705	دارا	-0.04556211
-3.916705	داراد	-0.04556211
-3.267574	دارای	-0.08092313
-3.916705	دارایی	-0.04559205
-3.683843	دارد	-0.0420098
-3.721059	دارند	-0.04441765
-3.916705	دارو	-0.04530948
-3.916705	داروهای	-0.04559205
-3.916705	دارید	-0.04542448
-3.916705	داریم	-0.04547711
-3.916705	داریوش	-0.04556333
-3.727548	داشت	-0.1109385
-3.683843	داشته‌است	-0.04087524
-3.916705	داشته‌ایم	-0.0453239
-3.916705	داشته‌باشد	-0.0444704
-3.916705	داشته‌باشند	-0.04453759
-3.916705	دام	-0.04555472
-3.916705	دامنة	-0.04473908
-3.916705	دامنه	-0.04559205
-3.916705	دامنه‌داری	-0.0455021
-3.916705	دامی	-0.04555472
-3.916705	دانست	-0.04282107
-3.916705	دانسته	-0.04559205
-2.966544	دانش	-0.1468831
-3.267574	دانشجویان	-0.04082089
-3.916705	دانشسراهای	-0.04559205
-3.721059	دانشگاه	-0.1325958
-3.916705	دانشگاههای	-0.04295595
-3.916705	دانشگاهی	-0.03735733
-3.413702	دانشگاه‌ها	-0.04341206
-3.721059	دانشگاه‌های	-0.03706818
-3.916705	دانش‌آموزان	-0.04527595
-3.727548	داوری	-0.04380859
-3.916705	داوطلب	-0.04547711
-3.916705	دایمی	-0.04416793
-3.916705	دبستان	-0.04457118
-3.916705	دبستان‌ها	-0.04465279
-3.916705	دبیر	-0.0443696
-3.916705	دبیرستان	-0.04463835
-3.916705	دبیرستانی	-0.04559205
-3.916705	دبیرستان‌ها	-0.04547711
-3.916705	دبیرستان‌های	-0.03834656
-3.916705	دخالت	-0.04384607
-3.916705	دخالت‌ها	-0.04559205
-3.721059	دختر	-0.1366111
-3.916705	دختران	-0.04553944
-2.936581	درآمد	-0.09541058
-3.916705	درآمدهای	-0.04530948
-3.916705	درآید	-0.04460477
-3.727548	دراز	-0.04522216
-3.916705	درازی	-0.04556333
-3.209582	درجه	-0.07326196
-3.916705	درخت	-0.0450256
-3.916705	درختان	-0.04556211
-3.721059	درخشان	-0.03791805
-3.916705	درخواهدآمد	-0.044216
-3.916705	دردها	-0.04556333
-3.916705	دردهای	-0.04309078
-3.916705	درس	-0.04147002
-3.916705	درسال	-0.04463835
-3.916705	درسی	-0.04559205
-2.469219	درصد	-0.1079759
-3.721059	درمان	-0.04426406
-3.209582	درمانی	-0.04248256
-3.916705	درمورد	-0.04538713
-3.916705	درنیامده‌بود	-0.04559205
-3.721059	درک	-0.04468636
-3.727548	درگاه	-0.2573385
-3.916705	دریا	-0.04524242
-3.916705	دریاست	-0.04559205
-3.727548	دریافت	-0.04491664
-3.916705	دریافتن	-0.04559205
-3.916705	دریافته‌اند	-0.04559205
-3.916705	دریای	-0.04553944
-3.916705	دریایی	-0.0452233
-3.916705	دزدان	-0.04550949
-3.916705	دزدی	-0.04537654
-2.770249	دست	-0.0437067
-3.916705	دستاوردهای	-0.04556333
-3.916705	دستبرد	-0.04537654
-3.721059	دسترس	-0.04350566
-3.916705	دسترنج	-0.04470551
-3.727548	دسته	-0.1104726
-3.916705	دسته‌جمعی	-0.04492136
-3.727548	دستور	-0.1095778
-3.916705	دستورهای	-0.04416793
-3.112672	دستگاه	-0.1235994
-3.916705	دستگاههای	-0.04499204
-3.916705	دستگاهی	-0.04556333
-3.916705	دستگاه‌ها	-0.04356236
-3.727548	دستگاه‌های	-0.04081109
-3.916705	دستی	-0.04510825
-3.916705	دست‌رنج	-0.04547711
-3.916705	دشمن	-0.04559205
-3.916705	دشمنی	-0.04559205
-3.916705	دشوار	-0.04433599
-3.916705	دعا	-0.04559205
-3.916705	دعای	-0.04556211
-3.209582	دفاع	-0.04007968
-3.727548	دفاعی	-0.03268782
-3.916705	دفتر	-0.04559205
-3.916705	دفع	-0.0452233
-3.916705	دفعه	-0.04467193
-3.209582	دقت	-0.04297994
-3.112672	دقیق	-0.03982393
-3.721059	دقیقاً	-0.04362854
-3.916705	دقیقه‌ای	-0.04556333
-3.916705	دل	-0.04367782
-3.683843	دلار	-0.04328797
-3.916705	دلگرمی	-0.04356236
-3.721059	دلیل	-0.04441765
-3.916705	دموکراتیک	-0.03829306
-3.413702	دموکراسی	-0.03633043
-3.916705	دمکراتیک	-0.0443696
-3.916705	دمکراسی	-0.03861907
-3.071279	دنبال	-0.03647813
-3.916705	دنباله	-0.04517534
-2.882223	دنیا	-0.03827626
-3.916705	دنیائی	-0.04520888
-3.071279	دنیای	-0.1356406
-3.916705	ده	-0.04450399
-3.683843	دهات	-0.03173506
-3.916705	دهد	-0.04416793
-3.916705	دهساله	-0.04470551
-3.916705	دهقان	-0.04556333
-3.916705	دهقانان	-0.04386525
-3.916705	دهند	-0.0455021
-3.916705	دهکده	-0.03834656
-3.916705	ده‌ها	-0.04527595
-2.882223	دو	-0.2237501
-3.413702	دوازده	-0.03706943
-3.916705	دوازدهم	-0.04559205
-3.721059	دوام	-0.04512747
-3.267574	دور	-0.07115038
-3.916705	دورافتاده	-0.04547711
-3.071279	دوران	-0.04383188
-3.916705	دوراندیشی	-0.04541007
-3.721059	دورانی	-0.04483508
-3.916705	دوران‌های	-0.04559205
-3.916705	دورنماها	-0.04555472
-2.188393	دوره	-0.3535281
-3.721059	دوره‌های	-0.04483508
-3.721059	دوست	-0.04458561
-3.721059	دوستان	-0.03926557
-3.721059	دوستانه	-0.04383046
-3.209582	دوستی	-0.04380395
-3.916705	دوش	-0.04532008
-3.916705	دوشادوش	-0.04453759
-3.727548	دول	-0.04327374
-2.364484	دولت	-0.04931328
-3.916705	دولتها	-0.04524242
-2.882223	دولتی	-0.07301686
-3.916705	دولت‌ها	-0.04428803
-3.721059	دولت‌های	-0.0454269
-3.916705	دومی	-0.04396617
-3.727548	دومین	-0.1086668
-3.916705	دوهزاروپانصدمین	-0.04147002
-3.209582	دویست	-0.216493
-3.916705	دِه	-0.04556333
-3.916705	دچار	-0.04559205
-3.721059	دگرگون	-0.04513709
-3.916705	دید	-0.04559205
-3.916705	دیده‌است	-0.04559205
-3.916705	دیده‌ایم	-0.04559205
-3.916705	دیدید	-0.04430239
-3.916705	دیدیم	-0.04530948
-3.916705	دیرباز	-0.04556211
-3.916705	دیرینه	-0.1887494
-3.916705	دیماه	-0.04386525
-3.721059	دین	-0.04542935
-3.916705	دیواری	-0.04556333
-3.916705	دیوانگان	-0.04559205
-3.721059	دیگر	-0.0411316
-3.916705	دیگی	-0.04556211
-3.916705	ذات	-0.04559205
-3.727548	ذخائر	-0.1060726
-3.916705	ذخایر	-0.04559205
-3.916705	ذخیره	-0.04463835
-3.916705	ذخیره‌ای	-0.0448398
-3.721059	ذوب	-0.136574
-3.916705	ذوق	-0.04547711
-3.916705	ذوق‌های	-0.04541007
-3.727548	ذکر	-0.04518505
-3.916705	ذکور	-0.04386525
-3.916705	رأی	-0.04559205
-3.916705	رئوس	-0.04559205
-3.916705	رئیس	-0.04295595
-3.916705	رابطه	-0.04559205
-3.721059	راجع	-0.04488779
-3.721059	رادیوئی	-0.04523868
-3.413702	راسخ	-0.03648321
-3.916705	راضی	-0.04559205
-3.916705	راقیه	-0.04470551
-3.916705	ران	-0.04556211
-3.916705	رانی	-0.03978601
-3.916705	راهسازی	-0.04559205
-3.916705	راهنما	-0.04559205
-3.916705	راهنمائی	-0.0455021
-3.916705	راهنمای	-0.04450399
-3.916705	راهی	-0.04556211
-3.916705	راه‌آهن	-0.04537654
-3.916705	راه‌سازی	-0.04559205
-3.916705	راه‌ها	-0.04559205
-3.916705	راه‌های	-0.04559205
-3.916705	رایگان	-0.0453287
-3.916705	رباط	-0.04559205
-3.916705	رحم	-0.04556211
-3.916705	رخت	-0.04559205
-3.916705	رخنه	-0.04559205
-3.721059	ردیف	-0.04418238
-3.727548	رسالت	-0.1112408
-3.916705	رسانیدن	-0.04530948
-3.916705	رستاخیز	-0.04217985
-3.916705	رسد	-0.04520888
-3.916705	رسمی	-0.04119932
-3.916705	رسمیت	-0.04507471
-3.916705	رسید	-0.04494049
-3.413702	رسیدن	-0.04426764
-3.112672	رسیده‌است	-0.06429908
-3.916705	رسیده‌ایم	-0.0448398
-3.413702	رسیدگی	-0.04461448
-3.916705	رسیدیم	-0.04541007
-3.916705	رشته‌ای	-0.04553944
-3.721059	رشته‌ها	-0.04468253
-3.267574	رشته‌های	-0.04304858
-2.681308	رشد	-0.2030693
-3.916705	رشدکرده	-0.04556333
-3.413702	رشدی	-0.09762692
-3.916705	رضا	-0.04559205
-3.916705	رضاشاه	-0.04556333
-3.916705	رضایت	-0.04539452
-3.916705	رضایت‌بخش	-0.03739148
-3.916705	رعایا	-0.04541007
-3.071279	رعایت	-0.06472166
-2.908552	رفاه	-0.03316964
-3.916705	رفاهی	-0.04393254
-3.916705	رفاهیت	-0.04473908
-3.916705	رفتار	-0.04559205
-3.683843	رفتن	-0.04314961
-3.916705	رفتند	-0.04497404
-3.916705	رفته‌است	-0.04510825
-3.916705	رفتیم	-0.04547711
-3.071279	رفع	-0.06687912
-3.916705	رقابت	-0.04460476
-3.916705	رقابت‌های	-0.04556333
-2.635551	رقم	-0.09568463
-3.916705	رقمی	-0.04537654
-3.916705	رنج	-0.04559205
-3.916705	رنگین	-0.04555472
-3.916705	رهبری	-0.04559205
-3.916705	رهسپار	-0.04547711
-3.916705	رهنمودن	-0.04510825
-2.811642	روابط	-0.07117082
-3.916705	روان	-0.04559205
-3.916705	روانی	-0.04530948
-3.916705	روبرو	-0.04559205
-2.732461	روح	-0.1166144
-3.916705	روحی	-0.04510825
-3.916705	روحیه	-0.04497405
-3.916705	روحیه‌است	-0.04510825
-3.916705	روحیه‌ای	-0.04532008
-3.916705	رود	-0.04373066
-3.209582	روزافزون	-0.0728631
-3.916705	روزبروز	-0.04502682
-3.721059	روزبه‌روز	-0.04445124
-3.112672	روزی	-0.04150639
-3.916705	روستا	-0.04453759
-2.908552	روستائی	-0.05021758
-3.721059	روستائیان	-0.03751221
-3.683843	روستاها	-0.04423385
-3.413702	روستاهای	-0.1993541
-3.683843	روستایی	-0.0843106
-3.916705	روستاییان	-0.03817617
-3.112672	روشن	-0.06775428
-3.916705	روشنی	-0.04512747
-3.916705	روشن‌شدن	-0.04556211
-3.916705	روغن	-0.04559205
-3.916705	رویه	-0.04559205
-3.916705	رویهم	-0.04556333
-3.721059	رژیم	-0.04344573
-3.916705	رکود	-0.04433599
-3.916705	رکورد	-0.04559205
-2.581193	ریال	-0.1085154
-3.916705	ریشه	-0.04537654
-3.916705	ریشه‌دارتر	-0.04559205
-3.916705	ریشه‌های	-0.04428323
-3.727548	ریشه‌کن	-0.04505443
-3.916705	زا	-0.04547711
-3.916705	زائد	-0.04542448
-3.916705	زائیده	-0.04555472
-3.071279	زارع	-0.08688563
-3.916705	زارعی	-0.04553944
-3.727548	زارعین	-0.04521859
-3.916705	زبان	-0.04553944
-3.916705	زبونی	-0.04490693
-3.916705	زدن	-0.04559205
-3.916705	زده	-0.04559205
-3.916705	زراعت	-0.0450256
-3.721059	زراعتی	-0.04379323
-3.15843	زراعی	-0.03873106
-3.916705	زرع	-0.03834656
-3.916705	زلزله	-0.04559205
-3.916705	زلزله‌زده	-0.04559205
-3.916705	زمره	-0.04527595
-3.033491	زمین	-0.04282852
-3.916705	زمینهای	-0.04555472
-3.916705	زمینه‌ای	-0.04520888
-3.727548	زمینه‌های	-0.1112984
-3.916705	زمینی	-0.04542448
-3.413702	زن	-0.2045734
-3.683843	زنان	-0.02863389
-3.267574	زندگانی	-0.04024571
-2.732461	زندگی	-0.04065448
-3.916705	زور	-0.04555472
-3.916705	زورگوئی	-0.04559205
-3.916705	زیادتر	-0.04507471
-3.916705	زیادتری	-0.04494049
-3.721059	زیادی	-0.04440321
-3.413702	زیان	-0.09537783
-3.916705	زیربنای	-0.04461537
-3.916705	زیربنایی	-0.04443681
-3.413702	زیرزمینی	-0.04159087
-3.916705	زیست	-0.04473908
-3.413702	سابقه	-0.09498958
-3.916705	سابقه‌است	-0.04530948
-3.916705	سابقه‌ای	-0.04505558
-3.916705	ساحلی	-0.04527595
-3.413702	ساخت	-0.04410658
-3.683843	ساختمان	-0.04351924
-3.916705	ساختمانی	-0.04548077
-3.721059	ساختن	-0.04520417
-3.916705	ساختند	-0.04527595
-3.916705	ساده	-0.04559205
-3.727548	سازد	-0.0446372
-2.532888	سازمان	-0.2545313
-3.916705	سازمانهای	-0.04547711
-3.916705	سازمانی	-0.04551072
-3.916705	سازمان‌ها	-0.04553944
-2.998729	سازمان‌های	-0.1034029
-3.916705	سازند	-0.04497404
-3.727548	سازنده	-0.03712899
-3.209582	سازندگی	-0.03368783
-3.683843	سازی	-0.04461309
-3.916705	سازیم	-0.04497404
-3.916705	ساعت	-0.04502203
-3.916705	ساعی	-0.04527595
-2.01925	سال	-0.2646776
-3.916705	سالانه‌ای	-0.04416793
-3.916705	سالم	-0.04371148
-3.112672	ساله	-0.03458446
-3.916705	سالهای	-0.04527595
-3.916705	ساله‌ای	-0.04559205
-3.916705	سالِ	-0.04547711
-3.916705	سالی	-0.04559205
-3.916705	سالیان	-0.04556333
-3.112672	سال‌های	-0.06546424
-3.916705	ساکن	-0.04396617
-3.683843	سایه	-0.08619312
-3.916705	سبب	-0.04559205
-3.916705	سبز	-0.04550949
-3.916705	سبکسرانه	-0.04517534
-3.916705	ستون	-0.04527595
-3.916705	سختگیری	-0.04550949
-3.916705	سختی	-0.04559205
-3.916705	سخنرانی	-0.04559205
-3.916705	سد	-0.04381243
-3.916705	سدهای	-0.04530948
-3.916705	سدّ	-0.04553944
-3.721059	سرانه	-0.130108
-3.916705	سربلند	-0.04524242
-3.916705	سربلندی	-0.04527595
-3.916705	سرخ	-0.04537654
-3.727548	سرزمین	-0.03796681
-3.916705	سرزمین‌های	-0.04535743
-3.916705	سرشارتر	-0.04547711
-3.916705	سرطان	-0.04559205
-3.683843	سرعت	-0.04365487
-3.916705	سرعتی	-0.04410069
-3.916705	سرلوحه	-0.04470551
-3.683843	سرمایه	-0.04426292
-3.916705	سرمایه‌ای	-0.04450399
-3.727548	سرمایه‌های	-0.2575737
-3.071279	سرمایه‌گذاری	-0.06489641
-3.916705	سرمایه‌گذاری‌های	-0.04368263
-3.267574	سرنوشت	-0.03254487
-3.916705	سرپرست	-0.04530948
-3.916705	سرچشمه	-0.04527595
-3.916705	سریعتر	-0.04527595
-3.916705	سریعی	-0.04530948
-3.916705	سریع‌تر	-0.04553944
-2.966544	سطح	-0.05276577
-3.916705	سطحی	-0.04556211
-3.916705	سطوح	-0.043394
-3.112672	سعادت	-0.144051
-3.916705	سعادتمند	-0.04524242
-3.916705	سفارش	-0.04534302
-3.916705	سفری	-0.04541007
-3.916705	سفید	-0.04537654
-3.916705	سقوط	-0.04556211
-3.916705	سل	-0.04559205
-3.267574	سلاح	-0.1203863
-3.683843	سلاح‌های	-0.2583368
-3.916705	سلامت	-0.04396617
-3.916705	سلب	-0.04559205
-3.916705	سلطنت	-0.0453239
-3.916705	سلولوزی	-0.0444368
-3.916705	سمعی	-0.04559205
-2.936581	سنا	-0.143997
-3.916705	سناتورها	-0.04497404
-3.916705	سنای	-0.03987715
-3.916705	سنت	-0.04460476
-3.916705	سنتو	-0.04497404
-3.916705	سنتی	-0.04542448
-3.916705	سندیکای	-0.04551072
-3.916705	سنن	-0.1906641
-3.916705	سنّتی	-0.04416793
-3.727548	سنگین	-0.04315818
-3.916705	سنگینی	-0.04559205
-3.916705	سنگین‌تر	-0.04547711
-2.732461	سه	-0.1138405
-3.727548	سهام	-0.1118688
-3.916705	سهامدار	-0.04490693
-3.15843	سهامی	-0.1618845
-2.908552	سهم	-0.03971609
-3.721059	سهمی	-0.04365862
-3.683843	سهیم	-0.08751553
-3.916705	سهیم‌شدن	-0.04497404
-3.916705	سوء	-0.04559205
-3.916705	سوءاستفاده‌هایی	-0.04556333
-3.916705	سوئیسی	-0.04556333
-3.916705	سواحل	-0.04527595
-3.916705	سواد	-0.04534302
-3.267574	سود	-0.04461936
-3.916705	سودمندی	-0.04537654
-3.721059	سوق	-0.03823955
-3.721059	سومین	-0.04319188
-3.916705	سُنّت‌های	-0.04559205
-3.916705	سپاسگزاری	-0.04559205
-3.916705	سپاه	-0.1903624
-3.916705	سپاهی	-0.1905301
-2.998729	سپاهیان	-0.2654836
-3.916705	سپاه‌های	-0.04517534
-3.916705	سپرد	-0.04373066
-3.916705	سپردن	-0.04356236
-3.916705	سپرده	-0.04356237
-3.916705	سپری	-0.04356237
-3.916705	سکون	-0.04534302
-3.916705	سکونت	-0.04527595
-2.882223	سی	-0.4925827
-3.916705	سیار	-0.04485423
-2.356797	سیاست	-0.2559868
-3.916705	سیاستی	-0.04494049
-3.916705	سیاست‌های	-0.04559205
-2.966544	سیاسی	-0.06825607
-3.916705	سیاسیت	-0.04217985
-3.683843	سیر	-0.04371156
-3.413702	سیزده	-0.03943554
-3.916705	سیزدهم	-0.04467193
-2.54447	سیصد	-1.127774
-3.916705	سیمان	-0.04556333
-3.916705	سی‌وشش‌میلیارد	-0.04555472
-3.683843	شئـون	-0.07694004
-3.033491	شئون	-0.08697449
-3.916705	شائبه	-0.04559205
-3.916705	شائبه‌ای	-0.04559205
-3.721059	شاخص	-0.04463363
-3.916705	شادباش‌هایی	-0.04559205
-3.916705	شادی	-0.04559205
-3.916705	شالوده	-0.04453759
-3.727548	شامل	-0.04090911
-3.916705	شانزدهمین	-0.04282107
-3.916705	شانه	-0.04559205
-3.267574	شاه	-0.2149486
-3.209582	شاهد	-0.04352283
-3.916705	شاهنشاه	-0.03987715
-3.209582	شاهنشاهی	-0.132511
-3.916705	شایان	-0.04452201
-3.916705	شایانی	-0.04559205
-3.916705	شایسته	-0.04555472
-3.721059	شایسته‌است	-0.04485903
-3.916705	شایسته‌ای	-0.04556333
-3.413702	شایستگی	-0.04236679
-3.916705	شایستۀ	-0.04494049
-3.916705	شباهتی	-0.04497404
-3.267574	شبکه	-0.08164659
-3.916705	شبکه‌های	-0.04548077
-3.916705	شخصی	-0.04534302
-3.916705	شخصیت	-0.04509392
-3.916705	شخصیت‌های	-0.04559205
-3.209582	شد	-0.04205452
-3.916705	شدت	-0.04492136
-3.916705	شدتی	-0.04530948
-3.916705	شدند	-0.04559205
-3.413702	شده	-0.03676767
-2.388396	شده‌است	-0.06655979
-3.721059	شده‌اند	-0.04452904
-3.721059	شده‌ای	-0.04386892
-3.721059	شده‌ایم	-0.04480151
-3.916705	شدیدی	-0.04553944
-3.916705	شدیم	-0.04396617
-3.721059	شرائط	-0.04341911
-3.916705	شرائطی	-0.04559205
-3.916705	شرافتمندی	-0.04559205
-3.209582	شرایط	-0.04310421
-3.916705	شرایطی	-0.04460477
-3.916705	شرط	-0.04416793
-3.916705	شرقی	-0.04547711
-3.112672	شروع	-0.06531387
-2.697699	شرکت	-0.06164229
-3.916705	شرکتها	-0.04510825
-3.721059	شرکتهای	-0.1360228
-3.916705	شرکتی	-0.04550949
-3.413702	شرکت‌ها	-0.0438077
-2.998729	شرکت‌های	-0.3489078
-3.916705	شریک	-0.04559205
-3.033491	شش	-0.05762538
-3.916705	ششصد	-0.0425512
-3.727548	ششم	-0.2585767
-3.916705	ششماهه	-0.04147002
-3.916705	ششمین	-0.04556211
-3.916705	ششگانه	-0.04527595
-2.908552	شصت	-0.7639715
-3.916705	شصت‌ونه‌میلیارد	-0.04555472
-3.721059	شعائر	-0.04440329
-3.916705	شغل	-0.04559205
-3.916705	شغلی	-0.04527595
-3.916705	شق	-0.04524242
-3.721059	شمالی	-0.04472474
-3.916705	شناس	-0.04559205
-3.916705	شناسائی	-0.04460476
-3.916705	شناسایی	-0.04524242
-3.916705	شن‌های	-0.04559205
-3.916705	شهادت	-0.04494049
-3.916705	شهامت	-0.04356236
-3.916705	شهبانوی	-0.04547711
-3.721059	شهر	-0.04542813
-3.916705	شهرداری‌ها	-0.04537654
-3.916705	شهرسازی	-0.04547711
-3.916705	شهرستان	-0.04547711
-3.721059	شهرستان‌ها	-0.04411514
-3.916705	شهرستان‌های	-0.03829306
-3.683843	شهرها	-0.04362594
-3.916705	شهرهائی	-0.04559205
-3.916705	شهرهای	-0.1850642
-3.916705	شهری	-0.044336
-3.916705	شهریور	-0.04386525
-3.916705	شواهدی	-0.04555472
-3.683843	شود	-0.04280429
-3.721059	شور	-0.04545808
-3.916705	شوراها	-0.04048789
-3.727548	شوراهای	-0.2577609
-2.681308	شورای	-1.472969
-3.727548	شوروی	-0.0398432
-3.916705	شوسه	-0.04559205
-3.916705	شومی	-0.04556333
-3.916705	شوند	-0.04457118
-3.916705	شویم	-0.04559205
-3.916705	شک	-0.04356236
-3.916705	شکاف	-0.04555472
-3.916705	شکایات	-0.04559205
-3.727548	شکر	-0.04375959
-3.916705	شکرگزار	-0.04559205
-3.916705	شیر	-0.04510825
-3.916705	شیرازه	-0.04530948
-3.916705	شیلات	-0.04559205
-3.721059	شیمیائی	-0.04500289
-3.916705	شیمیایی	-0.04559205
-3.916705	شیوه	-0.04556211
-3.413702	صاحب	-0.09677218
-3.916705	صاحبان	-0.04435402
-3.721059	صادر	-0.04466818
-3.721059	صادرات	-0.3614502
-3.916705	صادراتی	-0.044504
-3.916705	صادرکننده	-0.04559205
-3.916705	صادقانه	-0.04278735
-3.916705	صبر	-0.04559205
-3.209582	صحنه	-0.1458931
-3.15843	صحیح	-0.04408652
-3.916705	صحیحی	-0.04401784
-3.916705	صحیح‌تر	-0.04467193
-3.916705	صداقت	-0.04325927
-3.916705	صدمات	-0.03834656
-3.916705	صدور	-0.04559205
-3.916705	صراحتاً	-0.04559205
-3.727548	صرف	-0.04507
-3.413702	صرفه	-0.3173393
-3.916705	صرفه‌جویی	-0.04547337
-3.916705	صریح	-0.04504116
-3.916705	صعود	-0.04559205
-3.916705	صفات	-0.04559205
-3.916705	صفحات	-0.04494049
-3.916705	صلاح	-0.04342768
-3.916705	صلاحیت‌های	-0.04537654
-3.15843	صلح	-0.1589044
-3.916705	صلح‌آمیز	-0.04556333
-3.916705	صلح‌خواه	-0.04556333
-3.413702	صمیمانه	-0.0435913
-3.916705	صمیمی	-0.04490693
-2.55637	صنایع	-0.0983274
-3.916705	صنایع۳۵۲	-0.04450399
-3.916705	صندوق‌ها	-0.04559205
-3.15843	صنعت	-0.03752897
-2.665514	صنعتی	-0.04434828
-3.071279	صورتی	-0.06743389
-3.916705	صیانت	-0.04487336
-3.916705	صید	-0.04447041
-3.916705	ضابطه	-0.04559205
-3.413702	ضامن	-0.04336398
-3.916705	ضایعات	-0.04520888
-3.916705	ضد	-0.04559205
-3.916705	ضرر	-0.04555472
-3.209582	ضرورت	-0.07536159
-3.071279	ضروری	-0.03887207
-3.721059	ضعف	-0.04482066
-3.916705	ضعفی	-0.04431684
-3.916705	ضعیف	-0.04559205
-3.916705	ضمانت	-0.04555472
-3.916705	ضوابط	-0.04559205
-3.916705	طالب	-0.04547711
-3.916705	طبع	-0.04556211
-3.112672	طبق	-0.1441091
-3.033491	طبقات	-0.03743051
-3.916705	طبقاتی	-0.04547711
-3.267574	طبقه	-0.04383152
-3.916705	طبقه‌ای	-0.04547711
-3.916705	طبی	-0.04541007
-2.966544	طبیعی	-0.04713193
-3.209582	طرح	-0.04106282
-3.916705	طرح‌ها	-0.04510825
-3.727548	طرح‌های	-0.04532952
-3.916705	طرد	-0.04559205
-3.916705	طرز	-0.04546476
-3.727548	طرفدار	-0.04522338
-3.916705	طرفداران	-0.04555472
-3.916705	طرق	-0.04559205
-3.916705	طریقی	-0.04512268
-3.916705	طنین	-0.04559205
-3.413702	طوری	-0.09704778
-3.721059	طول	-0.1346106
-3.916705	طولانی	-0.03834656
-3.916705	طویل	-0.04282107
-3.916705	ظاهر	-0.04542448
-3.916705	ظرف	-0.04147002
-3.916705	ظرفیت	-0.0451418
-3.916705	ظرفیت‌های	-0.04520888
-3.916705	ظل	-0.04559205
-3.916705	ظهور	-0.04520888
-3.916705	عائله‌ای	-0.04556333
-3.916705	عادتاً	-0.04530948
-3.727548	عادلانه	-0.0449835
-3.916705	عادلانه‌تری	-0.04527595
-3.916705	عادی	-0.04538713
-3.916705	عاری	-0.0455021
-3.916705	عاقلانه	-0.0453239
-3.916705	عالم	-0.04452201
-2.936581	عالی	-0.03745504
-3.683843	عالیه	-0.03896316
-3.916705	عالی‌ترین	-0.04556333
-3.267574	عامل	-0.0791038
-3.916705	عاملی	-0.04559205
-3.916705	عامه	-0.04468994
-3.916705	عاید	-0.04517534
-3.916705	عبارت	-0.04499327
-2.882223	عدالت	-0.5718457
-3.916705	عده	-0.0455021
-3.727548	عده‌ای	-0.03610272
-3.916705	عراق	-0.04362969
-3.727548	عرض	-0.4201049
-3.683843	عرضه	-0.1364064
-3.916705	عزم	-0.04559205
-3.916705	عسرت	-0.04559205
-3.721059	عصر	-0.04520035
-3.721059	عضو	-0.04371147
-3.413702	عظمت	-0.09759119
-3.112672	عظیم	-0.04063337
-3.916705	عظیمی	-0.03826261
-3.916705	عقاید	-0.04559205
-3.916705	عقب‌ماندگی	-0.04559205
-3.209582	عقیده	-0.06807479
-3.721059	علاقمند	-0.04196272
-3.727548	علاقمندی	-0.04437326
-3.683843	علاقه	-0.04321239
-3.916705	علاقه‌ای	-0.04530948
-3.916705	علاقه‌مند	-0.04373066
-3.267574	علاوه	-0.04026875
-3.916705	علایم	-0.04556211
-3.916705	علت	-0.04559205
-3.916705	علم	-0.04550949
-3.683843	علمی	-0.1737526
-3.916705	علوم	-0.04443681
-3.916705	عمان	-0.0443696
-3.916705	عمده‌ای	-0.04517534
-3.916705	عمر	-0.04276812
-3.413702	عمران	-0.04242956
-3.15843	عمرانی	-0.1539757
-3.916705	عمقی	-0.04559205
-3.916705	عمل	-0.04559205
-2.966544	عملی	-0.04361221
-3.916705	عملیات	-0.04537654
-2.681308	عمومی	-0.03725234
-3.727548	عمیق	-0.0424162
-3.916705	عمیقاً	-0.04556211
-3.413702	عمیقی	-0.04465261
-3.916705	عمیق‌تر	-0.04530948
-3.727548	عناصر	-0.04494254
-3.721059	عنایات	-0.04524607
-3.727548	عنایت	-0.1105687
-2.857399	عهده	-0.04748853
-3.683843	عوامل	-0.04353844
-3.916705	عوام‌فریبان	-0.04356236
-3.916705	عوض	-0.04381243
-3.916705	عکس‌العمل	-0.04559205
-3.916705	عیب	-0.04559205
-2.732461	عین	-0.04255304
-3.916705	غافلگیر	-0.04537654
-3.916705	غالب	-0.0452233
-3.916705	غالباً	-0.04534302
-3.916705	غایت	-0.04559205
-3.916705	غذا	-0.04559205
-3.721059	غذائی	-0.04240178
-3.916705	غذایی	-0.04507471
-3.916705	غرس	-0.04555472
-3.916705	غرورانگیز	-0.04559205
-3.916705	غرورانگیزی	-0.04559205
-3.916705	غفلت	-0.04559205
-3.916705	غلات	-0.04556333
-3.916705	غلبه	-0.04504116
-3.916705	غم	-0.04559205
-3.916705	غنی	-0.04559205
-3.916705	غیرسالم	-0.04147002
-3.916705	غیرعادی	-0.04534302
-3.916705	غیرمترقبه	-0.04537654
-3.916705	غیرمنتظره	-0.04537654
-3.916705	غیره	-0.04381243
-3.916705	فئودالیسم	-0.04518976
-3.916705	فائق	-0.04559205
-3.209582	فارس	-0.04258021
-3.916705	فارسی	-0.04556211
-3.916705	فارغ‌التحصیل	-0.04556211
-3.916705	فاسد	-0.04559205
-3.916705	فاصله	-0.04276812
-3.916705	فایده‌ای	-0.04556333
-3.916705	فایق	-0.04547711
-3.916705	فترتی	-0.04460476
-3.916705	فتوحات	-0.04537654
-3.683843	فداکاری	-0.04409963
-3.916705	فدراسیون	-0.04559205
-3.916705	فرآورده‌های	-0.04470551
-3.916705	فرار	-0.04559205
-3.916705	فرارسیدن	-0.04530948
-3.916705	فراغ	-0.04559205
-3.727548	فراموش	-0.04304267
-3.916705	فراموشی	-0.04559205
-3.916705	فرانسه	-0.04559205
-2.908552	فراهم	-0.03586572
-3.916705	فراهم‌آوردن	-0.04497404
-3.721059	فراوان	-0.04440321
-3.916705	فراوانی	-0.04460477
-3.916705	فرخنده	-0.04282107
-3.916705	فرخنده‌ای	-0.04559205
-3.209582	فرد	-0.1917732
-3.916705	فردای	-0.04559205
-3.413702	فردی	-0.09398861
-3.916705	فرزندان	-0.0451418
-3.727548	فرستنده	-0.0451177
-3.916705	فرستنده‌ها	-0.04463835
-3.267574	فرصت	-0.041267
-3.916705	فرصت‌های	-0.04490693
-3.916705	فرعی	-0.04547337
-3.916705	فرقی	-0.04559205
-3.916705	فرمان	-0.04346136
-3.916705	فرمانی	-0.04559205
-3.727548	فرماید	-0.03752813
-3.916705	فرموده‌است	-0.04555472
-2.790453	فرهنگ	-0.1122249
-3.916705	فرهنگستان	-0.04559205
-3.033491	فرهنگی	-0.05489587
-3.916705	فروخته	-0.04494049
-3.916705	فرودگاه	-0.04463835
-3.15843	فروش	-0.04473811
-3.916705	فروشندگان	-0.04559205
-3.916705	فروشی	-0.04147002
-3.916705	فروگذار	-0.04529037
-3.916705	فریب	-0.04559205
-3.916705	فزونتری	-0.04556211
-3.209582	فساد	-0.04507979
-3.916705	فسادی	-0.04356236
-3.916705	فشار	-0.04559205
-3.916705	فصل	-0.04559205
-3.916705	فضائل	-0.1907492
-3.916705	فضای	-0.1903624
-3.916705	فطری	-0.04556211
-3.15843	فعالیت	-0.04208829
-3.916705	فعالیتهای	-0.04537654
-3.721059	فعالیت‌ها	-0.04429767
-2.966544	فعالیت‌های	-0.05134012
-3.916705	فعال‌تر	-0.04389889
-3.916705	فعل	-0.04559205
-3.916705	فقر	-0.04468637
-3.916705	فقیر	-0.04559205
-3.916705	فلات	-0.04559205
-3.916705	فلزات	-0.04559205
-3.916705	فلزی	-0.0448398
-2.882223	فنی	-0.07681686
-3.916705	فهمیده	-0.04487336
-3.916705	فوت	-0.04537654
-3.916705	فوریت	-0.04534302
-3.916705	فوق‌الذکر	-0.04473908
-3.683843	فوق‌العاده	-0.03647939
-3.727548	فوق‌العاده‌ای	-0.0423931
-3.916705	فولاد	-0.04502203
-3.916705	فولادسازی	-0.04559205
-3.727548	فکری	-0.04522338
-3.916705	فیمابین	-0.04510825
-3.916705	فی‌السابق	-0.03834656
-3.916705	قائل	-0.04555472
-3.916705	قابلیت	-0.04556211
-3.721059	قادر	-0.04320636
-3.916705	قاره	-0.04470551
-3.071279	قاطع	-0.04002276
-3.916705	قاطعی	-0.04426878
-3.267574	قاطعیت	-0.04366925
-3.916705	قاطع‌تر	-0.0444704
-3.916705	قانع	-0.04379797
-2.469219	قانون	-0.1010129
-3.15843	قانونگذاری	-0.1730599
-3.916705	قانونگزاری	-0.04504116
-3.071279	قانونی	-0.03834178
-3.916705	قانون‌شکنی	-0.04559205
-3.916705	قانون‌گذاری	-0.04556333
-3.916705	قایق‌های	-0.04559205
-3.916705	قبلی	-0.04559205
-3.683843	قبول	-0.04340848
-3.267574	قبیل	-0.04482082
-3.15843	قدرت	-0.07237548
-3.916705	قدرت‌های	-0.04559205
-3.916705	قدردانی	-0.0448398
-3.727548	قدم	-0.04236802
-3.916705	قدمهای	-0.04519333
-3.721059	قدم‌های	-0.04542813
-3.916705	قدیمی	-0.04534302
-2.581193	قرار	-0.0374123
-3.721059	قرارداد	-0.1359065
-3.721059	قراردادهای	-0.04340847
-3.916705	قراردادی	-0.04547711
-3.916705	قراردهد	-0.04494049
-3.916705	قراردهیم	-0.04555472
-3.916705	قرارگیرد	-0.04556333
-3.727548	قرن	-0.04537671
-3.916705	قرون	-0.04559205
-3.916705	قرونی	-0.04559205
-2.908552	قریب	-0.08167292
-3.916705	قریحه‌ها	-0.04559205
-3.916705	قریحه‌های	-0.04541007
-3.916705	قرین	-0.04510825
-3.916705	قریه	-0.04377494
-2.998729	قسمت	-0.03784125
-3.413702	قسمتی	-0.03687778
-3.916705	قسمت‌های	-0.04502203
-3.916705	قصد	-0.04556333
-3.916705	قصور	-0.04559205
-3.916705	قضائیه	-0.04470551
-3.916705	قضاوت	-0.04477265
-3.413702	قضایی	-0.03586682
-3.916705	قطب‌های	-0.04399981
-3.721059	قطره	-0.044216
-3.916705	قطع	-0.04430239
-3.916705	قطعات	-0.04559205
-3.916705	قطعنامه	-0.04506038
-3.916705	قطعنامه‌ای	-0.04147002
-3.721059	قطعی	-0.04527125
-3.721059	قلبی	-0.04545808
-3.916705	قلم	-0.04559205
-3.916705	قمیتی	-0.04559205
-3.916705	قناعت	-0.04520888
-3.916705	قند	-0.04556333
-3.916705	قهرمانان	-0.04556211
-3.916705	قهریه	-0.04551072
-3.916705	قوام	-0.04556211
-2.811642	قوانین	-0.07392213
-3.413702	قوانینی	-0.04204482
-3.209582	قوای	-0.0769035
-3.916705	قوت	-0.04520888
-3.916705	قومی	-0.04209663
-3.209582	قوه	-0.07678097
-3.916705	قوی	-0.04424962
-3.916705	قویاً	-0.04455203
-3.916705	قوی‌تر	-0.04559205
-3.916705	قیافه	-0.04550949
-3.721059	قیام	-0.1305842
-3.209582	قیمت	-0.07629626
-3.916705	قیمتها	-0.04559205
-3.916705	قیمتی	-0.04559205
-3.267574	قیمت‌ها	-0.04079894
-3.033491	قیمت‌های	-0.1536368
-3.916705	قیود	-0.04556333
-3.916705	لاتین	-0.04147002
-2.469219	لازم	-0.08998117
-3.721059	لازمه	-0.04325926
-3.916705	لازمی	-0.04470551
-3.916705	لال‌های	-0.04555472
-3.727548	لایحه	-0.1077876
-2.882223	لحاظ	-0.03575145
-3.916705	لزوم	-0.04452324
-3.916705	لطف	-0.04556333
-3.916705	لطمه‌ای	-0.04473908
-3.916705	لغزش	-0.04559205
-3.916705	لوازم	-0.04507471
-3.916705	لوایح	-0.04490693
-3.721059	لوله	-0.0454269
-3.916705	لژیون	-0.04559205
-3.916705	لکن	-0.04430239
-3.916705	لیاقت	-0.04356236
-3.916705	لیست‌های	-0.04556211
-3.916705	مآل	-0.04559205
-3.916705	مآلاً	-0.04556333
-3.683843	مؤثر	-0.02874959
-3.727548	مؤثری	-0.04388452
-3.071279	مؤسسات	-0.05598807
-3.916705	مؤسساتی	-0.0451418
-3.916705	مؤسسان	-0.04477267
-3.916705	مؤسسه	-0.04018263
-3.916705	مؤسسه‌ای	-0.04356236
-3.916705	مؤمن	-0.04537654
-3.916705	مؤید	-0.04556211
-3.413702	ما	-0.04247896
-3.916705	مابه	-0.04559205
-3.916705	مادران	-0.04530948
-3.916705	ماده	-0.04529394
-2.998729	مادی	-0.5515907
-3.916705	مازاد	-0.04541007
-3.916705	ماشین	-0.0455021
-3.916705	ماشین‌سازی	-0.04556211
-3.721059	مال	-0.04511191
-3.916705	مالا	-0.04530948
-3.916705	مالاریا	-0.04534302
-3.209582	مالک	-0.04362703
-3.916705	مالکانی	-0.04547711
-3.683843	مالکیت	-0.03643312
-3.916705	مالکین	-0.04547711
-3.267574	مالی	-0.04123324
-3.727548	مالیات	-0.1109913
-3.916705	مالیاتها	-0.04530948
-3.721059	مالیاتی	-0.04486865
-3.916705	مالیات‌هاست	-0.04555472
-3.916705	مالیات‌های	-0.04556333
-3.916705	مانده	-0.04497405
-3.916705	مانده‌است	-0.04473908
-3.916705	مانع	-0.04556211
-3.916705	مانعی	-0.04416793
-3.683843	ماه	-0.04336408
-3.916705	ماهانه	-0.04463835
-3.916705	ماهر	-0.03817617
-3.916705	ماهرتر	-0.04547711
-3.916705	ماهه	-0.04147002
-3.916705	ماهواره‌هایی	-0.04559205
-3.916705	ماهی	-0.04485423
-3.916705	ماهیت	-0.0453239
-3.916705	ماکروویو	-0.04559205
-3.916705	مایحتاج	-0.04473908
-3.916705	مایل	-0.04551072
-3.916705	مایلیم	-0.04510826
-3.112672	مایه	-0.1476987
-3.916705	مبادلات	-0.03834656
-2.811642	مبارزه	-0.07794306
-3.916705	مبالاتی	-0.04559205
-3.916705	مبانی	-0.04529037
-3.916705	مباهات	-0.04520888
-3.916705	مبتکرانه‌ای	-0.04426878
-3.727548	مبذول	-0.03970736
-3.916705	مبرم	-0.04556333
-3.916705	مبشر	-0.0451418
-3.916705	مبلغ	-0.04559205
-3.721059	مبنای	-0.04410069
-3.916705	مبین	-0.04529516
-3.15843	متأسفانه	-0.04374283
-3.916705	متانت	-0.04559205
-3.916705	متبحر	-0.04510825
-3.727548	متجاوز	-0.04474274
-3.916705	متجاوزاست	-0.04556333
-2.857399	متحد	-0.0603862
-3.916705	متحول	-0.03987715
-3.916705	متخصص	-0.04367398
-3.916705	متخصصین	-0.04559205
-3.916705	متداول	-0.04519456
-3.916705	متداوله	-0.04555472
-2.998729	متذکر	-0.09061744
-2.908552	مترقی	-0.06532242
-3.916705	متشکل	-0.04547954
-2.770249	متعال	-0.1485925
-3.683843	متعدد	-0.03820547
-3.916705	متعددی	-0.04426878
-3.916705	متعدیان	-0.04559205
-3.413702	متعلق	-0.0392304
-3.916705	متفق	-0.04534302
-3.413702	متقابل	-0.09571001
-3.916705	متقاضی	-0.04556333
-3.916705	متلاطم	-0.04403343
-3.721059	متمدن	-0.04271989
-3.727548	متناسب	-0.04478709
-3.916705	متنفذ	-0.04426878
-3.413702	متوجه	-0.04281634
-3.071279	متوسط	-0.06401938
-3.916705	متوسطه	-0.04550949
-3.916705	متوسطی	-0.04410069
-3.916705	متوقف	-0.04534302
-3.916705	متُدهای	-0.04470551
-3.727548	متکی	-0.03513184
-3.916705	مثال	-0.04528655
-3.071279	مثبت	-0.04068911
-3.916705	مثبتی	-0.04356236
-3.727548	مثلاً	-0.04283915
-3.916705	مجازات	-0.04553944
-3.916705	مجالس	-0.044504
-3.916705	مجامع	-0.04556333
-3.916705	مجاهدت	-0.04553944
-3.916705	مجتمع‌های	-0.04534302
-3.916705	مجدد	-0.04559205
-3.916705	مجدّانه	-0.04559205
-3.721059	مجریه	-0.04418238
-3.916705	مجسم	-0.04547711
-2.499888	مجلس	-0.5776238
-2.770249	مجلسین	-0.07217982
-3.916705	مجمتع	-0.0444368
-3.727548	مجموع	-0.04331224
-3.916705	مجموعه‌ای	-0.04559205
-3.916705	مجهز	-0.04391336
-3.916705	مجهزتر	-0.04282107
-3.916705	محاسباتی	-0.04559205
-3.916705	محاسبه	-0.04378359
-3.916705	محاکم	-0.04559205
-3.721059	محتاج	-0.04446185
-3.916705	محترم	-0.04555472
-3.721059	محدود	-0.04362969
-3.916705	محدودبودن	-0.04504116
-3.916705	محدودکننده	-0.04553944
-3.916705	محدودیت	-0.0451418
-3.916705	محدودیت‌های	-0.04556211
-3.721059	محروم	-0.04389417
-3.916705	محرک	-0.04530948
-3.721059	محسوس	-0.04438404
-3.916705	محسوسی	-0.04559205
-3.413702	محصلین	-0.04406234
-3.721059	محصول	-0.04435044
-3.721059	محصولات	-0.04410069
-3.916705	محصولاتی	-0.04559205
-3.916705	محصولی	-0.04295595
-3.727548	محفوظ	-0.03992931
-3.721059	محل	-0.04347583
-3.916705	محمدرضاشاه	-0.04559205
-3.916705	محمل	-0.04559205
-3.916705	محنت	-0.04550949
-3.916705	محو	-0.04559205
-3.916705	محول	-0.04559205
-3.916705	محکوم	-0.04556211
-3.071279	محیط	-0.04391721
-3.413702	مخابراتی	-0.04487542
-3.916705	مخارج	-0.04559205
-3.916705	مخاطرات	-0.04553944
-3.916705	مختصری	-0.04530948
-3.916705	مختلفه	-0.04470551
-3.916705	مختلفی	-0.04542448
-3.916705	مخصوسا	-0.04559205
-3.916705	مخصوصا	-0.04541007
-3.916705	مخصوصی	-0.04559205
-3.916705	مد	-0.04473908
-3.916705	مداخله	-0.04524242
-3.916705	مدار	-0.04530948
-3.916705	مدارج	-0.04534302
-3.721059	مدارس	-0.03749391
-3.916705	مدارک	-0.044336
-3.916705	مدافع	-0.04559205
-3.916705	مدت	-0.04477267
-3.916705	مدتی	-0.04418719
-3.916705	مددکاری	-0.04416793
-3.916705	مدرسه‌ها	-0.04490693
-3.721059	مدرن	-0.04527125
-3.916705	مدنی	-0.0450927
-3.413702	مدیریت	-0.04431683
-3.721059	مذاکرات	-0.04534188
-3.721059	مذهبی	-0.04523771
-3.916705	مذکور	-0.04332664
-3.721059	مراتب	-0.04541951
-3.727548	مراتع	-0.04275953
-3.916705	مراجع	-0.04550949
-3.916705	مراجعات	-0.04389889
-3.916705	مراجعه	-0.04524242
-3.916705	مراحل	-0.04553944
-3.916705	مراعات	-0.04518594
-3.267574	مراقبت	-0.0422919
-3.916705	مرام	-0.04507471
-3.209582	مراکز	-0.0439976
-3.071279	مربوط	-0.0589583
-3.916705	مربوطه	-0.04525301
-3.916705	مربیان	-0.04537654
-3.916705	مرتبه	-0.04537654
-3.916705	مرتع	-0.04559205
-3.916705	مرتفع	-0.04515979
-3.721059	مرج	-0.04458178
-3.071279	مرحله	-0.04247528
-3.916705	مرد	-0.04547711
-3.721059	مرداد	-0.04516681
-3.916705	مردان	-0.03834656
-3.916705	مردانگی	-0.04559205
-3.916705	مردمند	-0.04556333
-3.916705	مردمی	-0.04559205
-3.916705	مردن	-0.04460476
-3.916705	مرز	-0.0452233
-3.916705	مرعی	-0.04559205
-3.916705	مرغوبیت	-0.04559205
-3.413702	مرفه	-0.09704681
-3.916705	مرکب	-0.04542448
-3.683843	مرکز	-0.03793155
-3.916705	مرکزیت	-0.03834656
-3.916705	مزاحم	-0.04517534
-3.916705	مزارع	-0.04295595
-3.727548	مزایای	-0.04504321
-3.721059	مزد	-0.04297044
-3.916705	مزدها	-0.0450256
-3.916705	مزرعه	-0.04555472
-3.916705	مزروعی	-0.04463835
-3.916705	مس	-0.04371148
-3.721059	مسأله	-0.04283557
-3.916705	مسؤلیت	-0.04497404
-3.916705	مسؤولیت	-0.04541007
-3.916705	مسئـله	-0.04559205
-3.15843	مسئلت	-0.1494491
-3.916705	مسئله‌ای	-0.04541007
-3.721059	مسئول	-0.0454269
-2.966544	مسئولیت	-0.07404111
-3.916705	مسئولیتهایی	-0.04559205
-3.683843	مسئولیتی	-0.03963951
-3.721059	مسئولیت‌های	-0.04487337
-3.916705	مسئولین	-0.04530948
-3.209582	مسائل	-0.06568648
-3.916705	مسائلی	-0.0444704
-3.916705	مسابقه	-0.04485423
-3.916705	مساعد	-0.04559205
-3.916705	مساعدی	-0.04356236
-2.998729	مساعی	-0.07960408
-3.916705	مسالمت	-0.1907492
-3.916705	مسالمت‌آمیز	-0.04471994
-3.916705	مساوات	-0.04537654
-3.721059	مساوی	-0.04386053
-3.916705	مستأجر	-0.04529037
-3.916705	مستأجری	-0.04389889
-3.721059	مستحکم	-0.03638053
-3.916705	مستحکمتر	-0.04453759
-3.916705	مستخدمین	-0.04524242
-3.916705	مستعد	-0.04559205
-3.071279	مستقل	-0.2161961
-3.916705	مستقلاً	-0.04537654
-3.727548	مستقیم	-0.04460005
-3.916705	مستقیماً	-0.04559205
-3.683843	مستلزم	-0.04285489
-3.916705	مستمر	-0.04515622
-3.916705	مستمند	-0.04520888
-3.721059	مسرت	-0.13609
-3.916705	مسرّت	-0.1902282
-3.916705	مسـئله‌ای	-0.04555472
-3.916705	مسلح	-0.1850642
-3.916705	مسلط	-0.04559205
-3.721059	مسلم	-0.04476794
-3.721059	مسلمان	-0.04462277
-3.112672	مسلماً	-0.03709873
-3.916705	مسلمی	-0.04555472
-3.916705	مسلمین	-0.04555472
-3.916705	مسلک	-0.04559205
-3.413702	مسکن	-0.04343135
-3.916705	مسکونی	-0.04550949
-3.916705	مسیری	-0.04556333
-3.413702	مشابه	-0.09365397
-3.916705	مشابهی	-0.04530948
-3.413702	مشارکت	-0.0420554
-3.916705	مشاغل	-0.04467193
-3.721059	مشاهده	-0.03944627
-3.916705	مشترک	-0.04470551
-3.916705	مشتقات	-0.04547711
-3.727548	مشخص	-0.04092843
-3.721059	مشروطه	-0.03882333
-3.727548	مشروطیت	-0.1049546
-3.916705	مشروطیت‌های	-0.04507471
-3.413702	مشروع	-0.04457361
-3.916705	مشعشع	-0.04556211
-2.998729	مشغول	-0.09243521
-3.916705	مشمول	-0.04556333
-3.916705	مشمولان	-0.04559205
-3.727548	مشکل	-0.04458178
-3.112672	مشکلات	-0.06840108
-3.916705	مشکلاتی	-0.04319188
-3.916705	مشکل‌ترین	-0.04537654
-3.727548	مصائب	-0.04500769
-3.916705	مصادف	-0.04276812
-3.916705	مصارف	-0.03834656
-2.908552	مصالح	-0.1790442
-3.15843	مصرف	-0.04272965
-3.916705	مصرفی	-0.03829306
-3.916705	مصرف‌کننده	-0.04559205
-3.916705	مصرف‌کنندگان	-0.04349503
-3.916705	مصروف	-0.04547711
-3.721059	مصلحت	-0.03823955
-3.916705	مصمم	-0.04440321
-3.916705	مصنوع	-0.04547711
-3.916705	مصنوعات	-0.04559205
-3.916705	مصوبه	-0.04527595
-3.413702	مصون	-0.09696904
-3.916705	مضائقه	-0.04559205
-3.916705	مضایقه	-0.04550949
-3.916705	مضرّه	-0.04537654
-3.721059	مطابق	-0.04534188
-3.916705	مطابقت	-0.04555472
-3.916705	مطالعات	-0.04430239
-3.721059	مطالعه	-0.04521131
-3.916705	مطلب	-0.04487336
-3.916705	مطلبی	-0.04517534
-3.916705	مطلع	-0.04490693
-3.916705	مطلقاً	-0.04408152
-3.916705	مطلقه	-0.04556333
-3.721059	مطلوب	-0.04419657
-3.683843	مطمئن	-0.03674818
-3.683843	مظاهر	-0.04229093
-3.727548	مظهر	-0.04540422
-3.727548	معادل	-0.04431569
-3.721059	معادن	-0.04479189
-3.916705	معاش	-0.04450399
-3.916705	معاضدت	-0.03829306
-3.916705	معاملات	-0.04416793
-3.916705	معایب	-0.04556333
-3.916705	معتقد	-0.04539575
-3.916705	معتقدات	-0.04556211
-3.916705	معجزه‌آسا	-0.04556333
-3.721059	معدن	-0.1363249
-3.916705	معدنی	-0.04539575
-3.916705	معرض	-0.04559205
-3.916705	معرّف	-0.04559205
-3.916705	معطوف	-0.04520889
-3.916705	معظمه	-0.04530948
-3.721059	معقول	-0.04471994
-3.916705	معلم	-0.04467193
-3.916705	معلمان	-0.04559205
-3.916705	معلومات	-0.04539575
-3.727548	معمول	-0.04493578
-2.857399	معنوی	-0.04011535
-3.916705	معنویت	-0.04541007
-3.916705	معنی	-0.04525684
-3.413702	معهذا	-0.04316767
-3.916705	معیشت	-0.04520888
-3.721059	معین	-0.0454269
-3.916705	معینی	-0.04502203
-3.916705	مغتنم	-0.04559205
-3.916705	مفاخر	-0.04559205
-3.209582	مفهوم	-0.04154845
-3.727548	مفید	-0.04522216
-3.916705	مفیدتر	-0.04541007
-3.916705	مقابل	-0.04556333
-3.916705	مقارن	-0.0452233
-3.916705	مقاطع	-0.04534302
-3.112672	مقام	-0.09085516
-3.916705	مقامات	-0.04527595
-3.916705	مقاومت	-0.04559205
-3.916705	مقتضای	-0.04482066
-3.916705	مقتضی	-0.04467193
-3.916705	مقتضیات	-0.04428803
-3.916705	مقتضیاتی	-0.04556211
-3.727548	مقدس	-0.1116316
-3.916705	مقدماتی	-0.04463835
-3.916705	مقدور	-0.04556211
-3.916705	مقرر	-0.04516102
-3.15843	مقررات	-0.0687139
-3.916705	مقرراتی	-0.04559205
-3.727548	مقصود	-0.0444368
-3.916705	مقصودم	-0.04559205
-3.267574	مقننه	-0.0684439
-3.916705	مقیاسی	-0.04547711
-3.916705	مقید	-0.04556211
-3.916705	ملاحظات	-0.04517534
-3.916705	ملاحظه	-0.04524242
-2.32028	ملت	-0.2953452
-3.916705	ملتی	-0.04559205
-3.916705	ملت‌های	-0.04517534
-3.916705	ملزوم	-0.04507471
-2.665514	ملل	-0.35713
-3.916705	ملکی	-0.04553944
-2.099835	ملی	-0.08999128
-3.916705	ملیت	-0.04556333
-2.966544	ممالک	-0.07797373
-3.721059	ممالکی	-0.04527604
-3.916705	ممانعت	-0.04521948
-3.916705	ممانعتی	-0.04529037
-3.916705	ممتازتری	-0.04559205
-3.916705	ممتد	-0.04559205
-2.209582	مملکت	-0.02536729
-3.112672	مملکتی	-0.04202754
-2.857399	منابع	-0.0695588
-3.916705	منابعی	-0.0444704
-3.916705	مناسب	-0.04495492
-3.721059	مناسبات	-0.04470794
-3.683843	مناطق	-0.07908468
-3.916705	مناطقی	-0.03120092
-2.811642	منافع	-0.1610223
-3.916705	منافعی	-0.04490693
-3.916705	منتخب	-0.04426878
-3.916705	منتخبین	-0.0439998
-3.916705	منتشر	-0.04559205
-3.916705	منتظر	-0.04530948
-3.916705	منتقل	-0.03861906
-3.916705	منتها	-0.04559205
-3.721059	منتهای	-0.04523389
-3.916705	منجر	-0.04542448
-3.916705	منجمله	-0.0452233
-3.916705	منحرف	-0.04559205
-3.916705	منحرفین	-0.04555472
-3.916705	منحصر	-0.04477265
-3.916705	منحصراً	-0.04527595
-3.916705	مند	-0.04356237
-3.916705	منزل	-0.04556333
-3.267574	منشور	-0.1433436
-3.916705	منصه	-0.04559205
-3.916705	منطبق	-0.04559205
-3.916705	منطق	-0.04542448
-2.811642	منطقه	-0.1086632
-3.267574	منطقه‌ای	-0.04307747
-3.916705	منظم	-0.0448504
-3.916705	منظماً	-0.04559205
-3.916705	منظمی	-0.04555472
-2.499888	منظور	-0.06522364
-3.916705	منظورها	-0.04556211
-3.721059	منع	-0.136507
-3.916705	منعقد	-0.0453287
-3.916705	منعکس	-0.04524242
-3.916705	منفی	-0.04396617
-3.916705	منقرض	-0.04559205
-3.916705	منهای	-0.03834656
-3.916705	منوط	-0.04530948
-3.916705	مهار	-0.04468637
-3.916705	مهارت	-0.04555472
-3.916705	مهالک	-0.04556211
-3.916705	مهر	-0.1907418
-3.916705	مهلکی	-0.04396617
-3.15843	مهم	-0.03823087
-3.916705	مهمتر	-0.04556211
-2.908552	مهمترین	-0.04128632
-3.727548	مهمی	-0.04240761
-3.916705	مهندس	-0.04559205
-3.916705	مهندسین	-0.04556333
-3.916705	مهیا	-0.04516102
-3.916705	مواجه	-0.0382551
-3.916705	مواجهه	-0.04555472
-3.916705	مواجه‌است	-0.0451418
-2.908552	مواد	-0.07195611
-3.916705	مواردی	-0.0455021
-3.413702	موازات	-0.0418263
-3.916705	موازی	-0.04559205
-3.413702	موازین	-0.04380859
-3.916705	مواظب	-0.04559205
-3.916705	موافق	-0.04525684
-3.721059	موافقت	-0.04410069
-3.916705	موافقتنامه	-0.04556333
-3.916705	مواقع	-0.03987715
-3.916705	موانع	-0.04521948
-3.916705	مواهبی	-0.04453759
-3.15843	موجب	-0.0727513
-3.15843	موجبات	-0.07225297
-3.071279	موجود	-0.03516134
-3.916705	موجودیت	-0.04431684
-3.727548	مورد	-0.04398062
-3.916705	موزه‌ها	-0.04555472
-3.916705	موشکافی	-0.04530948
-3.727548	موضوع	-0.0424343
-3.721059	موظف	-0.04300774
-3.916705	موفق	-0.04559205
-2.908552	موفقیت	-0.07417759
-3.916705	موفقیتی	-0.04559205
-3.916705	موفقیت‌آمیز	-0.04527595
-3.721059	موفقیت‌های	-0.04250303
-3.916705	موفقیت‌هایی	-0.0448398
-3.916705	موقتی	-0.03834656
-3.721059	موقع	-0.04471994
-3.916705	موقعت	-0.04559205
-3.721059	موقعی	-0.04501126
-3.916705	موقعیت	-0.04460476
-3.916705	موقوفه	-0.03861906
-3.916705	مولد	-0.04534302
-3.916705	مولود	-0.04555472
-3.916705	موهن	-0.04467193
-3.916705	مکانیزاسیون	-0.04487336
-3.727548	مکانیزه	-0.04408152
-3.916705	مکانیکی	-0.04559205
-3.916705	مکتب	-0.04535743
-3.916705	مکعب	-0.04559205
-3.916705	مکمل	-0.04527595
-3.916705	میدان	-0.04559205
-3.721059	میراث	-0.04509972
-3.916705	میراث‌های	-0.04559205
-3.721059	میسر	-0.04386526
-3.721059	میل	-0.04440321
-3.916705	میلیاردها	-0.04450399
-3.916705	میلیون	-0.03766458
-3.727548	میلیون‌ها	-0.04407768
-3.916705	میهمان‌نوازی	-0.04559205
-3.413702	میهن	-0.04526654
-3.916705	میهنان	-0.04556333
-3.916705	میهن‌دوستی	-0.04555472
-3.916705	میهن‌پرستی	-0.04556211
-3.916705	می‌آوریم	-0.04537654
-3.413702	می‌آید	-0.04194345
-3.916705	می‌آیند	-0.04556211
-3.683843	می‌باشد	-0.04407073
-3.916705	می‌باشند	-0.04559205
-3.916705	می‌باشیم	-0.04537654
-2.568604	می‌باید	-0.04398305
-3.916705	می‌بخشیدیم	-0.04396617
-3.916705	می‌برد	-0.04547711
-3.916705	می‌برند	-0.04553944
-3.721059	می‌بریم	-0.0438989
-3.916705	می‌بندد	-0.04556211
-3.916705	می‌بیاد	-0.0443696
-3.683843	می‌بینیم	-0.04060416
-3.209582	می‌توان	-0.04310151
-3.413702	می‌توانند	-0.04464398
-3.683843	می‌توانیم	-0.04379806
-3.916705	می‌خریدند	-0.04559205
-3.916705	می‌خواهد	-0.04559205
-3.916705	می‌خورد	-0.04539452
-3.916705	می‌دادند	-0.04556211
-3.916705	می‌دارد	-0.04559205
-3.916705	می‌داریم	-0.04517534
-3.916705	می‌دانست	-0.04559205
-3.916705	می‌دانم	-0.04494049
-3.916705	می‌دانند	-0.04524242
-3.683843	می‌دانید	-0.04203884
-2.966544	می‌دانیم	-0.03689945
-3.916705	می‌درخشد	-0.04559205
-3.683843	می‌دهد	-0.03688859
-3.916705	می‌دهم	-0.04376431
-3.916705	می‌دهند	-0.04550949
-3.727548	می‌دهیم	-0.0451251
-3.916705	می‌رفت	-0.04559205
-3.916705	می‌زنند	-0.04534302
-3.916705	می‌زنیم	-0.04559205
-3.721059	می‌شد	-0.04454819
-3.916705	می‌شماریم	-0.04537654
-3.683843	می‌شود	-0.08654817
-3.413702	می‌شوند	-0.04481594
-3.916705	می‌شویم	-0.04282107
-3.916705	می‌فروختند	-0.04559205
-3.916705	می‌نمائیم	-0.04559205
-3.916705	می‌نماید	-0.04559205
-3.683843	می‌نماییم	-0.1709511
-3.916705	می‌پذیریم	-0.04555472
-3.721059	می‌کرد	-0.04483866
-3.916705	می‌کردیم	-0.04556211
-3.916705	می‌کشاند	-0.04530948
-2.908552	می‌کند	-0.03724897
-3.916705	می‌کنند	-0.04556333
-3.916705	می‌کنید	-0.04559205
-3.916705	می‌کنیم	-0.04453759
-3.916705	می‌گذارند	-0.04463835
-3.721059	می‌گذرد	-0.04545686
-3.916705	می‌گرفت	-0.04502682
-3.916705	می‌گشاییم	-0.04467193
-3.916705	می‌گفتند	-0.04559205
-3.071279	می‌گیرد	-0.04151608
-3.916705	می‌یابد	-0.04537654
-3.916705	ناآرامی‌ها	-0.04362969
-3.916705	نائل	-0.04555472
-3.916705	ناامنی	-0.04559205
-3.916705	نابسامانی‌های	-0.04433599
-3.916705	نابود	-0.04556211
-3.916705	نابودی	-0.04177438
-3.916705	نابینایان	-0.04559205
-3.916705	ناتوانی	-0.0443696
-3.916705	ناحیه	-0.04403343
-3.721059	ناخالص	-0.358287
-3.916705	ناخالصی	-0.04217985
-3.916705	ناخواه	-0.04555472
-3.916705	نادرستی	-0.04529394
-3.916705	نارضایی‌ها	-0.0444032
-3.916705	ناروای	-0.04556333
-3.721059	ناسالم	-0.04548681
-3.916705	ناسیونالیستی	-0.04295595
-3.916705	ناسیونالیسم	-0.04527595
-3.916705	ناشیه	-0.04504116
-3.916705	نافذتر	-0.04559205
-3.916705	نامحدود	-0.0450076
-3.916705	نامشروع	-0.04559205
-3.916705	نامطلوب	-0.04541007
-3.916705	نامه	-0.04553944
-3.916705	نان	-0.04559205
-3.916705	ناپذیر	-0.04373066
-3.916705	ناپسند	-0.04559205
-3.916705	ناچار	-0.04440321
-3.916705	ناچاریم	-0.04490693
-3.916705	ناگسستنی	-0.04556211
-3.916705	ناگوار	-0.04507471
-3.916705	ناگواری	-0.04559205
-3.916705	نایل	-0.04507471
-3.727548	نباشد	-0.04395761
-3.916705	نباشیم	-0.04556333
-3.916705	نبودنم	-0.04559205
-3.267574	نتایج	-0.03687415
-3.916705	نتوانند	-0.04537654
-3.033491	نتیجه	-0.04141107
-3.727548	نجات	-0.04349029
-3.916705	نجات‌بخش	-0.04530948
-3.727548	نحو	-0.04389775
-3.916705	نحوة	-0.04555472
-3.916705	نحوی	-0.0448398
-3.916705	نخواهدداشت	-0.04534302
-3.916705	نخواهدشد	-0.04527595
-3.916705	نخواهیم‌کرد	-0.04453759
-3.916705	ندارد	-0.04530948
-3.916705	نداشته‌است	-0.04551072
-3.916705	ندای	-0.04559205
-3.916705	ندهد	-0.04520888
-3.916705	ندهند	-0.04559205
-3.916705	ندوخته‌ایم	-0.04520888
-3.727548	نرخ	-0.1120413
-3.916705	نرسیده	-0.0452233
-3.916705	نرود	-0.04426878
-3.916705	نزدیکترین	-0.04556211
-3.916705	نزدیک‌ترین	-0.04556211
-3.916705	نزولی	-0.04470551
-3.916705	نساجی	-0.04559205
-2.908552	نسبت	-0.03067352
-3.916705	نسبتی	-0.04559205
-3.727548	نسل	-0.04510834
-3.413702	نسل‌های	-0.3162314
-3.916705	نشده‌است	-0.04530948
-3.916705	نشست	-0.04530948
-3.916705	نشسته‌اند	-0.04559205
-3.413702	نشود	-0.04427947
-3.916705	نشویم	-0.04559205
-3.916705	نصب	-0.04525684
-3.916705	نصیب	-0.03803981
-3.916705	نظائر	-0.04541007
-3.209582	نظارت	-0.04222437
-3.683843	نظام	-0.04145434
-3.727548	نظامی	-0.04325934
-3.916705	نظام‌های	-0.04309078
-3.916705	نظایر	-0.04295595
-2.510612	نظر	-0.03768472
-3.916705	نظرم	-0.04556211
-3.916705	نظرها	-0.04559205
-3.683843	نظری	-0.04442737
-3.916705	نظریات	-0.04507471
-3.916705	نظم	-0.04526041
-3.916705	نظیری	-0.04556211
-3.916705	نفاق	-0.04559205
-2.697699	نفت	-0.08248029
-3.112672	نفتی	-0.04143643
-2.665514	نفر	-0.07922302
-3.916705	نفس	-0.04490693
-3.683843	نفع	-0.04313521
-3.683843	نقاط	-0.07693888
-3.916705	نقش	-0.04527595
-3.916705	نقشی	-0.04507471
-3.916705	نقص	-0.04559205
-3.413702	نقطه	-0.04065261
-3.721059	نقل	-0.04354317
-3.916705	نقلیه	-0.0444368
-3.916705	نمائیم	-0.04524243
-3.916705	نمانده‌است	-0.04507471
-3.727548	نمایند	-0.04447283
-3.916705	نماینده	-0.04367782
-2.811642	نمایندگان	-0.1470738
-3.916705	نمایندگانی	-0.04453759
-3.916705	نمایندگی	-0.04547711
-3.683843	نماییم	-0.04156676
-3.916705	نمود	-0.0455021
-3.916705	نمودار	-0.04535743
-3.916705	نمودن	-0.04559205
-3.916705	نمودند	-0.04556211
-3.916705	نموده‌ایم	-0.04322558
-3.413702	نمونه	-0.04209303
-3.916705	نمونه‌هایی	-0.03834656
-3.916705	نمی‌توان	-0.04505558
-3.721059	نمی‌تواند	-0.04520774
-3.916705	نمی‌توانند	-0.04470551
-3.727548	نمی‌توانیم	-0.04450285
-3.916705	نمی‌دهد	-0.04556333
-3.916705	نمی‌روند	-0.04537654
-3.916705	نمی‌کند	-0.04527595
-3.916705	نمی‌کنند	-0.04530948
-3.916705	نمی‌کنیم	-0.04420156
-3.916705	نمی‌گیرد	-0.04389889
-3.916705	ننماید	-0.04559205
-3.916705	ننگی	-0.04556333
-3.683843	نه	-0.04039687
-3.916705	نهائی	-0.04460476
-3.916705	نهاد	-0.04559205
-3.916705	نهال	-0.04559205
-3.413702	نهایت	-0.04474497
-3.683843	نهایی	-0.04296186
-3.267574	نهصد	-0.359262
-3.683843	نهضت	-0.1361224
-3.916705	نهمین	-0.04477265
-3.916705	نه‌گانه	-0.0439998
-3.916705	نواحی	-0.03834656
-3.727548	نواقص	-0.04268142
-3.916705	نوامبر	-0.04386525
-3.721059	نوبت	-0.04517063
-3.727548	نوبه	-0.04521476
-3.916705	نوبه‌ای	-0.04494049
-3.916705	نوجوانان	-0.04184199
-3.721059	نود	-0.3547262
-3.916705	نوزده	-0.04138667
-3.916705	نوزدهم	-0.04559205
-3.916705	نوزدهمین	-0.04282107
-3.727548	نوسازی	-0.03282587
-3.721059	نوین	-0.03812264
-3.916705	نوینی	-0.04490693
-3.916705	نُه	-0.04559205
-3.916705	نپوشیده	-0.03834656
-3.721059	نژادی	-0.04489839
-2.882223	نکته	-0.1796729
-3.916705	نکردند	-0.04170677
-3.916705	نگاهبانی	-0.04548077
-3.916705	نگاهدارد	-0.04559205
-3.916705	نگاهداشتن	-0.04524242
-3.916705	نگاه‌داشته	-0.04559205
-3.916705	نگذاشته‌است	-0.04507471
-3.916705	نگرانی	-0.04507471
-3.916705	نگردد	-0.04529037
-3.916705	نگهداری	-0.04559205
-3.916705	نیات	-0.04559205
-3.721059	نیاز	-0.04497413
-3.916705	نیازمندترین	-0.04556211
-3.916705	نیازمندیهای	-0.04396617
-3.916705	نیافته‌باشد	-0.04534302
-3.916705	نیاوریم	-0.04534302
-3.721059	نیت	-0.1346443
-3.916705	نیرو	-0.04538713
-3.916705	نیرومند	-0.04530948
-3.721059	نیرومندی	-0.04460005
-3.916705	نیروها	-0.04457118
-3.916705	نیروهای	-0.04529394
-3.916705	نیروگاه‌های	-0.04559205
-2.998729	نیروی	-0.09588144
-3.267574	نیست	-0.04333996
-3.683843	نیل	-0.2576186
-3.727548	نیم	-0.1104534
-3.727548	نیمه	-0.2472042
-3.916705	نیم‌	-0.04556333
-3.916705	نیک	-0.04559205
-3.916705	نیکبخت	-0.04559205
-3.916705	نیکونهاد	-0.04386525
-3.916705	نیکوی	-0.04524242
-2.966544	هائی	-0.03541993
-3.916705	هجده	-0.04416793
-3.916705	هجوم‌های	-0.04556211
-3.721059	هدایت	-0.04280184
-3.916705	هدر	-0.04555472
-2.833918	هدف	-0.035312
-3.916705	هدفی	-0.04535743
-3.916705	هدف‌ها	-0.04510825
-3.727548	هدف‌های	-0.03610272
-3.916705	هرج	-0.1907492
-3.916705	هرمز	-0.04530948
-2.220577	هزار	-0.7846732
-3.916705	هزارساله	-0.04556211
-3.721059	هزینه	-0.1358214
-3.727548	هزینه‌های	-0.04384607
-3.916705	هسته‌ای	-0.04349503
-3.727548	هستیم	-0.04393139
-2.857399	هشت	-0.1034696
-3.267574	هشتاد	-0.1437363
-3.727548	هشتصد	-0.1036043
-3.916705	هشتصدساله	-0.03834656
-3.916705	هشتم	-0.04559205
-2.966544	هفت	-0.1386935
-3.916705	هفتاد	-0.1838061
-3.916705	هفتادساله	-0.04559205
-3.683843	هفتصد	-0.1270332
-3.721059	هفتمین	-0.3589282
-3.721059	هفده	-0.04038615
-3.916705	هفدهم	-0.0443696
-3.916705	هفدهمین	-0.04426878
-3.916705	همآهنگی	-0.04559205
-3.267574	همانطور	-0.04428823
-3.916705	همانطوری	-0.04555472
-3.727548	هماهنگ	-0.03894491
-3.916705	هماهنگی	-0.04460476
-3.916705	همایون	-0.04559205
-3.916705	همبستگی	-0.04212682
-3.413702	همت	-0.04486751
-3.916705	همت‌گماریم	-0.04559205
-3.916705	همجوار	-0.04559205
-3.916705	همدردی	-0.04559205
-3.721059	همراه	-0.04505175
-3.413702	همزیستی	-0.2056837
-3.112672	همسایه	-0.0695205
-3.413702	همسایگان	-0.04395423
-3.916705	همسایگی	-0.04553944
-3.916705	همطراز	-0.04510825
-3.916705	همفکری	-0.04559205
-3.721059	هموار	-0.04327374
-3.721059	همچنانکه	-0.04498847
-3.916705	همکار	-0.04559205
-2.697699	همکاری	-0.09563807
-3.916705	همکاری‌ها	-0.04556211
-3.916705	همکاری‌های	-0.04524242
-3.916705	همکیش	-0.04559205
-3.916705	همکیشی	-0.04556333
-3.916705	همگام	-0.04559205
-3.916705	همی	-0.04556211
-3.721059	همیشگی	-0.04492615
-3.916705	همینطور	-0.04441765
-3.916705	هم‌آهنگ	-0.04524242
-3.209582	هم‌اکنون	-0.04235943
-3.727548	هند	-0.1055819
-3.916705	هنر	-0.0451418
-3.721059	هنری	-0.04513709
-3.916705	هوا	-0.04559205
-3.916705	هوای	-0.03834656
-3.916705	هوایی	-0.04507471
-3.916705	هویدا	-0.04559205
-3.727548	هکتار	-0.04297403
-3.916705	هیئت	-0.04555472
-3.916705	هیئت‌های	-0.04420156
-3.916705	هیجان	-0.0448398
-3.916705	هیجدهم	-0.04527595
-3.916705	هیجدهمین	-0.04282107
-3.916705	هیچیک	-0.04559205
-3.916705	هیچ‌وقت	-0.04373066
-3.916705	هیچ‌کس	-0.04521948
-3.916705	هیچ‌گونه	-0.04556333
-1.794609	و	-0.8435062
-3.916705	وات	-0.04463835
-3.683843	واحد	-0.08600048
-3.721059	واحدهای	-0.04435044
-3.916705	واحدی	-0.04559205
-3.721059	وارث	-0.3614837
-3.727548	وارد	-0.04489022
-3.916705	واردات	-0.04510825
-3.916705	وارداتی	-0.03829306
-3.916705	واسطه	-0.04517534
-3.916705	وافی	-0.04537654
-3.683843	واقع	-0.08691373
-3.916705	واقعه‌ای	-0.04559205
-3.267574	واقعیت	-0.04128523
-3.916705	واقعیتی	-0.03834656
-3.916705	واقع‌بینانه	-0.04556333
-3.721059	واقع‌بینی	-0.04489259
-3.916705	واقف	-0.04490693
-3.916705	وام	-0.04547711
-3.916705	وام‌های	-0.04559205
-3.916705	واژگون	-0.04524242
-3.916705	واکسن	-0.04386525
-3.916705	واکنش‌ها	-0.04559205
-3.916705	واگذار	-0.04471994
-3.916705	واگذاری	-0.043394
-3.916705	وب	-0.04556211
-3.916705	وجدان	-0.04559205
-3.721059	وجه	-0.04542813
-3.721059	وجهی	-0.04416321
-3.916705	وجودآوریم	-0.04520888
-3.916705	وجودیکه	-0.04534302
-3.721059	وحدت	-0.04204482
-3.916705	وحشت	-0.04556211
-3.916705	وحشتناک	-0.04490693
-3.916705	ورزش	-0.04520888
-3.916705	ورزشی	-0.0453239
-3.916705	ورزش‌های	-0.04559205
-3.916705	ورزیده	-0.04559205
-3.916705	ورزیده‌ای	-0.04534302
-3.916705	ورود	-0.04507471
-3.727548	وزارت	-0.04332663
-3.916705	وزارتخانه	-0.04547711
-3.916705	وزارتخانه‌ها	-0.04559205
-3.916705	وزراء	-0.04555472
-3.916705	وسائط	-0.04559205
-3.209582	وسائل	-0.04140121
-3.683843	وسایل	-0.04338902
-3.916705	وسطائی	-0.04559205
-3.209582	وسعت	-0.03579355
-3.916705	وسعتت	-0.04547711
-2.908552	وسیع	-0.04043707
-3.916705	وسیعتری	-0.04559205
-3.033491	وسیعی	-0.05286102
-3.916705	وسیع‌تر	-0.04535743
-2.998729	وسیله	-0.03756709
-3.916705	وسیله‌ای	-0.04556211
-3.916705	وصف	-0.04550949
-3.916705	وصول	-0.04559205
-3.916705	وضع	-0.04510825
-3.721059	وضعی	-0.04510711
-3.916705	وضعیت	-0.03834656
-3.916705	وضوح	-0.04559205
-3.916705	وطن	-0.04453759
-3.916705	وطن‌پرستانه	-0.04356236
-3.267574	وطن‌پرستی	-0.04097209
-3.916705	وطی	-0.04295595
-3.721059	وظائف	-0.04524607
-3.071279	وظایف	-0.06299345
-3.916705	وظایفی	-0.04403344
-2.594158	وظیفه	-0.1047641
-3.916705	وظیفه‌ای	-0.04443681
-3.916705	وعده	-0.04473908
-3.916705	وفادار	-0.04559205
-3.916705	وقایع	-0.04371148
-3.267574	وقت	-0.04310535
-3.916705	وقع	-0.04524242
-3.916705	وقفه‌ای	-0.04559205
-3.721059	وقوع	-0.04513709
-3.916705	ولایتی	-0.04559205
-3.916705	ولو	-0.04559205
-3.916705	ویرانگری	-0.04547711
-3.721059	پا	-0.04527125
-3.916705	پائین	-0.04473908
-3.916705	پارلمان	-0.04559205
-3.916705	پارلمان‌های	-0.03834656
-3.916705	پاسخ	-0.04559205
-3.916705	پاسخگوی	-0.04396617
-3.413702	پانزده	-0.03265329
-3.916705	پانزدهمین	-0.04282107
-3.267574	پانصد	-0.0744146
-3.916705	پانصدمین	-0.04141691
-3.916705	پاپیچ	-0.04559205
-3.916705	پاک	-0.04381243
-3.916705	پاکی	-0.04548077
-3.727548	پای	-0.04543417
-3.033491	پایان	-0.1563974
-3.916705	پایبند	-0.04559205
-3.413702	پایتخت	-0.03605284
-3.916705	پایداری	-0.04547711
-3.112672	پایه	-0.03941237
-3.916705	پایه‌اش	-0.04396617
-3.916705	پایه‌های	-0.04559205
-3.15843	پایین	-0.04367079
-3.916705	پایین‌آوردن	-0.04530948
-3.916705	پایین‌تری	-0.04450399
-3.916705	پتروشیمی	-0.04438405
-3.916705	پخته‌تر	-0.04559205
-3.721059	پذیرد	-0.04376317
-3.916705	پذیرفتیم	-0.04524242
-3.683843	پر	-0.08807798
-3.721059	پرافتخار	-0.03938216
-3.916705	پرتو	-0.1890859
-3.916705	پرداخت	-0.04529037
-3.916705	پرداخته‌ایم	-0.0443696
-3.916705	پرده	-0.04524242
-3.916705	پرده‌ای	-0.04556333
-3.916705	پرست	-0.04537654
-3.916705	پرستار	-0.04467193
-3.916705	پرستانه	-0.04524242
-3.916705	پرستی	-0.04371148
-3.916705	پروانه	-0.04534302
-3.916705	پروردگار	-0.0382551
-2.936581	پرورش	-0.07465332
-3.916705	پروژه	-0.04526163
-3.916705	پروژه‌ها	-0.04556333
-3.916705	پریشانی	-0.0450076
-3.916705	پزشک	-0.04381243
-3.916705	پزشکان	-0.04520888
-3.721059	پزشکی	-0.04387971
-3.721059	پسر	-0.03763045
-3.916705	پشتوانه	-0.04470551
-3.916705	پشتیبان	-0.04556333
-3.727548	پشتیبانی	-0.1108185
-3.916705	پشم	-0.04537654
-3.916705	پناه	-0.04550949
-3.071279	پنج	-0.1059844
-2.635551	پنجاه	-0.3781847
-3.209582	پنجساله	-0.07042075
-3.071279	پنجم	-0.03455784
-3.916705	پنجمین	-0.04556333
-3.916705	پنج‌ساله	-0.04473908
-3.916705	پنچ	-0.04467193
-3.916705	پهلوی	-0.04550949
-3.916705	پوست	-0.04559205
-3.916705	پوسیده	-0.04559205
-3.916705	پوشاک	-0.04547711
-3.916705	پوشش	-0.04529516
-3.916705	پوشیدن	-0.04559205
-3.916705	پوشیده	-0.04556211
-3.721059	پول	-0.0448578
-3.916705	پولی	-0.04460476
-3.916705	پُر	-0.04559205
-3.916705	پُست‌های	-0.04559205
-3.916705	پژوهش	-0.04559205
-3.916705	پژوهشی	-0.04559205
-3.916705	پیام	-0.04529516
-3.916705	پیدایش	-0.04487336
-3.916705	پیراستن	-0.04497404
-3.916705	پیرو	-0.04517534
-3.916705	پیروز	-0.04559205
-3.916705	پیروزی	-0.04364774
-3.721059	پیروزی‌های	-0.04523771
-3.267574	پیروی	-0.1494034
-3.916705	پیری	-0.04559205
-2.532888	پیشرفت	-0.05624644
-3.721059	پیشرفته	-0.04389898
-3.916705	پیشرفتها	-0.04555472
-3.916705	پیشرفتهای	-0.04520888
-3.916705	پیشرفته‌ترین	-0.04480623
-3.727548	پیشرفتی	-0.04503644
-3.916705	پیشرفت‌ها	-0.04556211
-3.033491	پیشرفت‌های	-0.05856755
-3.727548	پیشرو	-0.03878929
-3.916705	پیشروترین	-0.04396617
-3.916705	پیشروی	-0.04559205
-3.916705	پیشقدم	-0.04470551
-3.683843	پیشنهاد	-0.04324006
-3.916705	پیشگیری	-0.04473908
-3.916705	پیش‌برود	-0.04510825
-3.112672	پیش‌بینی	-0.04085953
-3.916705	پیش‌بینی‌ها	-0.04559205
-3.916705	پیش‌بینی‌های	-0.0440851
-3.916705	پیش‌تر	-0.04282107
-3.916705	پیش‌روی	-0.04556211
-3.209582	پیمان	-0.07651257
-3.916705	پیمان‌های	-0.04556333
-3.916705	پیوست	-0.04559205
-3.916705	پیوستگی	-0.04467193
-3.916705	پیوندی	-0.04559205
-3.916705	پیچ	-0.04559205
-3.916705	پیچیده‌ای	-0.04559205
-3.916705	پیکار	-0.04467193
-3.916705	پیگیر	-0.04559205
-3.916705	پی‌برده‌است	-0.04556211
-3.721059	چاره	-0.1365405
-3.916705	چاره‌ای	-0.04473909
-3.916705	چرم	-0.04537654
-3.683843	چشم	-0.04463372
-3.916705	چندی	-0.04532747
-3.413702	چهار	-0.2031416
-3.727548	چهارده	-0.107144
-3.916705	چهاردهم	-0.0439998
-3.916705	چهارساله	-0.04512624
-3.413702	چهارصد	-0.08763738
-3.112672	چهارم	-0.03261393
-3.721059	چهارمین	-0.0402844
-2.635551	چهل	-0.5919725
-3.916705	چوب	-0.04553944
-3.916705	چوب‌های	-0.04470551
-3.916705	چیزهای	-0.04556211
-3.916705	چین	-0.04551072
-3.916705	ژاپن	-0.04559205
-3.916705	ژوئن	-0.04147002
-3.721059	کادر	-0.1366111
-2.32028	کار	-0.04287682
-3.916705	کارآیی	-0.04497404
-3.916705	کارتهای	-0.04559205
-3.916705	کارخانجات	-0.04507471
-3.413702	کارخانه	-0.0444549
-3.413702	کارخانه‌ها	-0.04348645
-3.727548	کارخانه‌های	-0.044193
-3.916705	کارشناس	-0.04559205
-3.916705	کارشناسان	-0.04547711
-3.916705	کارفرمائی	-0.04463835
-3.916705	کارفرمایان	-0.04389889
-3.916705	کارمند	-0.04453759
-3.683843	کارمندان	-0.1713234
-3.916705	کارمندی	-0.04541007
-3.721059	کارهائی	-0.04545808
-3.071279	کارهای	-0.08173985
-3.916705	کارکنان	-0.04376431
-3.916705	کارگاه‌ها	-0.04418596
-3.916705	کارگاه‌های	-0.04470551
-3.727548	کارگر	-0.0374364
-2.811642	کارگران	-0.06506155
-3.916705	کارگرانی	-0.04556333
-3.727548	کارگری	-0.04433127
-3.727548	کاری	-0.04490319
-3.916705	کاشت	-0.04524242
-3.916705	کاغذ	-0.04559205
-3.916705	کاغذسازی	-0.04559205
-3.209582	کافی	-0.07431375
-3.916705	کالاها	-0.04258495
-3.916705	کالاهائی	-0.04534302
-3.15843	کالاهای	-0.1018034
-3.916705	کاملتری	-0.04529037
-3.721059	کاملترین	-0.04384223
-3.916705	کامله	-0.04556211
-3.916705	کانال	-0.04559205
-3.916705	کانون	-0.04506038
-3.727548	کبیر	-0.04451371
-3.916705	کتاب	-0.04559205
-3.916705	کتابخانه	-0.04505558
-3.916705	کتابخانه‌ها	-0.04541007
-3.916705	کتابخانه‌های	-0.04559205
-3.916705	کتاب‌های	-0.04541007
-3.916705	کر	-0.04559205
-3.916705	کرات	-0.04515622
-3.916705	کرارا	-0.04559205
-3.916705	کراراً	-0.04547215
-3.721059	کرد	-0.04517543
-3.916705	کردار	-0.04537654
-3.916705	کرده	-0.04559205
-3.413702	کرده‌است	-0.04401051
-3.916705	کرده‌ام	-0.04556333
-3.683843	کرده‌اند	-0.0881573
-3.916705	کرده‌اند؟	-0.04453759
-3.916705	کرده‌ای	-0.04530948
-3.267574	کرده‌ایم	-0.04335086
-3.916705	کرده‌باشد	-0.04373066
-3.916705	کردیم	-0.03829306
-3.916705	کرّات	-0.04537654
-3.721059	کسب	-0.04341911
-3.683843	کشاورز	-0.08385591
-3.112672	کشاورزان	-0.05952219
-3.916705	کشاورزانی	-0.04556211
-2.665514	کشاورزی	-0.08018602
-3.15843	کشت	-0.07206939
-3.916705	کشتی	-0.1907791
-3.916705	کشف	-0.04555472
-1.778218	کشور	-0.007222936
-3.916705	کشورمان	-0.04524242
-3.721059	کشورها	-0.04361049
-2.750944	کشورهای	-0.1184338
-3.916705	کشورهایی	-0.04530948
-3.721059	کشوری	-0.1295097
-3.916705	کشیده	-0.04520888
-3.916705	کف	-0.04559205
-3.916705	کلمه	-0.04498465
-3.916705	کلیاتی	-0.04559205
-3.727548	کما	-0.03722078
-2.665514	کمال	-0.1366387
-3.413702	کمبود	-0.09564263
-3.916705	کمبودها	-0.04510825
-3.916705	کمبودهای	-0.04556211
-3.916705	کمپانی‌های	-0.04550949
-2.966544	کمک	-0.03905195
-3.916705	کمکی	-0.04504116
-3.683843	کمک‌های	-0.08571608
-3.916705	کمیته	-0.04517534
-3.916705	کمیّت	-0.04487336
-3.916705	کم‌فروشی	-0.04555472
-3.916705	کم‌کاری	-0.04555472
-3.683843	کنترل	-0.08735103
-3.721059	کند	-0.04436488
-3.916705	کنف	-0.04530948
-3.916705	کنفرانس	-0.04551072
-3.916705	کنفرانسی	-0.04524242
-3.916705	کنفرانس‌های	-0.04386526
-3.916705	کنند	-0.04515622
-3.916705	کنندگان	-0.04477265
-3.916705	کنون	-0.04527595
-3.916705	کنگره	-0.04559205
-3.916705	کنگره‌ها	-0.04524242
-3.721059	کنیم	-0.04504002
-3.683843	کهن	-0.0353315
-3.721059	کهنسال	-0.04508913
-3.916705	کهولت	-0.04527595
-3.727548	کوتاه	-0.04487345
-3.916705	کوتاهی	-0.04542448
-3.916705	کوتاه‌ترین	-0.04559205
-3.916705	کود	-0.04556211
-3.916705	کودهای	-0.04556211
-3.916705	کودک	-0.04467193
-3.267574	کودکان	-0.04215585
-3.916705	کوروش	-0.04556333
-3.916705	کوشا	-0.04559205
-2.750944	کوشش	-0.05136739
-3.727548	کوششی	-0.04386053
-3.721059	کوشش‌ها	-0.0425657
-3.721059	کوشش‌های	-0.043394
-3.916705	کوشش‌هایی	-0.03834656
-3.209582	کوشید	-0.07021391
-3.916705	کوشیده‌ایم	-0.04426878
-3.721059	کوچک	-0.04533448
-3.916705	کوچکترین	-0.04487336
-3.916705	کوچکی	-0.04556211
-3.916705	کَرات	-0.04386525
-3.916705	کیفر	-0.03834656
-3.727548	کیفی	-0.04381921
-3.683843	کیفیت	-0.04278942
-3.916705	کیلو	-0.04559205
-3.727548	کیلومتر	-0.1115765
-3.683843	کیلووات	-0.04530016
-3.916705	کیلوواتی	-0.04530948
-3.916705	کیووات	-0.04463835
-3.727548	گاز	-0.04092367
-3.916705	گامهای	-0.04556333
-3.916705	گام‌های	-0.04559205
-3.916705	گانه	-0.1891868
-3.916705	گذاردن	-0.04487336
-3.916705	گذاردیم	-0.03987715
-3.916705	گذاری‌ها	-0.04524242
-3.916705	گذاشته‌است	-0.04559205
-3.916705	گذاشتیم	-0.04426878
-3.721059	گذشت	-0.04130577
-3.267574	گذشته	-0.0320463
-3.916705	گرامی	-0.04556211
-3.916705	گران	-0.04559205
-3.916705	گرانتر	-0.04559205
-3.916705	گرانفروشی	-0.03834656
-3.916705	گران‌فروشی	-0.04559205
-3.916705	گرد	-0.04550949
-3.916705	گرداب	-0.04556333
-3.916705	گردد	-0.04541007
-3.916705	گردش	-0.04492136
-3.916705	گردند	-0.04559205
-3.033491	گردید	-0.03536841
-3.721059	گردیده	-0.04435044
-3.916705	گردیده‌است	-0.04505558
-3.916705	گرسنگی	-0.04470551
-3.916705	گرفت	-0.04521948
-3.916705	گرفتار	-0.04559205
-3.916705	گرفته	-0.04541007
-3.071279	گرفته‌است	-0.03939685
-3.916705	گرفته‌اند	-0.04559205
-3.916705	گرفت۶ه‌است	-0.04510825
-3.916705	گروه	-0.04556211
-3.916705	گروه‌ها	-0.04467193
-3.721059	گروه‌های	-0.1338015
-3.916705	گریبان	-0.04530948
-3.916705	گزارش	-0.04553944
-3.721059	گزند	-0.1364734
-3.916705	گسترده	-0.04521948
-3.916705	گسترده‌تر	-0.04541007
-3.916705	گسترده‌ترین	-0.04537654
-3.033491	گسترش	-0.07841653
-3.916705	گستره	-0.04524242
-3.916705	گشایش	-0.1880081
-3.916705	گشته	-0.04547711
-3.916705	گشته‌است	-0.04556333
-3.916705	گفته‌ایم	-0.04559205
-3.916705	گفتیم	-0.04559205
-3.916705	گماریم	-0.04559205
-3.916705	گماشته	-0.04556333
-3.916705	گمراه	-0.04556211
-3.916705	گمراهی	-0.04559205
-3.916705	گمراه‌کننده‌ای	-0.0450076
-3.916705	گمرکی	-0.04541007
-3.916705	گندم	-0.044216
-3.916705	گواهی	-0.04517534
-3.916705	گوشت	-0.04553944
-3.916705	گوشزد	-0.04532008
-3.727548	گوناگون	-0.04225805
-3.721059	گیرد	-0.04376432
-3.916705	گیرنده	-0.04547711
-3.916705	یابد	-0.04553944
-3.727548	یاد	-0.04302345
-3.916705	یادآور	-0.04559205
-3.916705	یادگارها	-0.04530948
-3.683843	یاری	-0.1742571
-3.727548	یازده	-0.1087005
-3.916705	یافت	-0.04559205
-3.916705	یافته	-0.04147002
-3.683843	یافته‌است	-0.04035233
-3.916705	یافته‌اند	-0.04517534
-3.916705	یافته‌ایم	-0.04490693
-3.916705	یال	-0.04556211
-3.209582	یقین	-0.07237039
-3.721059	ین	-0.03617512
-3.916705	یونسکو	-0.04290301
-2.388396	یک	-0.7549718
-3.916705	یکایک	-0.04556333
-3.916705	یکباره	-0.04556211
-3.916705	یکدیگر	-0.04460476
-3.916705	یکساله	-0.04522687
-3.916705	یکسان	-0.04530948
-2.908552	یکصد	-0.7629987
-3.916705	یکـصد	-0.0445556
-3.916705	یکم	-0.0443696
-3.916705	یکمین	-0.04282107
-3.916705	یکپارچگی	-0.04212682
-3.916705	یک‌میلیون	-0.04530948
-3.916705	یگانگی	-0.0455021
-3.916705	۱/۲	-0.04473908
-3.916705	۱۱/۵	-0.04559205
-3.916705	۱۳/۱	-0.04530948
-3.916705	۱۳۴۵-۱۳۴۶	-0.03437601
-3.916705	۱۳۴۹-۱۳۵۰	-0.04426878
-3.916705	۱۳۵۳	-0.04559205
-3.916705	۱۳۵۳-۱۳۵۴	-0.04473908
-3.916705	۱۳۵۶	-0.04463835
-3.916705	۱۴/۲	-0.04416793
-3.916705	۱۵۲۹	-0.04555472
-3.916705	۲۰٪	-0.04463835
-3.916705	۲۰۳۶میلیون	-0.04524242
-3.916705	۲۱۹۷۰میلیون	-0.04555472
-3.916705	۲۲۴٪	-0.04494049
-3.916705	۳/۲	-0.04416793
-3.916705	۳۳٪	-0.04463835
-3.916705	۴/۵	-0.04450399
-3.916705	۴/۷۲۰/۰۰۰	-0.04470551
-3.916705	۴۷٪	-0.04510825
-3.916705	۵۰٪	-0.04541007
-3.916705	۶/۸	-0.04450399
-3.916705	۶۲٪	-0.04463835
-3.916705	۸۳/۵	-0.04450399
-3.916705	۹۶٪	-0.04467193
-3.683843	–	-0.04173583

\2-grams:
-1.001017	'' دوران
-1.001017	<s> دوازدهم
-1.699987	UNK فداکاری
-1.699987	UNK قدرت
-1.699987	UNK نمایندگان
-1.699987	UNK پرافتخار
-1.699987	UNK گزند
-1.001017	`` قایق‌های
-1.001017	sدوره تقنینیه
-1.001017	آئین نامه
-2.177108	آب آب
-2.177108	آب آمده
-2.177108	آب برق
-2.177108	آب بنابراین
-2.177108	آب تأسیس
-0.946736	آب خاک
-2.177108	آب روستاها
-2.177108	آب مملکت
-2.177108	آب نمی‌دهد
-2.177108	آب هوای
-0.946736	آب کشور
-1.699987	آبادانی بنوبه
-1.699987	آبادانی روستاهای
-1.699987	آبادانی سرعتی
-1.699987	آبادانی شرکت
-1.699987	آبادانی قریب
-1.001017	آبان نمایندگان
-1.001017	آبت ساختمان
-1.001017	آبدیده شده
-1.001017	آبرومندانه دسته
-1.001017	آبرومندانه‌ای ایجاد
-1.001017	آبزیان خلیج
-1.001017	آبها همانطور
-1.001017	آبهای کشور
-1.302047	آبی مصرف
-1.302047	آبی کیلو
-1.478138	آب‌های زیرزمینی
-1.478138	آب‌های سطحی
-1.478138	آب‌های شور
-1.001017	آتیه تخصیص
-2.001017	آثار استعماری
-2.001017	آثار انحطاط
-2.001017	آثار انقلاب
-2.001017	آثار دوران
-2.001017	آثار شومی
-2.001017	آثار مثبت
-2.001017	آثار مظاهر
-2.001017	آثار نتایج
-2.001017	آثار نیکوی
-2.001017	آثار پوسیده
-1.603077	آخرین آمار
-1.603077	آخرین اسلوب‌ها
-1.603077	آخرین ایده‌آل
-1.603077	آخرین سال
-1.001017	آراء کارتهای
-1.955259	آرامش ارتش
-1.955259	آرامش امنیت
-1.955259	آرامش تفاهم
-1.955259	آرامش ثبات
-1.955259	آرامش جامعه
-1.955259	آرامش جان
-1.955259	آرامش جهانی
-1.955259	آرامش خلع
-1.955259	آرامش دریای
-1.478138	آرزو تأییدات
-1.478138	آرزو طوری
-1.478138	آرزو نپوشیده
-1.001017	آرزوهای مقدس
-1.478138	آرزوی تحقق
-1.478138	آرزوی دیرینه
-1.478138	آرزوی نمونه
-1.001017	آرمان‌های استو
-1.779168	آزاد برقرار
-1.779168	آزاد بین‌المللی
-1.779168	آزاد سربلندی
-1.779168	آزاد متمدن
-1.779168	آزاد نیکبخت
-1.779168	آزاد وسیله
-2.042409	آزادی آگاهی
-2.042409	آزادی اظهار
-2.042409	آزادی جامعه
-2.042409	آزادی جمعیت
-2.042409	آزادی حاکمیت
-2.042409	آزادی دموکراسی
-2.042409	آزادی زنان
-2.042409	آزادی موجب
-2.042409	آزادی هرج
-2.042409	آزادی کشتی
-2.042409	آزادی گواهی
-1.001017	آزادی‌ها می‌کشاند
-1.302047	آزادی‌های دموکراتیک
-1.302047	آزادی‌های دمکراتیک
-1.001017	آزردگی تکدری
-1.001017	آزمایش دست
-1.001017	آزمایش‌های هسته‌ای
-1.302047	آسانی حقوق
-1.302047	آسانی زندگی
-1.001017	آسای نظامی
-1.478138	آسایش باشد
-1.478138	آسایش رفاهیت
-1.478138	آسایش فراهم
-1.001017	آسفالت سازی
-1.001017	آسمان آلودگی
-1.001017	آسیائی تهران
-1.001017	آسیایی سال
-1.001017	آسیبی امان
-1.302047	آشفته توانسته‌است
-1.302047	آشفته مصلحت
-1.001017	آشناکردن کشاورزان
-2.448175	آغاز اثر
-2.448175	آغاز اجرای
-2.448175	آغاز برنامه
-2.448175	آغاز بهره
-2.448175	آغاز تأخیر
-2.448175	آغاز تقنینیه
-2.448175	آغاز خلاف
-2.448175	آغاز درآمد
-1.217803	آغاز سال
-2.448175	آغاز شاه
-2.448175	آغاز شده
-1.595189	آغاز شده‌است
-2.448175	آغاز فرخنده‌ای
-2.448175	آغاز لازم
-2.448175	آغاز مایلیم
-2.448175	آغاز متأسفانه
-2.448175	آغاز مراقبت
-2.448175	آغاز مساعدی
-1.595189	آغاز می‌شود
-2.448175	آغاز می‌کند
-2.448175	آغاز می‌کنند
-2.448175	آغاز نسل
-2.448175	آغاز هدف
-2.448175	آغاز کرده‌ایم
-1.302047	آلات برقی
-1.302047	آلات دویست
-1.001017	آلمان انگلستان
-1.302047	آلودگی محیط
-1.302047	آلودگی گاز
-1.001017	آلودگی‌هایی دست
-1.302047	آلومینیوم ایران
-1.302047	آلومینیوم ماشین‌سازی
-1.478138	آماده سازد
-1.478138	آماده مجهز
-1.478138	آماده کار
-1.302047	آمادگی برنامه‌های
-1.302047	آمادگی یاری
-1.302047	آمار ارقام
-1.302047	آمار سه
-1.001017	آمارهای مربوط
-1.001017	آماری منتشر
-1.001017	آمال ملی
-1.302047	آمد توجه
